|--- date time --------|  deltaT dsm, sid     len data...
2016 11 21 00:00:00.0045       0   1,  20      50 ff ff ff ff ff ff 00 00 81 bf 81 81 80 17 80 1b 7f f8 7f f4 7f ed 7f e9 7f d9 80 18 7f f3 80 21 80 18 7f f6 80 1c 80 18 80 20 7f e8 00 00 ff ff ff ff
2016 11 21 00:00:00.0045       0   1,  21      36      65582      16380      32757      32748      32746      32789     3276.5   3.28e+05          2
2016 11 21 00:00:00.0331 0.02859   1,  20      50 ff ff ff ff ff ff 00 00 81 bf 81 81 80 17 80 1b 7f f8 7f f4 7f ed 7f e9 7f d9 80 18 7f f3 80 22 80 18 7f f6 80 1c 80 18 80 20 7f e8 00 00 ff ff ff ff
2016 11 21 00:00:00.0331       0   1,  21      36      65582      16380      32757      32748      32746      32789     3276.5 3.2802e+05          2
2016 11 21 00:00:00.0618 0.02868   1,  20      50 ff ff ff ff ff ff 00 00 81 c0 81 81 80 17 80 1b 7f f8 7f f4 7f ed 7f e9 7f d9 80 18 7f f3 80 21 80 18 7f f6 80 1c 80 18 80 20 7f e8 00 00 ff ff ff ff
2016 11 21 00:00:00.0618       0   1,  21      36      65582      16380      32757      32748      32746      32789     3276.5   3.28e+05          2
2016 11 21 00:00:00.0904 0.02866   1,  20      50 ff ff ff ff ff ff 00 00 81 bf 81 81 80 17 80 1b 7f f8 7f f4 7f ed 7f e9 7f d9 80 19 7f f3 80 21 80 18 7f f6 80 1e 80 18 80 20 7f e8 00 00 ff ff ff ff
2016 11 21 00:00:00.0904       0   1,  21      36      65582      16380      32757      32748      32746      32790     3276.5   3.28e+05          2
2016 11 21 00:00:00.1190 0.02862   1,  20      50 ff ff ff ff ff ff 00 00 81 c2 81 81 80 17 80 1b 7f f8 7f f4 7f ed 7f e9 7f d9 80 18 7f f3 80 21 80 18 7f f6 80 1c 80 18 80 20 7f e8 00 00 ff ff ff ff
2016 11 21 00:00:00.1190       0   1,  21      36      65582      16380      32757      32748      32746      32789     3276.5   3.28e+05          2
2016 11 21 00:00:00.1479 0.02885   1,  20      50 ff ff ff ff ff ff 00 00 81 bf 81 81 80 17 80 1b 7f f8 7f f4 7f ed 7f e9 7f d9 80 18 7f f3 80 21 80 18 7f f6 80 1c 80 18 80 20 7f e8 00 00 ff ff ff ff
2016 11 21 00:00:00.1479       0   1,  21      36      65582      16380      32757      32748      32746      32789     3276.5   3.28e+05          2
2016 11 21 00:00:00.1766 0.02874   1,  20      50 ff ff ff ff ff ff 00 00 81 bf 81 81 80 17 80 1b 7f f8 7f f4 7f ed 7f e9 7f d9 80 18 7f f3 80 22 80 18 7f f6 80 1c 80 18 80 20 7f e8 00 00 ff ff ff ff
2016 11 21 00:00:00.1766       0   1,  21      36      65582      16380      32757      32748      32746      32789     3276.5 3.2802e+05          2
2016 11 21 00:00:00.2052 0.02851   1,  20      50 ff ff ff ff ff ff 00 00 81 c0 81 81 80 17 80 1b 7f f8 7f f4 7f ed 7f e9 7f d9 80 19 7f f3 80 22 80 18 7f f6 80 1c 80 18 80 20 7f e8 00 00 ff ff ff ff
2016 11 21 00:00:00.2052       0   1,  21      36      65582      16380      32757      32748      32746      32790     3276.5 3.2802e+05          2
2016 11 21 00:00:00.2337 0.02857   1,  20      50 ff ff ff ff ff ff 00 00 81 c1 81 81 80 17 80 1b 7f f8 7f f4 7f ed 7f e9 7f d9 80 18 7f f3 80 21 80 18 7f f6 80 1c 80 18 80 20 7f e8 00 00 ff ff ff ff
2016 11 21 00:00:00.2337       0   1,  21      36      65582      16380      32757      32748      32746      32789     3276.5   3.28e+05          2
2016 11 21 00:00:00.2625 0.02874   1,  20      50 ff ff ff ff ff ff 00 00 81 bf 81 81 80 17 80 1b 7f f8 7f f4 7f ed 7f e9 7f d9 80 18 7f f3 80 21 80 18 7f f6 80 1c 80 18 80 20 7f e8 00 00 ff ff ff ff
2016 11 21 00:00:00.2625       0   1,  21      36      65582      16380      32757      32748      32746      32789     3276.5   3.28e+05          2
2016 11 21 00:00:00.2911 0.02863   1,  20      50 ff ff ff ff ff ff 00 00 81 bf 81 81 80 17 80 1b 7f f8 7f f4 7f ed 7f e9 7f d9 80 18 7f f3 80 21 80 18 7f f6 80 1c 80 18 80 20 7f e9 00 00 ff ff ff ff
2016 11 21 00:00:00.2911       0   1,  21      36      65582      16380      32757      32748      32746      32789     3276.5   3.28e+05          2
2016 11 21 00:00:00.3198 0.02868   1,  20      50 ff ff ff ff ff ff 00 00 81 c0 81 81 80 17 80 1b 7f f8 7f f4 7f ed 7f e9 7f d9 80 19 7f f3 80 21 80 18 7f f6 80 1c 80 18 80 20 7f e9 00 00 ff ff ff ff
2016 11 21 00:00:00.3198       0   1,  21      36      65582      16380      32757      32748      32746      32790     3276.5   3.28e+05          2
2016 11 21 00:00:00.3484 0.02867   1,  20      50 ff ff ff ff ff ff 00 00 81 c1 81 81 80 17 80 1b 7f f8 7f f4 7f ed 7f e9 7f d9 80 18 7f f3 80 21 80 18 7f f7 80 1c 80 18 80 20 7f e8 00 00 ff ff ff ff
2016 11 21 00:00:00.3484       0   1,  21      36      65582      16380      32757      32748      32746      32789     3276.5   3.28e+05          2
2016 11 21 00:00:00.3771 0.02867   1,  20      50 ff ff ff ff ff ff 00 00 81 c0 81 81 80 17 80 1b 7f f8 7f f4 7f ed 7f e9 7f d9 80 19 7f f3 80 22 80 18 7f f6 80 1c 80 18 80 20 7f e8 00 00 ff ff ff ff
2016 11 21 00:00:00.3771       0   1,  21      36      65582      16380      32757      32748      32746      32790     3276.5 3.2802e+05          2
2016 11 21 00:00:00.4084 0.03132   1,  20      50 ff ff ff ff ff ff 00 00 81 c1 81 81 80 17 80 1b 7f f8 7f f4 7f ed 7f e9 7f d9 80 18 7f f3 80 21 80 18 7f f6 80 1c 80 18 80 20 7f e8 00 00 ff ff ff ff
2016 11 21 00:00:00.4084       0   1,  21      36      65582      16380      32757      32748      32746      32789     3276.5   3.28e+05          2
2016 11 21 00:00:00.4362 0.02781   1,  20      50 ff ff ff ff ff ff 00 00 81 bf 81 81 80 17 80 1b 7f f8 7f f4 7f ed 7f e9 7f d9 80 18 7f f3 80 21 80 18 7f f6 80 1c 80 18 80 20 7f e8 00 00 ff ff ff ff
2016 11 21 00:00:00.4362       0   1,  21      36      65582      16380      32757      32748      32746      32789     3276.5   3.28e+05          2
2016 11 21 00:00:00.4633 0.02703   1,  20      50 ff ff ff ff ff ff 00 00 81 bf 81 81 80 17 80 1b 7f f8 7f f4 7f ed 7f e9 7f d9 80 18 7f f3 80 21 80 18 7f f7 80 1c 80 18 80 20 7f e8 00 00 ff ff ff ff
2016 11 21 00:00:00.4633       0   1,  21      36      65582      16380      32757      32748      32746      32789     3276.5   3.28e+05          2
2016 11 21 00:00:00.4918 0.02852   1,  20      50 ff ff ff ff ff ff 00 00 81 c0 81 81 80 17 80 1b 7f f8 7f f4 7f ed 7f e9 7f d9 80 18 7f f3 80 21 80 18 7f f7 80 1c 80 18 80 20 7f e8 00 00 ff ff ff ff
2016 11 21 00:00:00.4918       0   1,  21      36      65582      16380      32757      32748      32746      32789     3276.5   3.28e+05          2
2016 11 21 00:00:00.5206 0.02879   1,  20      50 ff ff ff ff ff ff 00 00 81 c0 81 81 80 17 80 1b 7f f8 7f f4 7f ed 7f e9 7f d9 80 18 7f f3 80 21 80 18 7f f6 80 1c 80 18 80 20 7f e8 00 00 ff ff ff ff
2016 11 21 00:00:00.5206       0   1,  21      36      65582      16380      32757      32748      32746      32789     3276.5   3.28e+05          2
2016 11 21 00:00:00.5491 0.02849   1,  20      50 ff ff ff ff ff ff 00 00 81 bf 81 81 80 17 80 1b 7f f8 7f f4 7f ed 7f e9 7f d9 80 18 7f f3 80 22 80 18 7f f6 80 1c 80 18 80 20 7f e8 00 00 ff ff ff ff
2016 11 21 00:00:00.5491       0   1,  21      36      65582      16380      32757      32748      32746      32789     3276.5 3.2802e+05          2
2016 11 21 00:00:00.5779 0.02877   1,  20      50 ff ff ff ff ff ff 00 00 81 c0 81 81 80 17 80 1b 7f f8 7f f4 7f ed 7f e9 7f d9 80 18 7f f3 80 21 80 18 7f f7 80 1c 80 18 80 20 7f e8 00 00 ff ff ff ff
2016 11 21 00:00:00.5779       0   1,  21      36      65582      16380      32757      32748      32746      32789     3276.5   3.28e+05          2
2016 11 21 00:00:00.6068 0.02899   1,  20      50 ff ff ff ff ff ff 00 00 81 c0 81 81 80 17 80 1b 7f f8 7f f4 7f ed 7f e9 7f d9 80 18 7f f3 80 21 80 18 7f f7 80 1c 80 18 80 20 7f e8 00 00 ff ff ff ff
2016 11 21 00:00:00.6068       0   1,  21      36      65582      16380      32757      32748      32746      32789     3276.5   3.28e+05          2
2016 11 21 00:00:00.6355 0.02868   1,  20      50 ff ff ff ff ff ff 00 00 81 c0 81 81 80 17 80 1b 7f f8 7f f4 7f ed 7f e9 7f d9 80 18 7f f3 80 21 80 18 7f f6 80 1c 80 18 80 20 7f e8 00 00 ff ff ff ff
2016 11 21 00:00:00.6355       0   1,  21      36      65582      16380      32757      32748      32746      32789     3276.5   3.28e+05          2
2016 11 21 00:00:00.6642 0.02863   1,  20      50 ff ff ff ff ff ff 00 00 81 bf 81 81 80 17 80 1b 7f f8 7f f4 7f ed 7f e9 7f d9 80 19 7f f3 80 22 80 18 7f f6 80 1c 80 18 80 20 7f e8 00 00 ff ff ff ff
2016 11 21 00:00:00.6642       0   1,  21      36      65582      16380      32757      32748      32746      32790     3276.5 3.2802e+05          2
2016 11 21 00:00:00.6934 0.02925   1,  20      50 ff ff ff ff ff ff 00 00 81 c1 81 81 80 17 80 1b 7f f8 7f f4 7f ed 7f e9 7f d9 80 18 7f f3 80 21 80 18 7f f7 80 1c 80 18 80 20 7f e9 00 00 ff ff ff ff
2016 11 21 00:00:00.6934       0   1,  21      36      65582      16380      32757      32748      32746      32789     3276.5   3.28e+05          2
2016 11 21 00:00:00.7224 0.02897   1,  20      50 ff ff ff ff ff ff 00 00 81 c1 81 81 80 17 80 1b 7f f8 7f f4 7f ed 7f e9 7f d9 80 18 7f f3 80 21 80 18 7f f6 80 1c 80 18 80 20 7f e8 00 00 ff ff ff ff
2016 11 21 00:00:00.7224       0   1,  21      36      65582      16380      32757      32748      32746      32789     3276.5   3.28e+05          2
2016 11 21 00:00:00.7512 0.02886   1,  20      50 ff ff ff ff ff ff 00 00 81 bf 81 81 80 17 80 1b 7f f8 7f f4 7f ed 7f e9 7f d9 80 18 7f f3 80 21 80 18 7f f7 80 1c 80 18 80 20 7f e8 00 00 ff ff ff ff
2016 11 21 00:00:00.7512       0   1,  21      36      65582      16380      32757      32748      32746      32789     3276.5   3.28e+05          2
2016 11 21 00:00:00.7799  0.0287   1,  20      50 ff ff ff ff ff ff 00 00 81 c0 81 81 80 17 80 1b 7f f8 7f f4 7f ed 7f e9 7f d9 80 18 7f f3 80 21 80 18 7f f7 80 1c 80 18 80 20 7f e8 00 00 ff ff ff ff
2016 11 21 00:00:00.7799       0   1,  21      36      65582      16380      32757      32748      32746      32789     3276.5   3.28e+05          2
2016 11 21 00:00:00.8072 0.02729   1,  20      50 ff ff ff ff ff ff 00 00 81 c0 81 81 80 17 80 1b 7f f8 7f f4 7f ed 7f e9 7f d9 80 18 7f f3 80 21 80 18 7f f7 80 1c 80 18 80 20 7f e8 00 00 ff ff ff ff
2016 11 21 00:00:00.8072       0   1,  21      36      65582      16380      32757      32748      32746      32789     3276.5   3.28e+05          2
2016 11 21 00:00:00.8362 0.02898   1,  20      50 ff ff ff ff ff ff 00 00 81 c0 81 81 80 17 80 1b 7f f8 7f f4 7f ed 7f e9 7f d9 80 18 7f f3 80 21 80 18 7f f6 80 1c 80 18 80 20 7f e8 00 00 ff ff ff ff
2016 11 21 00:00:00.8362       0   1,  21      36      65582      16380      32757      32748      32746      32789     3276.5   3.28e+05          2
2016 11 21 00:00:00.8647 0.02847   1,  20      50 ff ff ff ff ff ff 00 00 81 bf 81 81 80 17 80 1b 7f f8 7f f4 7f ed 7f e9 7f d9 80 19 7f f3 80 21 80 18 7f f6 80 1c 80 18 80 20 7f e8 00 00 ff ff ff ff
2016 11 21 00:00:00.8647       0   1,  21      36      65582      16380      32757      32748      32746      32790     3276.5   3.28e+05          2
2016 11 21 00:00:00.8934 0.02874   1,  20      50 ff ff ff ff ff ff 00 00 81 c0 81 81 80 17 80 1b 7f f8 7f f4 7f ed 7f e9 7f d9 80 19 7f f3 80 21 80 18 7f f7 80 1c 80 18 80 20 7f e8 00 00 ff ff ff ff
2016 11 21 00:00:00.8934       0   1,  21      36      65582      16380      32757      32748      32746      32790     3276.5   3.28e+05          2
2016 11 21 00:00:00.9222 0.02875   1,  20      50 ff ff ff ff ff ff 00 00 81 c1 81 81 80 17 80 1b 7f f8 7f f4 7f ed 7f e9 7f d9 80 18 7f f3 80 21 80 18 7f f6 80 1c 80 18 80 20 7f e8 00 00 ff ff ff ff
2016 11 21 00:00:00.9222       0   1,  21      36      65582      16380      32757      32748      32746      32789     3276.5   3.28e+05          2
2016 11 21 00:00:00.9507 0.02857   1,  20      50 ff ff ff ff ff ff 00 00 81 bf 81 81 80 17 80 1b 7f f8 7f f4 7f ed 7f e9 7f d9 80 19 7f f3 80 21 80 18 7f f6 80 1c 80 18 80 20 7f e8 00 00 ff ff ff ff
2016 11 21 00:00:00.9507       0   1,  21      36      65582      16380      32757      32748      32746      32790     3276.5   3.28e+05          2
2016 11 21 00:00:00.9791 0.02836   1,  20      50 ff ff ff ff ff ff 00 00 81 c0 81 81 80 17 80 1b 7f f8 7f f4 7f ed 7f e9 7f d9 80 18 7f f3 80 21 80 18 7f f6 80 1c 80 18 80 20 7f e8 00 00 ff ff ff ff
2016 11 21 00:00:00.9791       0   1,  21      36      65582      16380      32757      32748      32746      32789     3276.5   3.28e+05          2
2016 11 21 00:00:01.0083 0.02925   1,  20      50 ff ff ff ff ff ff 00 00 81 bf 81 81 80 17 80 1b 7f f8 7f f4 7f ed 7f e9 7f d9 80 18 7f f3 80 21 80 18 7f f7 80 1c 80 18 80 20 7f e8 00 00 ff ff ff ff
2016 11 21 00:00:01.0083       0   1,  21      36      65582      16380      32757      32748      32746      32789     3276.5   3.28e+05          2
2016 11 21 00:00:01.0365 0.02822   1,  20      50 ff ff ff ff ff ff 00 00 81 c0 81 81 80 17 80 1b 7f f8 7f f4 7f ed 7f e9 7f d9 80 18 7f f3 80 21 80 18 7f f6 80 1c 80 18 80 20 7f e8 00 00 ff ff ff ff
2016 11 21 00:00:01.0365       0   1,  21      36      65582      16380      32757      32748      32746      32789     3276.5   3.28e+05          2
2016 11 21 00:00:01.0659 0.02932   1,  20      50 ff ff ff ff ff ff 00 00 81 bf 81 81 80 17 80 1b 7f f8 7f f4 7f ed 7f e9 7f d9 80 18 7f f3 80 22 80 18 7f f6 80 1c 80 18 80 20 7f e8 00 00 ff ff ff ff
2016 11 21 00:00:01.0659       0   1,  21      36      65582      16380      32757      32748      32746      32789     3276.5 3.2802e+05          2
2016 11 21 00:00:01.0947 0.02885   1,  20      50 ff ff ff ff ff ff 00 00 81 c0 81 81 80 17 80 1b 7f f8 7f f4 7f ed 7f e9 7f d9 80 18 7f f3 80 22 80 18 7f f6 80 1c 80 18 80 20 7f e8 00 00 ff ff ff ff
2016 11 21 00:00:01.0947       0   1,  21      36      65582      16380      32757      32748      32746      32789     3276.5 3.2802e+05          2
2016 11 21 00:00:01.1232 0.02849   1,  20      50 ff ff ff ff ff ff 00 00 81 c0 81 81 80 17 80 1b 7f f8 7f f4 7f ed 7f e9 7f d9 80 18 7f f3 80 21 80 18 7f f6 80 1c 80 18 80 20 7f e8 00 00 ff ff ff ff
2016 11 21 00:00:01.1232       0   1,  21      36      65582      16380      32757      32748      32746      32789     3276.5   3.28e+05          2
2016 11 21 00:00:01.1515 0.02824   1,  20      50 ff ff ff ff ff ff 00 00 81 bf 81 81 80 17 80 1b 7f f8 7f f4 7f ed 7f e9 7f d9 80 18 7f f3 80 21 80 18 7f f6 80 1c 80 18 80 20 7f e8 00 00 ff ff ff ff
2016 11 21 00:00:01.1515       0   1,  21      36      65582      16380      32757      32748      32746      32789     3276.5   3.28e+05          2
2016 11 21 00:00:01.1802 0.02877   1,  20      50 ff ff ff ff ff ff 00 00 81 bf 81 81 80 17 80 1b 7f f8 7f f4 7f ed 7f e9 7f d9 80 18 7f f3 80 21 80 18 7f f6 80 1c 80 18 80 20 7f e8 00 00 ff ff ff ff
2016 11 21 00:00:01.1802       0   1,  21      36      65582      16380      32757      32748      32746      32789     3276.5   3.28e+05          2
2016 11 21 00:00:01.2087 0.02852   1,  20      50 ff ff ff ff ff ff 00 00 81 bf 81 81 80 17 80 1b 7f f8 7f f4 7f ed 7f e9 7f d9 80 18 7f f3 80 21 80 18 7f f6 80 1c 80 18 80 20 7f e8 00 00 ff ff ff ff
2016 11 21 00:00:01.2087       0   1,  21      36      65582      16380      32757      32748      32746      32789     3276.5   3.28e+05          2
2016 11 21 00:00:01.2376 0.02888   1,  20      50 ff ff ff ff ff ff 00 00 81 bf 81 81 80 17 80 1b 7f f8 7f f4 7f ed 7f e9 7f d9 80 18 7f f3 80 22 80 18 7f f7 80 1c 80 18 80 20 7f e8 00 00 ff ff ff ff
2016 11 21 00:00:01.2376       0   1,  21      36      65582      16380      32757      32748      32746      32789     3276.5 3.2802e+05          2
2016 11 21 00:00:01.2660 0.02835   1,  20      50 ff ff ff ff ff ff 00 00 81 c1 81 81 80 17 80 1b 7f f8 7f f4 7f ed 7f e9 7f d9 80 18 7f f3 80 22 80 18 7f f7 80 1c 80 18 80 20 7f e8 00 00 ff ff ff ff
2016 11 21 00:00:01.2660       0   1,  21      36      65582      16380      32757      32748      32746      32789     3276.5 3.2802e+05          2
2016 11 21 00:00:01.2946  0.0286   1,  20      50 ff ff ff ff ff ff 00 00 81 c1 81 81 80 17 80 1b 7f f8 7f f4 7f ed 7f e9 7f d9 80 18 7f f3 80 21 80 18 7f f7 80 1c 80 18 80 20 7f e8 00 00 ff ff ff ff
2016 11 21 00:00:01.2946       0   1,  21      36      65582      16380      32757      32748      32746      32789     3276.5   3.28e+05          2
2016 11 21 00:00:01.3233 0.02877   1,  20      50 ff ff ff ff ff ff 00 00 81 c0 81 81 80 17 80 1b 7f f8 7f f4 7f ed 7f e9 7f d9 80 18 7f f3 80 21 80 18 7f f6 80 1c 80 18 80 20 7f e8 00 00 ff ff ff ff
2016 11 21 00:00:01.3233       0   1,  21      36      65582      16380      32757      32748      32746      32789     3276.5   3.28e+05          2
2016 11 21 00:00:01.3520 0.02863   1,  20      50 ff ff ff ff ff ff 00 00 81 bf 81 81 80 17 80 1b 7f f8 7f f4 7f ed 7f e9 7f d9 80 18 7f f3 80 21 80 18 7f f6 80 1c 80 18 80 20 7f e8 00 00 ff ff ff ff
2016 11 21 00:00:01.3520       0   1,  21      36      65582      16380      32757      32748      32746      32789     3276.5   3.28e+05          2
2016 11 21 00:00:01.3812 0.02919   1,  20      50 ff ff ff ff ff ff 00 00 81 bf 81 81 80 17 80 1b 7f f8 7f f4 7f ed 7f e9 7f d9 80 18 7f f3 80 21 80 18 7f f6 80 1c 80 18 80 20 7f e9 00 00 ff ff ff ff
2016 11 21 00:00:01.3812       0   1,  21      36      65582      16380      32757      32748      32746      32789     3276.5   3.28e+05          2
2016 11 21 00:00:01.4098 0.02869   1,  20      50 ff ff ff ff ff ff 00 00 81 c0 81 81 80 17 80 1b 7f f8 7f f4 7f ed 7f e9 7f d9 80 18 7f f3 80 22 80 18 7f f6 80 1c 80 18 80 20 7f e8 00 00 ff ff ff ff
2016 11 21 00:00:01.4098       0   1,  21      36      65582      16380      32757      32748      32746      32789     3276.5 3.2802e+05          2
2016 11 21 00:00:01.4381  0.0282   1,  20      50 ff ff ff ff ff ff 00 00 81 c0 81 81 80 17 80 1b 7f f8 7f f4 7f ed 7f e9 7f d9 80 18 7f f3 80 21 80 18 7f f7 80 1c 80 18 80 20 7f e8 00 00 ff ff ff ff
2016 11 21 00:00:01.4381       0   1,  21      36      65582      16380      32757      32748      32746      32789     3276.5   3.28e+05          2
2016 11 21 00:00:01.4667 0.02862   1,  20      50 ff ff ff ff ff ff 00 00 81 c0 81 81 80 17 80 1b 7f f8 7f f4 7f ed 7f e9 7f d9 80 18 7f f3 80 21 80 18 7f f6 80 1c 80 18 80 20 7f e8 00 00 ff ff ff ff
2016 11 21 00:00:01.4667       0   1,  21      36      65582      16380      32757      32748      32746      32789     3276.5   3.28e+05          2
2016 11 21 00:00:01.4952 0.02852   1,  20      50 ff ff ff ff ff ff 00 00 81 bf 81 81 80 17 80 1b 7f f8 7f f4 7f ed 7f e9 7f d9 80 18 7f f3 80 21 80 18 7f f6 80 1c 80 18 80 20 7f e8 00 00 ff ff ff ff
2016 11 21 00:00:01.4952       0   1,  21      36      65582      16380      32757      32748      32746      32789     3276.5   3.28e+05          2
2016 11 21 00:00:01.5242   0.029   1,  20      50 ff ff ff ff ff ff 00 00 81 bf 81 81 80 17 80 1b 7f f8 7f f4 7f ed 7f e9 7f d9 80 18 7f f3 80 21 80 18 7f f6 80 1c 80 18 80 20 7f e8 00 00 ff ff ff ff
2016 11 21 00:00:01.5242       0   1,  21      36      65582      16380      32757      32748      32746      32789     3276.5   3.28e+05          2
2016 11 21 00:00:01.5539 0.02975   1,  20      50 ff ff ff ff ff ff 00 00 81 bf 81 81 80 17 80 1b 7f f8 7f f4 7f ed 7f e9 7f d9 80 18 7f f3 80 21 80 18 7f f6 80 1c 80 18 80 20 7f e8 00 00 ff ff ff ff
2016 11 21 00:00:01.5539       0   1,  21      36      65582      16380      32757      32748      32746      32789     3276.5   3.28e+05          2
2016 11 21 00:00:01.5814 0.02747   1,  20      50 ff ff ff ff ff ff 00 00 81 bf 81 81 80 17 80 1b 7f f8 7f f4 7f ed 7f e9 7f d9 80 18 7f f3 80 22 80 18 7f f7 80 1c 80 18 80 20 7f e8 00 00 ff ff ff ff
2016 11 21 00:00:01.5814       0   1,  21      36      65582      16380      32757      32748      32746      32789     3276.5 3.2802e+05          2
2016 11 21 00:00:01.6101 0.02869   1,  20      50 ff ff ff ff ff ff 00 00 81 c1 81 81 80 17 80 1b 7f f8 7f f4 7f ed 7f e9 7f d9 80 18 7f f3 80 22 80 18 7f f6 80 1c 80 18 80 20 7f e8 00 00 ff ff ff ff
2016 11 21 00:00:01.6101       0   1,  21      36      65582      16380      32757      32748      32746      32789     3276.5 3.2802e+05          2
2016 11 21 00:00:01.6393 0.02922   1,  20      50 ff ff ff ff ff ff 00 00 81 c0 81 81 80 17 80 1b 7f f8 7f f4 7f ed 7f e9 7f d9 80 18 7f f3 80 21 80 18 7f f6 80 1c 80 18 80 20 7f e8 00 00 ff ff ff ff
2016 11 21 00:00:01.6393       0   1,  21      36      65582      16380      32757      32748      32746      32789     3276.5   3.28e+05          2
2016 11 21 00:00:01.6682  0.0289   1,  20      50 ff ff ff ff ff ff 00 00 81 bf 81 81 80 17 80 1b 7f f8 7f f4 7f ed 7f e9 7f d9 80 18 7f f3 80 21 80 18 7f f6 80 1c 80 18 80 20 7f e8 00 00 ff ff ff ff
2016 11 21 00:00:01.6682       0   1,  21      36      65582      16380      32757      32748      32746      32789     3276.5   3.28e+05          2
2016 11 21 00:00:01.6967 0.02846   1,  20      50 ff ff ff ff ff ff 00 00 81 bf 81 81 80 17 80 1b 7f f8 7f f4 7f ed 7f e9 7f d9 80 18 7f f3 80 21 80 18 7f f7 80 1c 80 18 80 20 7f e8 00 00 ff ff ff ff
2016 11 21 00:00:01.6967       0   1,  21      36      65582      16380      32757      32748      32746      32789     3276.5   3.28e+05          2
2016 11 21 00:00:01.7249 0.02827   1,  20      50 ff ff ff ff ff ff 00 00 81 c0 81 81 80 17 80 1b 7f f8 7f f4 7f ed 7f e9 7f d9 80 18 7f f3 80 21 80 18 7f f6 80 1c 80 18 80 20 7f e8 00 00 ff ff ff ff
2016 11 21 00:00:01.7249       0   1,  21      36      65582      16380      32757      32748      32746      32789     3276.5   3.28e+05          2
2016 11 21 00:00:01.7538  0.0289   1,  20      50 ff ff ff ff ff ff 00 00 81 bf 81 81 80 17 80 1b 7f f8 7f f4 7f ed 7f e9 7f d9 80 18 7f f3 80 21 80 18 7f f6 80 1c 80 18 80 20 7f e8 00 00 ff ff ff ff
2016 11 21 00:00:01.7538       0   1,  21      36      65582      16380      32757      32748      32746      32789     3276.5   3.28e+05          2
2016 11 21 00:00:01.7821 0.02822   1,  20      50 ff ff ff ff ff ff 00 00 81 bf 81 81 80 17 80 1b 7f f8 7f f4 7f ed 7f e9 7f d9 80 18 7f f3 80 21 80 18 7f f6 80 1c 80 18 80 20 7f e8 00 00 ff ff ff ff
2016 11 21 00:00:01.7821       0   1,  21      36      65582      16380      32757      32748      32746      32789     3276.5   3.28e+05          2
2016 11 21 00:00:01.8112 0.02918   1,  20      50 ff ff ff ff ff ff 00 00 81 bf 81 81 80 17 80 1b 7f f8 7f f4 7f ed 7f e9 7f d9 80 18 7f f3 80 21 80 18 7f f6 80 1c 80 18 80 20 7f e8 00 00 ff ff ff ff
2016 11 21 00:00:01.8112       0   1,  21      36      65582      16380      32757      32748      32746      32789     3276.5   3.28e+05          2
2016 11 21 00:00:01.8406 0.02936   1,  20      50 ff ff ff ff ff ff 00 00 81 bf 81 81 80 17 80 1b 7f f8 7f f4 7f ed 7f e9 7f d9 80 18 7f f3 80 21 80 18 7f f6 80 1c 80 18 80 20 7f e8 00 00 ff ff ff ff
2016 11 21 00:00:01.8406       0   1,  21      36      65582      16380      32757      32748      32746      32789     3276.5   3.28e+05          2
2016 11 21 00:00:01.8680 0.02745   1,  20      50 ff ff ff ff ff ff 00 00 81 bf 81 81 80 17 80 1b 7f f8 7f f4 7f ed 7f e9 7f d9 80 18 7f f3 80 21 80 18 7f f6 80 1c 80 18 80 20 7f e8 00 00 ff ff ff ff
2016 11 21 00:00:01.8680       0   1,  21      36      65582      16380      32757      32748      32746      32789     3276.5   3.28e+05          2
2016 11 21 00:00:01.8968 0.02873   1,  20      50 ff ff ff ff ff ff 00 00 81 bf 81 81 80 17 80 1b 7f f8 7f f4 7f ed 7f e9 7f d9 80 18 7f f3 80 21 80 18 7f f7 80 1c 80 18 80 20 7f e8 00 00 ff ff ff ff
2016 11 21 00:00:01.9480 0.05122   1,  20      50 ff ff ff ff ff ff 00 00 81 c0 81 81 80 17 80 1b 7f f8 7f f4 7f ed 7f e9 7f d9 80 18 7f f3 80 21 80 18 7f f6 80 1c 80 18 80 20 7f e8 00 00 ff ff ff ff
2016 11 21 00:00:01.9480       0   1,  21      36      65582      16380      32757      32748      32746      32789     3276.5   3.28e+05          2
2016 11 21 00:00:01.9546 0.006555   1,  20      50 ff ff ff ff ff ff 00 00 81 bf 81 81 80 17 80 1b 7f f8 7f f4 7f ed 7f e9 7f d9 80 18 7f f3 80 21 80 18 7f f6 80 1c 80 18 80 20 7f e8 00 00 ff ff ff ff
2016 11 21 00:00:01.9546       0   1,  21      36      65582      16380      32757      32748      32746      32789     3276.5   3.28e+05          2
2016 11 21 00:00:01.9826 0.02808   1,  20      50 ff ff ff ff ff ff 00 00 81 bf 81 81 80 17 80 1b 7f f8 7f f4 7f ed 7f e9 7f d9 80 18 7f f3 80 21 80 18 7f f7 80 1c 80 18 80 20 7f e8 00 00 ff ff ff ff
2016 11 21 00:00:01.9826       0   1,  21      36      65582      16380      32757      32748      32746      32789     3276.5   3.28e+05          2
2016 11 21 00:00:02.0114 0.02874   1,  20      50 ff ff ff ff ff ff 00 00 81 c0 81 81 80 17 80 1b 7f f8 7f f4 7f ed 7f e9 7f d9 80 19 7f f3 80 22 80 18 7f f7 80 1c 80 18 80 20 7f e8 00 00 ff ff ff ff
2016 11 21 00:00:02.0114       0   1,  21      36      65582      16380      32757      32748      32746      32790     3276.5 3.2802e+05          2
2016 11 21 00:00:02.0402 0.02878   1,  20      50 ff ff ff ff ff ff 00 00 81 c2 81 81 80 17 80 1b 7f f8 7f f4 7f ed 7f e9 7f d9 80 18 7f f3 80 21 80 18 7f f6 80 1c 80 18 80 20 7f e8 00 00 ff ff ff ff
2016 11 21 00:00:02.0402       0   1,  21      36      65582      16380      32757      32748      32746      32789     3276.5   3.28e+05          2
2016 11 21 00:00:02.0694 0.02925   1,  20      50 ff ff ff ff ff ff 00 00 81 bf 81 81 80 17 80 1b 7f f8 7f f4 7f ed 7f e9 7f d9 80 18 7f f3 80 21 80 18 7f f6 80 1c 80 18 80 20 7f e9 00 00 ff ff ff ff
2016 11 21 00:00:02.0694       0   1,  21      36      65582      16380      32757      32748      32746      32789     3276.5   3.28e+05          2
2016 11 21 00:00:02.0976 0.02822   1,  20      50 ff ff ff ff ff ff 00 00 81 c0 81 81 80 17 80 1b 7f f8 7f f4 7f ed 7f e9 7f d9 80 18 7f f3 80 21 80 18 7f f6 80 1c 80 18 80 20 7f e8 00 00 ff ff ff ff
2016 11 21 00:00:02.0976       0   1,  21      36      65582      16380      32757      32748      32746      32789     3276.5   3.28e+05          2
2016 11 21 00:00:02.1261 0.02852   1,  20      50 ff ff ff ff ff ff 00 00 81 bf 81 81 80 17 80 1b 7f f8 7f f4 7f ed 7f e9 7f d9 80 18 7f f3 80 22 80 18 7f f6 80 1c 80 18 80 20 7f e8 00 00 ff ff ff ff
2016 11 21 00:00:02.1261       0   1,  21      36      65582      16380      32757      32748      32746      32789     3276.5 3.2802e+05          2
2016 11 21 00:00:02.1550 0.02884   1,  20      50 ff ff ff ff ff ff 00 00 81 c0 81 81 80 17 80 1b 7f f8 7f f4 7f ed 7f e9 7f d9 80 18 7f f3 80 22 80 18 7f f7 80 1c 80 18 80 20 7f e8 00 00 ff ff ff ff
2016 11 21 00:00:02.1550       0   1,  21      36      65582      16380      32757      32748      32746      32789     3276.5 3.2802e+05          2
2016 11 21 00:00:02.1835 0.02855   1,  20      50 ff ff ff ff ff ff 00 00 81 c1 81 81 80 17 80 1b 7f f8 7f f4 7f ed 7f e9 7f d9 80 18 7f f3 80 21 80 18 7f f6 80 1c 80 18 80 20 7f e8 00 00 ff ff ff ff
2016 11 21 00:00:02.1835       0   1,  21      36      65582      16380      32757      32748      32746      32789     3276.5   3.28e+05          2
2016 11 21 00:00:02.2127 0.02915   1,  20      50 ff ff ff ff ff ff 00 00 81 bf 81 81 80 17 80 1b 7f f8 7f f4 7f ed 7f e9 7f d9 80 18 7f f3 80 21 80 18 7f f6 80 1c 80 18 80 20 7f e8 00 00 ff ff ff ff
2016 11 21 00:00:02.2127       0   1,  21      36      65582      16380      32757      32748      32746      32789     3276.5   3.28e+05          2
2016 11 21 00:00:02.2409 0.02824   1,  20      50 ff ff ff ff ff ff 00 00 81 bf 81 81 80 17 80 1b 7f f8 7f f4 7f ed 7f e9 7f d9 80 18 7f f3 80 21 80 18 7f f6 80 1c 80 18 80 20 7f e8 00 00 ff ff ff ff
2016 11 21 00:00:02.2409       0   1,  21      36      65582      16380      32757      32748      32746      32789     3276.5   3.28e+05          2
2016 11 21 00:00:02.2695 0.02856   1,  20      50 ff ff ff ff ff ff 00 00 81 bf 81 81 80 17 80 1b 7f f8 7f f4 7f ed 7f e9 7f d9 80 18 7f f3 80 21 80 18 7f f7 80 1c 80 18 80 20 7f e8 00 00 ff ff ff ff
2016 11 21 00:00:02.2695       0   1,  21      36      65582      16380      32757      32748      32746      32789     3276.5   3.28e+05          2
2016 11 21 00:00:02.2985 0.02899   1,  20      50 ff ff ff ff ff ff 00 00 81 c0 81 81 80 17 80 1b 7f f8 7f f4 7f ed 7f e9 7f d9 80 18 7f f3 80 21 80 18 7f f6 80 1c 80 18 80 20 7f e8 00 00 ff ff ff ff
2016 11 21 00:00:02.2985       0   1,  21      36      65582      16380      32757      32748      32746      32789     3276.5   3.28e+05          2
2016 11 21 00:00:02.3273 0.02879   1,  20      50 ff ff ff ff ff ff 00 00 81 bf 81 81 80 17 80 1b 7f f8 7f f4 7f ed 7f e9 7f d9 80 18 7f f3 80 21 80 18 7f f6 80 1c 80 18 80 20 7f e8 00 00 ff ff ff ff
2016 11 21 00:00:02.3273       0   1,  21      36      65582      16380      32757      32748      32746      32789     3276.5   3.28e+05          2
2016 11 21 00:00:02.3560 0.02873   1,  20      50 ff ff ff ff ff ff 00 00 81 bf 81 81 80 17 80 1b 7f f8 7f f4 7f ed 7f e9 7f d9 80 18 7f f3 80 21 80 18 7f f6 80 1c 80 18 80 20 7f e8 00 00 ff ff ff ff
2016 11 21 00:00:02.3560       0   1,  21      36      65582      16380      32757      32748      32746      32789     3276.5   3.28e+05          2
2016 11 21 00:00:02.3841 0.02815   1,  20      50 ff ff ff ff ff ff 00 00 81 bf 81 81 80 17 80 1b 7f f8 7f f4 7f ed 7f e9 7f d9 80 18 7f f3 80 21 80 18 7f f7 80 1c 80 18 80 20 7f e8 00 00 ff ff ff ff
2016 11 21 00:00:02.3841       0   1,  21      36      65582      16380      32757      32748      32746      32789     3276.5   3.28e+05          2
2016 11 21 00:00:02.4130 0.02881   1,  20      50 ff ff ff ff ff ff 00 00 81 c0 81 81 80 17 80 1b 7f f8 7f f4 7f ed 7f e9 7f d9 80 18 7f f3 80 21 80 18 7f f7 80 1c 80 18 80 20 7f e8 00 00 ff ff ff ff
2016 11 21 00:00:02.4130       0   1,  21      36      65582      16380      32757      32748      32746      32789     3276.5   3.28e+05          2
2016 11 21 00:00:02.4416 0.02861   1,  20      50 ff ff ff ff ff ff 00 00 81 c0 81 81 80 17 80 1b 7f f8 7f f4 7f ed 7f e9 7f d9 80 18 7f f3 80 21 80 18 7f f6 80 1c 80 18 80 20 7f e8 00 00 ff ff ff ff
2016 11 21 00:00:02.4416       0   1,  21      36      65582      16380      32757      32748      32746      32789     3276.5   3.28e+05          2
2016 11 21 00:00:02.4702 0.02862   1,  20      50 ff ff ff ff ff ff 00 00 81 bf 81 81 80 17 80 1b 7f f8 7f f4 7f ed 7f e9 7f d9 80 18 7f f3 80 21 80 18 7f f6 80 1c 80 18 80 20 7f e8 00 00 ff ff ff ff
2016 11 21 00:00:02.4702       0   1,  21      36      65582      16380      32757      32748      32746      32789     3276.5   3.28e+05          2
2016 11 21 00:00:02.4988 0.02862   1,  20      50 ff ff ff ff ff ff 00 00 81 bf 81 81 80 17 80 1b 7f f8 7f f4 7f ed 7f e9 7f d9 80 18 7f f3 80 21 80 18 7f f6 80 1c 80 18 80 20 7f e8 00 00 ff ff ff ff
2016 11 21 00:00:02.4988       0   1,  21      36      65582      16380      32757      32748      32746      32789     3276.5   3.28e+05          2
2016 11 21 00:00:02.5280 0.02917   1,  20      50 ff ff ff ff ff ff 00 00 81 bf 81 81 80 17 80 1b 7f f8 7f f4 7f ed 7f e9 7f d9 80 18 7f f3 80 21 80 18 7f f6 80 1c 80 18 80 20 7f e8 00 00 ff ff ff ff
2016 11 21 00:00:02.5280       0   1,  21      36      65582      16380      32757      32748      32746      32789     3276.5   3.28e+05          2
2016 11 21 00:00:02.5565 0.02849   1,  20      50 ff ff ff ff ff ff 00 00 81 bf 81 81 80 17 80 1b 7f f8 7f f4 7f ed 7f e9 7f d9 80 18 7f f3 80 21 80 18 7f f6 80 1c 80 18 80 20 7f e8 00 00 ff ff ff ff
2016 11 21 00:00:02.5565       0   1,  21      36      65582      16380      32757      32748      32746      32789     3276.5   3.28e+05          2
2016 11 21 00:00:02.5852 0.02868   1,  20      50 ff ff ff ff ff ff 00 00 81 bf 81 81 80 17 80 1b 7f f8 7f f4 7f ed 7f e9 7f d9 80 18 7f f3 80 21 80 18 7f f6 80 1c 80 18 80 20 7f e8 00 00 ff ff ff ff
2016 11 21 00:00:02.5852       0   1,  21      36      65582      16380      32757      32748      32746      32789     3276.5   3.28e+05          2
2016 11 21 00:00:02.6139 0.02871   1,  20      50 ff ff ff ff ff ff 00 00 81 bf 81 81 80 17 80 1b 7f f8 7f f4 7f ed 7f e9 7f d9 80 18 7f f3 80 21 80 18 7f f6 80 1c 80 18 80 20 7f e8 00 00 ff ff ff ff
2016 11 21 00:00:02.6139       0   1,  21      36      65582      16380      32757      32748      32746      32789     3276.5   3.28e+05          2
2016 11 21 00:00:02.6421 0.02829   1,  20      50 ff ff ff ff ff ff 00 00 81 bf 81 81 80 17 80 1b 7f f8 7f f4 7f ed 7f e9 7f d9 80 18 7f f3 80 21 80 18 7f f7 80 1c 80 18 80 20 7f e8 00 00 ff ff ff ff
2016 11 21 00:00:02.6421       0   1,  21      36      65582      16380      32757      32748      32746      32789     3276.5   3.28e+05          2
2016 11 21 00:00:02.6717 0.02952   1,  20      50 ff ff ff ff ff ff 00 00 81 c0 81 81 80 17 80 1b 7f f8 7f f4 7f ed 7f e9 7f d9 80 18 7f f3 80 21 80 18 7f f7 80 1c 80 18 80 20 7f e8 00 00 ff ff ff ff
2016 11 21 00:00:02.6717       0   1,  21      36      65582      16380      32757      32748      32746      32789     3276.5   3.28e+05          2
2016 11 21 00:00:02.6996 0.02792   1,  20      50 ff ff ff ff ff ff 00 00 81 c0 81 81 80 17 80 1b 7f f8 7f f4 7f ed 7f e9 7f d9 80 18 7f f3 80 21 80 18 7f f6 80 1c 80 18 80 20 7f e9 00 00 ff ff ff ff
2016 11 21 00:00:02.6996       0   1,  21      36      65582      16380      32757      32748      32746      32789     3276.5   3.28e+05          2
2016 11 21 00:00:02.7285 0.02895   1,  20      50 ff ff ff ff ff ff 00 00 81 c0 81 81 80 17 80 1b 7f f8 7f f4 7f ed 7f e9 7f d9 80 18 7f f3 80 21 80 18 7f f6 80 1c 80 18 80 20 7f e9 00 00 ff ff ff ff
2016 11 21 00:00:02.7285       0   1,  21      36      65582      16380      32757      32748      32746      32789     3276.5   3.28e+05          2
2016 11 21 00:00:02.7576 0.02905   1,  20      50 ff ff ff ff ff ff 00 00 81 c0 81 81 80 17 80 1b 7f f8 7f f4 7f ed 7f e9 7f d9 80 18 7f f3 80 21 80 18 7f f6 80 1c 80 18 80 20 7f e8 00 00 ff ff ff ff
2016 11 21 00:00:02.7576       0   1,  21      36      65582      16380      32757      32748      32746      32789     3276.5   3.28e+05          2
2016 11 21 00:00:02.7856 0.02802   1,  20      50 ff ff ff ff ff ff 00 00 81 bf 81 81 80 17 80 1b 7f f8 7f f4 7f ed 7f e9 7f d9 80 18 7f f3 80 21 80 18 7f f6 80 1c 80 18 80 20 7f e8 00 00 ff ff ff ff
2016 11 21 00:00:02.7856       0   1,  21      36      65582      16380      32757      32748      32746      32789     3276.5   3.28e+05          2
2016 11 21 00:00:02.8143 0.02865   1,  20      50 ff ff ff ff ff ff 00 00 81 bf 81 81 80 17 80 1b 7f f8 7f f4 7f ed 7f e9 7f d9 80 18 7f f3 80 21 80 18 7f f6 80 1c 80 18 80 20 7f e8 00 00 ff ff ff ff
2016 11 21 00:00:02.8143       0   1,  21      36      65582      16380      32757      32748      32746      32789     3276.5   3.28e+05          2
2016 11 21 00:00:02.8431 0.02888   1,  20      50 ff ff ff ff ff ff 00 00 81 bf 81 81 80 17 80 1b 7f f8 7f f4 7f ed 7f e9 7f d9 80 18 7f f3 80 21 80 18 7f f6 80 1c 80 18 80 20 7f e8 00 00 ff ff ff ff
2016 11 21 00:00:02.8431       0   1,  21      36      65582      16380      32757      32748      32746      32789     3276.5   3.28e+05          2
2016 11 21 00:00:02.8718  0.0287   1,  20      50 ff ff ff ff ff ff 00 00 81 bf 81 81 80 17 80 1b 7f f8 7f f4 7f ed 7f e9 7f d9 80 18 7f f3 80 21 80 18 7f f6 80 1c 80 18 80 20 7f e8 00 00 ff ff ff ff
2016 11 21 00:00:02.8718       0   1,  21      36      65582      16380      32757      32748      32746      32789     3276.5   3.28e+05          2
2016 11 21 00:00:02.9007 0.02889   1,  20      50 ff ff ff ff ff ff 00 00 81 bf 81 81 80 17 80 1b 7f f8 7f f4 7f ed 7f e9 7f d9 80 18 7f f3 80 21 80 18 7f f6 80 1c 80 18 80 20 7f e8 00 00 ff ff ff ff
2016 11 21 00:00:02.9007       0   1,  21      36      65582      16380      32757      32748      32746      32789     3276.5   3.28e+05          2
2016 11 21 00:00:02.9289 0.02814   1,  20      50 ff ff ff ff ff ff 00 00 81 bf 81 81 80 17 80 1b 7f f8 7f f4 7f ed 7f e9 7f d9 80 18 7f f3 80 21 80 18 7f f7 80 1c 80 18 80 20 7f e8 00 00 ff ff ff ff
2016 11 21 00:00:02.9289       0   1,  21      36      65582      16380      32757      32748      32746      32789     3276.5   3.28e+05          2
2016 11 21 00:00:02.9578 0.02891   1,  20      50 ff ff ff ff ff ff 00 00 81 c0 81 81 80 17 80 1b 7f f8 7f f4 7f ed 7f e9 7f d9 80 18 7f f3 80 21 80 18 7f f6 80 1c 80 18 80 20 7f e8 00 00 ff ff ff ff
2016 11 21 00:00:02.9578       0   1,  21      36      65582      16380      32757      32748      32746      32789     3276.5   3.28e+05          2
2016 11 21 00:00:02.9863 0.02853   1,  20      50 ff ff ff ff ff ff 00 00 81 bf 81 81 80 17 80 1b 7f f8 7f f4 7f ed 7f e9 7f d9 80 18 7f f3 80 21 80 18 7f f6 80 1c 80 18 80 20 7f e8 00 00 ff ff ff ff
2016 11 21 00:00:02.9863       0   1,  21      36      65582      16380      32757      32748      32746      32789     3276.5   3.28e+05          2
2016 11 21 00:00:03.0152 0.02892   1,  20      50 ff ff ff ff ff ff 00 00 81 bf 81 81 80 17 80 1b 7f f8 7f f4 7f ed 7f e9 7f d9 80 18 7f f3 80 21 80 18 7f f7 80 1c 80 18 80 20 7f e9 00 00 ff ff ff ff
2016 11 21 00:00:03.0152       0   1,  21      36      65582      16380      32757      32748      32746      32789     3276.5   3.28e+05          2
2016 11 21 00:00:03.0438 0.02859   1,  20      50 ff ff ff ff ff ff 00 00 81 c1 81 81 80 17 80 1b 7f f8 7f f4 7f ed 7f e9 7f d9 80 18 7f f3 80 22 80 18 7f f7 80 1c 80 18 80 20 7f e9 00 00 ff ff ff ff
2016 11 21 00:00:03.0438       0   1,  21      36      65582      16380      32757      32748      32746      32789     3276.5 3.2802e+05          2
2016 11 21 00:00:03.0725 0.02868   1,  20      50 ff ff ff ff ff ff 00 00 81 c2 81 81 80 17 80 1b 7f f8 7f f4 7f ed 7f e9 7f d9 80 18 7f f3 80 22 80 18 7f f6 80 1c 80 18 80 20 7f e8 00 00 ff ff ff ff
2016 11 21 00:00:03.0725       0   1,  21      36      65582      16380      32757      32748      32746      32789     3276.5 3.2802e+05          2
2016 11 21 00:00:03.1020 0.02948   1,  20      50 ff ff ff ff ff ff 00 00 81 c0 81 81 80 17 80 1b 7f f8 7f f4 7f ed 7f e9 7f d9 80 19 7f f3 80 21 80 18 7f f6 80 1c 80 18 80 20 7f e8 00 00 ff ff ff ff
2016 11 21 00:00:03.1020       0   1,  21      36      65582      16380      32757      32748      32746      32790     3276.5   3.28e+05          2
2016 11 21 00:00:03.1295 0.02754   1,  20      50 ff ff ff ff ff ff 00 00 81 c0 81 81 80 17 80 1b 7f f8 7f f4 7f ed 7f e9 7f d9 80 18 7f f3 80 21 80 18 7f f6 80 1c 80 18 80 20 7f e8 00 00 ff ff ff ff
2016 11 21 00:00:03.1295       0   1,  21      36      65582      16380      32757      32748      32746      32789     3276.5   3.28e+05          2
2016 11 21 00:00:03.1584 0.02894   1,  20      50 ff ff ff ff ff ff 00 00 81 bf 81 81 80 17 80 1b 7f f8 7f f4 7f ed 7f e9 7f d9 80 18 7f f3 80 21 80 18 7f f7 80 1c 80 18 80 20 7f e8 00 00 ff ff ff ff
2016 11 21 00:00:03.1584       0   1,  21      36      65582      16380      32757      32748      32746      32789     3276.5   3.28e+05          2
2016 11 21 00:00:03.1870 0.02858   1,  20      50 ff ff ff ff ff ff 00 00 81 c0 81 81 80 17 80 1b 7f f8 7f f4 7f ed 7f e9 7f d9 80 18 7f f3 80 21 80 18 7f f6 80 1c 80 18 80 20 7f e8 00 00 ff ff ff ff
2016 11 21 00:00:03.1870       0   1,  21      36      65582      16380      32757      32748      32746      32789     3276.5   3.28e+05          2
2016 11 21 00:00:03.2157 0.02867   1,  20      50 ff ff ff ff ff ff 00 00 81 bf 81 81 80 17 80 1b 7f f8 7f f4 7f ed 7f e9 7f d9 80 18 7f f3 80 21 80 18 7f f7 80 1c 80 18 80 20 7f e8 00 00 ff ff ff ff
2016 11 21 00:00:03.2157       0   1,  21      36      65582      16380      32757      32748      32746      32789     3276.5   3.28e+05          2
2016 11 21 00:00:03.2445 0.02882   1,  20      50 ff ff ff ff ff ff 00 00 81 c0 81 81 80 17 80 1b 7f f8 7f f4 7f ed 7f e9 7f d9 80 19 7f f3 80 21 80 18 7f f7 80 1c 80 18 80 20 7f e8 00 00 ff ff ff ff
2016 11 21 00:00:03.2445       0   1,  21      36      65582      16380      32757      32748      32746      32790     3276.5   3.28e+05          2
2016 11 21 00:00:03.2730 0.02849   1,  20      50 ff ff ff ff ff ff 00 00 81 c1 81 81 80 17 80 1b 7f f8 7f f4 7f ed 7f e9 7f d9 80 19 7f f3 80 21 80 18 7f f7 80 1c 80 18 80 20 7f e8 00 00 ff ff ff ff
2016 11 21 00:00:03.2730       0   1,  21      36      65582      16380      32757      32748      32746      32790     3276.5   3.28e+05          2
2016 11 21 00:00:03.3019 0.02886   1,  20      50 ff ff ff ff ff ff 00 00 81 c1 81 81 80 17 80 1b 7f f8 7f f4 7f ed 7f e9 7f d9 80 19 7f f3 80 21 80 18 7f f6 80 1c 80 18 80 20 7f e8 00 00 ff ff ff ff
2016 11 21 00:00:03.3019       0   1,  21      36      65582      16380      32757      32748      32746      32790     3276.5   3.28e+05          2
2016 11 21 00:00:03.3304 0.02856   1,  20      50 ff ff ff ff ff ff 00 00 81 c0 81 81 80 17 80 1b 7f f8 7f f4 7f ed 7f e9 7f d9 80 18 7f f3 80 21 80 18 7f f7 80 1c 80 18 80 20 7f e8 00 00 ff ff ff ff
2016 11 21 00:00:03.3304       0   1,  21      36      65582      16380      32757      32748      32746      32789     3276.5   3.28e+05          2
2016 11 21 00:00:03.3592  0.0288   1,  20      50 ff ff ff ff ff ff 00 00 81 c0 81 81 80 17 80 1b 7f f8 7f f4 7f ed 7f e9 7f d9 80 18 7f f3 80 21 80 18 7f f6 80 1c 80 18 80 20 7f e8 00 00 ff ff ff ff
2016 11 21 00:00:03.3592       0   1,  21      36      65582      16380      32757      32748      32746      32789     3276.5   3.28e+05          2
2016 11 21 00:00:03.3879 0.02869   1,  20      50 ff ff ff ff ff ff 00 00 81 bf 81 81 80 17 80 1b 7f f8 7f f4 7f ed 7f e9 7f d9 80 19 7f f3 80 21 80 18 7f f6 80 1c 80 18 80 20 7f e8 00 00 ff ff ff ff
2016 11 21 00:00:03.3879       0   1,  21      36      65582      16380      32757      32748      32746      32790     3276.5   3.28e+05          2
2016 11 21 00:00:03.4172 0.02931   1,  20      50 ff ff ff ff ff ff 00 00 81 c0 81 81 80 17 80 1b 7f f8 7f f4 7f ed 7f e9 7f d9 80 18 7f f3 80 21 80 18 7f f6 80 1c 80 18 80 20 7f e9 00 00 ff ff ff ff
2016 11 21 00:00:03.4172       0   1,  21      36      65582      16380      32757      32748      32746      32789     3276.5   3.28e+05          2
2016 11 21 00:00:03.4467 0.02942   1,  20      50 ff ff ff ff ff ff 00 00 81 c0 81 81 80 17 80 1b 7f f8 7f f4 7f ed 7f e9 7f d9 80 19 7f f3 80 21 80 18 7f f6 80 1e 80 18 80 20 7f e8 00 00 ff ff ff ff
2016 11 21 00:00:03.4467       0   1,  21      36      65582      16380      32757      32748      32746      32790     3276.5   3.28e+05          2
2016 11 21 00:00:03.4737 0.02702   1,  20      50 ff ff ff ff ff ff 00 00 81 c2 81 81 80 17 80 1b 7f f8 7f f4 7f ed 7f e9 7f d9 80 18 7f f3 80 21 80 18 7f f6 80 1c 80 18 80 20 7f e8 00 00 ff ff ff ff
2016 11 21 00:00:03.4737       0   1,  21      36      65582      16380      32757      32748      32746      32789     3276.5   3.28e+05          2
2016 11 21 00:00:03.5042 0.03055   1,  20      50 ff ff ff ff ff ff 00 00 81 bf 81 81 80 17 80 1b 7f f8 7f f4 7f ed 7f e9 7f d9 80 19 7f f3 80 21 80 18 7f f6 80 1c 80 18 80 20 7f e8 00 00 ff ff ff ff
2016 11 21 00:00:03.5042       0   1,  21      36      65582      16380      32757      32748      32746      32790     3276.5   3.28e+05          2
2016 11 21 00:00:03.5311 0.02687   1,  20      50 ff ff ff ff ff ff 00 00 81 c0 81 81 80 17 80 1b 7f f8 7f f4 7f ed 7f e9 7f d9 80 18 7f f3 80 21 80 18 7f f6 80 1c 80 18 80 20 7f e8 00 00 ff ff ff ff
2016 11 21 00:00:03.5311       0   1,  21      36      65582      16380      32757      32748      32746      32789     3276.5   3.28e+05          2
2016 11 21 00:00:03.5600 0.02892   1,  20      50 ff ff ff ff ff ff 00 00 81 bf 81 81 80 17 80 1b 7f f8 7f f4 7f ed 7f e9 7f d9 80 19 7f f3 80 22 80 18 7f f6 80 1c 80 18 80 20 7f e9 00 00 ff ff ff ff
2016 11 21 00:00:03.5600       0   1,  21      36      65582      16380      32757      32748      32746      32790     3276.5 3.2802e+05          2
2016 11 21 00:00:03.5883 0.02825   1,  20      50 ff ff ff ff ff ff 00 00 81 c2 81 81 80 17 80 1b 7f f8 7f f4 7f ed 7f e9 7f d9 80 19 7f f3 80 21 80 18 7f f7 80 1c 80 18 80 20 7f e8 00 00 ff ff ff ff
2016 11 21 00:00:03.5883       0   1,  21      36      65582      16380      32757      32748      32746      32790     3276.5   3.28e+05          2
2016 11 21 00:00:03.6171 0.02882   1,  20      50 ff ff ff ff ff ff 00 00 81 c1 81 81 80 17 80 1b 7f f8 7f f4 7f ed 7f e9 7f d9 80 18 7f f3 80 21 80 18 7f f6 80 1c 80 18 80 20 7f e8 00 00 ff ff ff ff
2016 11 21 00:00:03.6171       0   1,  21      36      65582      16380      32757      32748      32746      32789     3276.5   3.28e+05          2
2016 11 21 00:00:03.6458 0.02871   1,  20      50 ff ff ff ff ff ff 00 00 81 bf 81 81 80 17 80 1b 7f f8 7f f4 7f ed 7f e9 7f d9 80 18 7f f3 80 21 80 18 7f f6 80 1c 80 18 80 20 7f e8 00 00 ff ff ff ff
2016 11 21 00:00:03.6458       0   1,  21      36      65582      16380      32757      32748      32746      32789     3276.5   3.28e+05          2
2016 11 21 00:00:03.6747 0.02889   1,  20      50 ff ff ff ff ff ff 00 00 81 bf 81 81 80 17 80 1b 7f f8 7f f4 7f ed 7f e9 7f d9 80 19 7f f3 80 21 80 18 7f f7 80 1c 80 18 80 20 7f e8 00 00 ff ff ff ff
2016 11 21 00:00:03.6747       0   1,  21      36      65582      16380      32757      32748      32746      32790     3276.5   3.28e+05          2
2016 11 21 00:00:03.7044  0.0297   1,  20      50 ff ff ff ff ff ff 00 00 81 c1 81 81 80 17 80 1b 7f f8 7f f4 7f ed 7f e9 7f d9 80 18 7f f3 80 21 80 18 7f f6 80 1c 80 18 80 20 7f e8 00 00 ff ff ff ff
2016 11 21 00:00:03.7044       0   1,  21      36      65582      16380      32757      32748      32746      32789     3276.5   3.28e+05          2
2016 11 21 00:00:03.7318 0.02739   1,  20      50 ff ff ff ff ff ff 00 00 81 bf 81 81 80 17 80 1b 7f f8 7f f4 7f ed 7f e9 7f d9 80 18 7f f3 80 21 80 18 7f f7 80 1c 80 18 80 20 7f e8 00 00 ff ff ff ff
2016 11 21 00:00:03.7318       0   1,  21      36      65582      16380      32757      32748      32746      32789     3276.5   3.28e+05          2
2016 11 21 00:00:03.7606 0.02882   1,  20      50 ff ff ff ff ff ff 00 00 81 c0 81 81 80 17 80 1b 7f f8 7f f4 7f ed 7f e9 7f d9 80 18 7f f3 80 21 80 18 7f f7 80 1c 80 18 80 20 7f e8 00 00 ff ff ff ff
2016 11 21 00:00:03.7606       0   1,  21      36      65582      16380      32757      32748      32746      32789     3276.5   3.28e+05          2
2016 11 21 00:00:03.7901 0.02954   1,  20      50 ff ff ff ff ff ff 00 00 81 c0 81 81 80 17 80 1b 7f f8 7f f4 7f ed 7f e9 7f d9 80 18 7f f3 80 21 80 18 7f f6 80 1c 80 18 80 20 7f e8 00 00 ff ff ff ff
2016 11 21 00:00:03.7901       0   1,  21      36      65582      16380      32757      32748      32746      32789     3276.5   3.28e+05          2
2016 11 21 00:00:03.8179 0.02774   1,  20      50 ff ff ff ff ff ff 00 00 81 bf 81 81 80 17 80 1b 7f f8 7f f4 7f ed 7f e9 7f d9 80 18 7f f3 80 22 80 18 7f f6 80 1c 80 18 80 20 7f e8 00 00 ff ff ff ff
2016 11 21 00:00:03.8179       0   1,  21      36      65582      16380      32757      32748      32746      32789     3276.5 3.2802e+05          2
2016 11 21 00:00:03.8477 0.02982   1,  20      50 ff ff ff ff ff ff 00 00 81 c0 81 81 80 17 80 1b 7f f8 7f f4 7f ed 7f e9 7f d9 80 18 7f f3 80 21 80 18 7f f6 80 1c 80 18 80 20 7f e8 00 00 ff ff ff ff
2016 11 21 00:00:03.8477       0   1,  21      36      65582      16380      32757      32748      32746      32789     3276.5   3.28e+05          2
2016 11 21 00:00:03.8751 0.02739   1,  20      50 ff ff ff ff ff ff 00 00 81 bf 81 81 80 17 80 1b 7f f8 7f f4 7f ed 7f e9 7f d9 80 18 7f f3 80 21 80 18 7f f6 80 1c 80 18 80 20 7f e8 00 00 ff ff ff ff
2016 11 21 00:00:03.8751       0   1,  21      36      65582      16380      32757      32748      32746      32789     3276.5   3.28e+05          2
2016 11 21 00:00:03.9039 0.02884   1,  20      50 ff ff ff ff ff ff 00 00 81 bf 81 81 80 17 80 1b 7f f8 7f f4 7f ed 7f e9 7f d9 80 18 7f f3 80 21 80 18 7f f6 80 1c 80 18 80 20 7f e8 00 00 ff ff ff ff
2016 11 21 00:00:03.9039       0   1,  21      36      65582      16380      32757      32748      32746      32789     3276.5   3.28e+05          2
2016 11 21 00:00:03.9330 0.02904   1,  20      50 ff ff ff ff ff ff 00 00 81 bf 81 81 80 17 80 1b 7f f8 7f f4 7f ed 7f e9 7f d9 80 18 7f f3 80 21 80 18 7f f6 80 1c 80 18 80 20 7f e8 00 00 ff ff ff ff
2016 11 21 00:00:03.9330       0   1,  21      36      65582      16380      32757      32748      32746      32789     3276.5   3.28e+05          2
2016 11 21 00:00:03.9613 0.02839   1,  20      50 ff ff ff ff ff ff 00 00 81 bf 81 81 80 17 80 1b 7f f8 7f f4 7f ed 7f e9 7f d9 80 18 7f f3 80 21 80 18 7f f7 80 1c 80 18 80 20 7f e8 00 00 ff ff ff ff
2016 11 21 00:00:03.9613       0   1,  21      36      65582      16380      32757      32748      32746      32789     3276.5   3.28e+05          2
2016 11 21 00:00:03.9905 0.02914   1,  20      50 ff ff ff ff ff ff 00 00 81 c0 81 81 80 17 80 1b 7f f8 7f f4 7f ed 7f e9 7f d9 80 18 7f f3 80 21 80 18 7f f6 80 1c 80 18 80 20 7f e8 00 00 ff ff ff ff
2016 11 21 00:00:03.9905       0   1,  21      36      65582      16380      32757      32748      32746      32789     3276.5   3.28e+05          2
2016 11 21 00:00:04.0185 0.02806   1,  20      50 ff ff ff ff ff ff 00 00 81 bf 81 81 80 17 80 1b 7f f8 7f f4 7f ed 7f e9 7f d9 80 18 7f f3 80 21 80 18 7f f6 80 1c 80 18 80 20 7f e8 00 00 ff ff ff ff
2016 11 21 00:00:04.0185       0   1,  21      36      65582      16380      32757      32748      32746      32789     3276.5   3.28e+05          2
2016 11 21 00:00:04.0478 0.02925   1,  20      50 ff ff ff ff ff ff 00 00 81 bf 81 81 80 17 80 1b 7f f8 7f f4 7f ed 7f e9 7f d9 80 18 7f f3 80 21 80 18 7f f6 80 1c 80 18 80 20 7f e9 00 00 ff ff ff ff
2016 11 21 00:00:04.0478       0   1,  21      36      65582      16380      32757      32748      32746      32789     3276.5   3.28e+05          2
2016 11 21 00:00:04.0759 0.02813   1,  20      50 ff ff ff ff ff ff 00 00 81 c0 81 81 80 17 80 1b 7f f8 7f f4 7f ed 7f e9 7f d9 80 18 7f f3 80 21 80 18 7f f6 80 1c 80 18 80 20 7f e8 00 00 ff ff ff ff
2016 11 21 00:00:04.0759       0   1,  21      36      65582      16380      32757      32748      32746      32789     3276.5   3.28e+05          2
2016 11 21 00:00:04.1047 0.02878   1,  20      50 ff ff ff ff ff ff 00 00 81 bf 81 81 80 17 80 1b 7f f8 7f f4 7f ed 7f e9 7f d9 80 18 7f f3 80 21 80 18 7f f6 80 1c 80 18 80 20 7f e9 00 00 ff ff ff ff
2016 11 21 00:00:04.1047       0   1,  21      36      65582      16380      32757      32748      32746      32789     3276.5   3.28e+05          2
2016 11 21 00:00:04.1334 0.02873   1,  20      50 ff ff ff ff ff ff 00 00 81 c0 81 81 80 17 80 1b 7f f8 7f f4 7f ed 7f e9 7f d9 80 18 7f f3 80 21 80 18 7f f7 80 1c 80 18 80 20 7f e8 00 00 ff ff ff ff
2016 11 21 00:00:04.1334       0   1,  21      36      65582      16380      32757      32748      32746      32789     3276.5   3.28e+05          2
2016 11 21 00:00:04.1622 0.02879   1,  20      50 ff ff ff ff ff ff 00 00 81 c0 81 81 80 17 80 1b 7f f8 7f f4 7f ed 7f e9 7f d9 80 18 7f f3 80 21 80 18 7f f6 80 1c 80 18 80 20 7f e8 00 00 ff ff ff ff
2016 11 21 00:00:04.1622       0   1,  21      36      65582      16380      32757      32748      32746      32789     3276.5   3.28e+05          2
2016 11 21 00:00:04.1905 0.02829   1,  20      50 ff ff ff ff ff ff 00 00 81 bf 81 81 80 17 80 1b 7f f8 7f f4 7f ed 7f e9 7f d9 80 18 7f f3 80 22 80 18 7f f6 80 1c 80 18 80 20 7f e8 00 00 ff ff ff ff
2016 11 21 00:00:04.1905       0   1,  21      36      65582      16380      32757      32748      32746      32789     3276.5 3.2802e+05          2
2016 11 21 00:00:04.2194 0.02886   1,  20      50 ff ff ff ff ff ff 00 00 81 c0 81 81 80 17 80 1b 7f f8 7f f4 7f ed 7f e9 7f d9 80 18 7f f3 80 21 80 18 7f f6 80 1c 80 18 80 20 7f e8 00 00 ff ff ff ff
2016 11 21 00:00:04.2194       0   1,  21      36      65582      16380      32757      32748      32746      32789     3276.5   3.28e+05          2
2016 11 21 00:00:04.2481 0.02872   1,  20      50 ff ff ff ff ff ff 00 00 81 bf 81 81 80 17 80 1b 7f f8 7f f4 7f ed 7f e9 7f d9 80 18 7f f3 80 21 80 18 7f f6 80 1c 80 18 80 20 7f e8 00 00 ff ff ff ff
2016 11 21 00:00:04.2481       0   1,  21      36      65582      16380      32757      32748      32746      32789     3276.5   3.28e+05          2
2016 11 21 00:00:04.2769 0.02881   1,  20      50 ff ff ff ff ff ff 00 00 81 bf 81 81 80 17 80 1b 7f f8 7f f4 7f ed 7f e9 7f d9 80 18 7f f3 80 21 80 18 7f f7 80 1c 80 18 80 20 7f e8 00 00 ff ff ff ff
2016 11 21 00:00:04.2769       0   1,  21      36      65582      16380      32757      32748      32746      32789     3276.5   3.28e+05          2
2016 11 21 00:00:04.3053  0.0284   1,  20      50 ff ff ff ff ff ff 00 00 81 c0 81 81 80 17 80 1b 7f f8 7f f4 7f ed 7f e9 7f d9 80 18 7f f3 80 21 80 18 7f f7 80 1c 80 18 80 20 7f e9 00 00 ff ff ff ff
2016 11 21 00:00:04.3053       0   1,  21      36      65582      16380      32757      32748      32746      32789     3276.5   3.28e+05          2
2016 11 21 00:00:04.3352 0.02993   1,  20      50 ff ff ff ff ff ff 00 00 81 c1 81 81 80 17 80 1b 7f f8 7f f4 7f ed 7f e9 7f d9 80 18 7f f3 80 21 80 18 7f f7 80 1c 80 18 80 20 7f e9 00 00 ff ff ff ff
2016 11 21 00:00:04.3352       0   1,  21      36      65582      16380      32757      32748      32746      32789     3276.5   3.28e+05          2
2016 11 21 00:00:04.3627 0.02745   1,  20      50 ff ff ff ff ff ff 00 00 81 c1 81 81 80 17 80 1b 7f f8 7f f4 7f ed 7f e9 7f d9 80 18 7f f3 80 22 80 18 7f f6 80 1c 80 18 80 20 7f e8 00 00 ff ff ff ff
2016 11 21 00:00:04.3627       0   1,  21      36      65582      16380      32757      32748      32746      32789     3276.5 3.2802e+05          2
2016 11 21 00:00:04.3912 0.02848   1,  20      50 ff ff ff ff ff ff 00 00 81 c0 81 81 80 17 80 1b 7f f8 7f f4 7f ed 7f e9 7f d9 80 18 7f f3 80 21 80 18 7f f6 80 1e 80 18 80 20 7f e8 00 00 ff ff ff ff
2016 11 21 00:00:04.3912       0   1,  21      36      65582      16380      32757      32748      32746      32789     3276.5   3.28e+05          2
2016 11 21 00:00:04.4207 0.02954   1,  20      50 ff ff ff ff ff ff 00 00 81 c1 81 81 80 17 80 1b 7f f8 7f f4 7f ed 7f e9 7f d9 80 18 7f f3 80 21 80 18 7f f6 80 1c 80 18 80 20 7f e8 00 00 ff ff ff ff
2016 11 21 00:00:04.4207       0   1,  21      36      65582      16380      32757      32748      32746      32789     3276.5   3.28e+05          2
2016 11 21 00:00:04.4486 0.02789   1,  20      50 ff ff ff ff ff ff 00 00 81 bf 81 81 80 17 80 1b 7f f8 7f f4 7f ed 7f e9 7f d9 80 18 7f f3 80 21 80 18 7f f7 80 1c 80 18 80 20 7f e8 00 00 ff ff ff ff
2016 11 21 00:00:04.4486       0   1,  21      36      65582      16380      32757      32748      32746      32789     3276.5   3.28e+05          2
2016 11 21 00:00:04.4772 0.02864   1,  20      50 ff ff ff ff ff ff 00 00 81 c0 81 81 80 17 80 1b 7f f8 7f f4 7f ed 7f e9 7f d9 80 18 7f f3 80 21 80 18 7f f6 80 1c 80 18 80 20 7f e9 00 00 ff ff ff ff
2016 11 21 00:00:04.4772       0   1,  21      36      65582      16380      32757      32748      32746      32789     3276.5   3.28e+05          2
2016 11 21 00:00:04.5062 0.02894   1,  20      50 ff ff ff ff ff ff 00 00 81 c0 81 81 80 17 80 1b 7f f8 7f f4 7f ed 7f e9 7f d9 80 18 7f f3 80 21 80 18 7f f6 80 1c 80 18 80 20 7f e8 00 00 ff ff ff ff
2016 11 21 00:00:04.5062       0   1,  21      36      65582      16380      32757      32748      32746      32789     3276.5   3.28e+05          2
2016 11 21 00:00:04.5348  0.0286   1,  20      50 ff ff ff ff ff ff 00 00 81 bf 81 81 80 17 80 1b 7f f8 7f f4 7f ed 7f e9 7f d9 80 18 7f f3 80 21 80 18 7f f6 80 1c 80 18 80 20 7f e8 00 00 ff ff ff ff
2016 11 21 00:00:04.5348       0   1,  21      36      65582      16380      32757      32748      32746      32789     3276.5   3.28e+05          2
2016 11 21 00:00:04.5632 0.02842   1,  20      50 ff ff ff ff ff ff 00 00 81 bf 81 81 80 17 80 1b 7f f8 7f f4 7f ed 7f e9 7f d9 80 18 7f f3 80 21 80 18 7f f6 80 1c 80 18 80 20 7f e8 00 00 ff ff ff ff
2016 11 21 00:00:04.5632       0   1,  21      36      65582      16380      32757      32748      32746      32789     3276.5   3.28e+05          2
2016 11 21 00:00:04.5918 0.02857   1,  20      50 ff ff ff ff ff ff 00 00 81 bf 81 81 80 17 80 1b 7f f8 7f f4 7f ed 7f e9 7f d9 80 18 7f f3 80 21 80 18 7f f7 80 1c 80 18 80 20 7f e8 00 00 ff ff ff ff
2016 11 21 00:00:04.5918       0   1,  21      36      65582      16380      32757      32748      32746      32789     3276.5   3.28e+05          2
2016 11 21 00:00:04.6207 0.02892   1,  20      50 ff ff ff ff ff ff 00 00 81 c0 81 81 80 17 80 1b 7f f8 7f f4 7f ed 7f e9 7f d9 80 18 7f f3 80 21 80 18 7f f7 80 1c 80 18 80 20 7f e9 00 00 ff ff ff ff
2016 11 21 00:00:04.6207       0   1,  21      36      65582      16380      32757      32748      32746      32789     3276.5   3.28e+05          2
2016 11 21 00:00:04.6496 0.02895   1,  20      50 ff ff ff ff ff ff 00 00 81 c1 81 81 80 17 80 1b 7f f8 7f f4 7f ed 7f e9 7f d9 80 18 7f f3 80 21 80 18 7f f6 80 1c 80 18 80 20 7f e9 00 00 ff ff ff ff
2016 11 21 00:00:04.6496       0   1,  21      36      65582      16380      32757      32748      32746      32789     3276.5   3.28e+05          2
2016 11 21 00:00:04.6779 0.02823   1,  20      50 ff ff ff ff ff ff 00 00 81 c0 81 81 80 17 80 1b 7f f8 7f f4 7f ed 7f e9 7f d9 80 18 7f f3 80 21 80 18 7f f7 80 1c 80 18 80 20 7f e8 00 00 ff ff ff ff
2016 11 21 00:00:04.6779       0   1,  21      36      65582      16380      32757      32748      32746      32789     3276.5   3.28e+05          2
2016 11 21 00:00:04.7070 0.02909   1,  20      50 ff ff ff ff ff ff 00 00 81 c0 81 81 80 17 80 1b 7f f8 7f f4 7f ed 7f e9 7f d9 80 18 7f f3 80 21 80 18 7f f7 80 1c 80 18 80 20 7f e8 00 00 ff ff ff ff
2016 11 21 00:00:04.7070       0   1,  21      36      65582      16380      32757      32748      32746      32789     3276.5   3.28e+05          2
2016 11 21 00:00:04.7355 0.02854   1,  20      50 ff ff ff ff ff ff 00 00 81 c0 81 81 80 17 80 1b 7f f8 7f f4 7f ed 7f e9 7f d9 80 18 7f f3 80 21 80 18 7f f6 80 1c 80 18 80 20 7f e8 00 00 ff ff ff ff
2016 11 21 00:00:04.7355       0   1,  21      36      65582      16380      32757      32748      32746      32789     3276.5   3.28e+05          2
2016 11 21 00:00:04.7641 0.02859   1,  20      50 ff ff ff ff ff ff 00 00 81 bf 81 81 80 17 80 1b 7f f8 7f f4 7f ed 7f e9 7f d9 80 18 7f f3 80 21 80 18 7f f6 80 1c 80 18 80 20 7f e9 00 00 ff ff ff ff
2016 11 21 00:00:04.7641       0   1,  21      36      65582      16380      32757      32748      32746      32789     3276.5   3.28e+05          2
2016 11 21 00:00:04.7928 0.02869   1,  20      50 ff ff ff ff ff ff 00 00 81 c0 81 81 80 17 80 1b 7f f8 7f f4 7f ed 7f e9 7f d9 80 18 7f f3 80 21 80 18 7f f7 80 1c 80 18 80 20 7f e8 00 00 ff ff ff ff
2016 11 21 00:00:04.7928       0   1,  21      36      65582      16380      32757      32748      32746      32789     3276.5   3.28e+05          2
2016 11 21 00:00:04.8213  0.0285   1,  20      50 ff ff ff ff ff ff 00 00 81 c0 81 81 80 17 80 1b 7f f8 7f f4 7f ed 7f e9 7f d9 80 18 7f f3 80 21 80 18 7f f6 80 1c 80 18 80 20 7f e9 00 00 ff ff ff ff
2016 11 21 00:00:04.8213       0   1,  21      36      65582      16380      32757      32748      32746      32789     3276.5   3.28e+05          2
2016 11 21 00:00:04.8502 0.02896   1,  20      50 ff ff ff ff ff ff 00 00 81 c0 81 81 80 17 80 1b 7f f8 7f f4 7f ed 7f e9 7f d9 80 18 7f f3 80 21 80 18 7f f6 80 1c 80 18 80 20 7f e8 00 00 ff ff ff ff
2016 11 21 00:00:04.8502       0   1,  21      36      65582      16380      32757      32748      32746      32789     3276.5   3.28e+05          2
2016 11 21 00:00:04.8787 0.02845   1,  20      50 ff ff ff ff ff ff 00 00 81 bf 81 81 80 17 80 1b 7f f8 7f f4 7f ed 7f e9 7f d9 80 18 7f f3 80 21 80 18 7f f7 80 1c 80 18 80 20 7f e8 00 00 ff ff ff ff
2016 11 21 00:00:04.8787       0   1,  21      36      65582      16380      32757      32748      32746      32789     3276.5   3.28e+05          2
2016 11 21 00:00:04.9075 0.02885   1,  20      50 ff ff ff ff ff ff 00 00 81 c0 81 81 80 17 80 1b 7f f8 7f f4 7f ed 7f e9 7f d9 80 18 7f f3 80 21 80 18 7f f7 80 1c 80 18 80 20 7f e9 00 00 ff ff ff ff
2016 11 21 00:00:04.9075       0   1,  21      36      65582      16380      32757      32748      32746      32789     3276.5   3.28e+05          2
2016 11 21 00:00:04.9364 0.02882   1,  20      50 ff ff ff ff ff ff 00 00 81 c1 81 81 80 17 80 1b 7f f8 7f f4 7f ed 7f e9 7f d9 80 18 7f f3 80 21 80 18 7f f7 80 1c 80 18 80 20 7f e8 00 00 ff ff ff ff
2016 11 21 00:00:04.9364       0   1,  21      36      65582      16380      32757      32748      32746      32789     3276.5   3.28e+05          2
2016 11 21 00:00:04.9647 0.02832   1,  20      50 ff ff ff ff ff ff 00 00 81 c0 81 81 80 17 80 1b 7f f8 7f f4 7f ed 7f e9 7f d9 80 19 7f f3 80 21 80 18 7f f6 80 1c 80 18 80 20 7f e8 00 00 ff ff ff ff
2016 11 21 00:00:04.9647       0   1,  21      36      65582      16380      32757      32748      32746      32790     3276.5   3.28e+05          2
2016 11 21 00:00:04.9937   0.029   1,  20      50 ff ff ff ff ff ff 00 00 81 c0 81 81 80 17 80 1b 7f f8 7f f4 7f ed 7f e9 7f d9 80 18 7f f3 80 21 80 18 7f f7 80 1c 80 18 80 20 7f e8 00 00 ff ff ff ff
