|--- date time --------|  deltaT dsm, sid     len data...
2016 11 21 00:00:00.0044       0   1,  20      50 ff ff ff ff ff ff 00 00 81 bf 81 81 80 17 80 1b 7f f8 7f f4 7f ed 7f e9 7f d9 80 18 7f f3 80 21 80 18 7f f6 80 1c 80 18 80 20 7f e8 00 00 ff ff ff ff
2016 11 21 00:00:00.0044       0   1,  21      36      32791      32760      32756      32749      32745      32792      32755      32801          0
2016 11 21 00:00:00.0330 0.02859   1,  20      50 ff ff ff ff ff ff 00 00 81 bf 81 81 80 17 80 1b 7f f8 7f f4 7f ed 7f e9 7f d9 80 18 7f f3 80 22 80 18 7f f6 80 1c 80 18 80 20 7f e8 00 00 ff ff ff ff
2016 11 21 00:00:00.0330       0   1,  21      36      32791      32760      32756      32749      32745      32792      32755      32802          0
2016 11 21 00:00:00.0617 0.02868   1,  20      50 ff ff ff ff ff ff 00 00 81 c0 81 81 80 17 80 1b 7f f8 7f f4 7f ed 7f e9 7f d9 80 18 7f f3 80 21 80 18 7f f6 80 1c 80 18 80 20 7f e8 00 00 ff ff ff ff
2016 11 21 00:00:00.0617       0   1,  21      36      32791      32760      32756      32749      32745      32792      32755      32801          0
2016 11 21 00:00:00.0904 0.02866   1,  20      50 ff ff ff ff ff ff 00 00 81 bf 81 81 80 17 80 1b 7f f8 7f f4 7f ed 7f e9 7f d9 80 19 7f f3 80 21 80 18 7f f6 80 1e 80 18 80 20 7f e8 00 00 ff ff ff ff
2016 11 21 00:00:00.0904       0   1,  21      36      32791      32760      32756      32749      32745      32793      32755      32801          0
2016 11 21 00:00:00.1190 0.02862   1,  20      50 ff ff ff ff ff ff 00 00 81 c2 81 81 80 17 80 1b 7f f8 7f f4 7f ed 7f e9 7f d9 80 18 7f f3 80 21 80 18 7f f6 80 1c 80 18 80 20 7f e8 00 00 ff ff ff ff
2016 11 21 00:00:00.1190       0   1,  21      36      32791      32760      32756      32749      32745      32792      32755      32801          0
2016 11 21 00:00:00.1478 0.02885   1,  20      50 ff ff ff ff ff ff 00 00 81 bf 81 81 80 17 80 1b 7f f8 7f f4 7f ed 7f e9 7f d9 80 18 7f f3 80 21 80 18 7f f6 80 1c 80 18 80 20 7f e8 00 00 ff ff ff ff
2016 11 21 00:00:00.1478       0   1,  21      36      32791      32760      32756      32749      32745      32792      32755      32801          0
2016 11 21 00:00:00.1766 0.02874   1,  20      50 ff ff ff ff ff ff 00 00 81 bf 81 81 80 17 80 1b 7f f8 7f f4 7f ed 7f e9 7f d9 80 18 7f f3 80 22 80 18 7f f6 80 1c 80 18 80 20 7f e8 00 00 ff ff ff ff
2016 11 21 00:00:00.1766       0   1,  21      36      32791      32760      32756      32749      32745      32792      32755      32802          0
2016 11 21 00:00:00.2051 0.02851   1,  20      50 ff ff ff ff ff ff 00 00 81 c0 81 81 80 17 80 1b 7f f8 7f f4 7f ed 7f e9 7f d9 80 19 7f f3 80 22 80 18 7f f6 80 1c 80 18 80 20 7f e8 00 00 ff ff ff ff
2016 11 21 00:00:00.2051       0   1,  21      36      32791      32760      32756      32749      32745      32793      32755      32802          0
2016 11 21 00:00:00.2337 0.02857   1,  20      50 ff ff ff ff ff ff 00 00 81 c1 81 81 80 17 80 1b 7f f8 7f f4 7f ed 7f e9 7f d9 80 18 7f f3 80 21 80 18 7f f6 80 1c 80 18 80 20 7f e8 00 00 ff ff ff ff
2016 11 21 00:00:00.2337       0   1,  21      36      32791      32760      32756      32749      32745      32792      32755      32801          0
2016 11 21 00:00:00.2624 0.02874   1,  20      50 ff ff ff ff ff ff 00 00 81 bf 81 81 80 17 80 1b 7f f8 7f f4 7f ed 7f e9 7f d9 80 18 7f f3 80 21 80 18 7f f6 80 1c 80 18 80 20 7f e8 00 00 ff ff ff ff
2016 11 21 00:00:00.2624       0   1,  21      36      32791      32760      32756      32749      32745      32792      32755      32801          0
2016 11 21 00:00:00.2910 0.02863   1,  20      50 ff ff ff ff ff ff 00 00 81 bf 81 81 80 17 80 1b 7f f8 7f f4 7f ed 7f e9 7f d9 80 18 7f f3 80 21 80 18 7f f6 80 1c 80 18 80 20 7f e9 00 00 ff ff ff ff
2016 11 21 00:00:00.2910       0   1,  21      36      32791      32760      32756      32749      32745      32792      32755      32801          0
2016 11 21 00:00:00.3197 0.02868   1,  20      50 ff ff ff ff ff ff 00 00 81 c0 81 81 80 17 80 1b 7f f8 7f f4 7f ed 7f e9 7f d9 80 19 7f f3 80 21 80 18 7f f6 80 1c 80 18 80 20 7f e9 00 00 ff ff ff ff
2016 11 21 00:00:00.3197       0   1,  21      36      32791      32760      32756      32749      32745      32793      32755      32801          0
2016 11 21 00:00:00.3484 0.02867   1,  20      50 ff ff ff ff ff ff 00 00 81 c1 81 81 80 17 80 1b 7f f8 7f f4 7f ed 7f e9 7f d9 80 18 7f f3 80 21 80 18 7f f7 80 1c 80 18 80 20 7f e8 00 00 ff ff ff ff
2016 11 21 00:00:00.3484       0   1,  21      36      32791      32760      32756      32749      32745      32792      32755      32801          0
2016 11 21 00:00:00.3771 0.02867   1,  20      50 ff ff ff ff ff ff 00 00 81 c0 81 81 80 17 80 1b 7f f8 7f f4 7f ed 7f e9 7f d9 80 19 7f f3 80 22 80 18 7f f6 80 1c 80 18 80 20 7f e8 00 00 ff ff ff ff
2016 11 21 00:00:00.3771       0   1,  21      36      32791      32760      32756      32749      32745      32793      32755      32802          0
2016 11 21 00:00:00.4084 0.03132   1,  20      50 ff ff ff ff ff ff 00 00 81 c1 81 81 80 17 80 1b 7f f8 7f f4 7f ed 7f e9 7f d9 80 18 7f f3 80 21 80 18 7f f6 80 1c 80 18 80 20 7f e8 00 00 ff ff ff ff
2016 11 21 00:00:00.4084       0   1,  21      36      32791      32760      32756      32749      32745      32792      32755      32801          0
2016 11 21 00:00:00.4362 0.02781   1,  20      50 ff ff ff ff ff ff 00 00 81 bf 81 81 80 17 80 1b 7f f8 7f f4 7f ed 7f e9 7f d9 80 18 7f f3 80 21 80 18 7f f6 80 1c 80 18 80 20 7f e8 00 00 ff ff ff ff
2016 11 21 00:00:00.4362       0   1,  21      36      32791      32760      32756      32749      32745      32792      32755      32801          0
2016 11 21 00:00:00.4632 0.02703   1,  20      50 ff ff ff ff ff ff 00 00 81 bf 81 81 80 17 80 1b 7f f8 7f f4 7f ed 7f e9 7f d9 80 18 7f f3 80 21 80 18 7f f7 80 1c 80 18 80 20 7f e8 00 00 ff ff ff ff
2016 11 21 00:00:00.4632       0   1,  21      36      32791      32760      32756      32749      32745      32792      32755      32801          0
2016 11 21 00:00:00.4917 0.02852   1,  20      50 ff ff ff ff ff ff 00 00 81 c0 81 81 80 17 80 1b 7f f8 7f f4 7f ed 7f e9 7f d9 80 18 7f f3 80 21 80 18 7f f7 80 1c 80 18 80 20 7f e8 00 00 ff ff ff ff
2016 11 21 00:00:00.4917       0   1,  21      36      32791      32760      32756      32749      32745      32792      32755      32801          0
2016 11 21 00:00:00.5205 0.02879   1,  20      50 ff ff ff ff ff ff 00 00 81 c0 81 81 80 17 80 1b 7f f8 7f f4 7f ed 7f e9 7f d9 80 18 7f f3 80 21 80 18 7f f6 80 1c 80 18 80 20 7f e8 00 00 ff ff ff ff
2016 11 21 00:00:00.5205       0   1,  21      36      32791      32760      32756      32749      32745      32792      32755      32801          0
2016 11 21 00:00:00.5490 0.02849   1,  20      50 ff ff ff ff ff ff 00 00 81 bf 81 81 80 17 80 1b 7f f8 7f f4 7f ed 7f e9 7f d9 80 18 7f f3 80 22 80 18 7f f6 80 1c 80 18 80 20 7f e8 00 00 ff ff ff ff
2016 11 21 00:00:00.5490       0   1,  21      36      32791      32760      32756      32749      32745      32792      32755      32802          0
2016 11 21 00:00:00.5778 0.02877   1,  20      50 ff ff ff ff ff ff 00 00 81 c0 81 81 80 17 80 1b 7f f8 7f f4 7f ed 7f e9 7f d9 80 18 7f f3 80 21 80 18 7f f7 80 1c 80 18 80 20 7f e8 00 00 ff ff ff ff
2016 11 21 00:00:00.5778       0   1,  21      36      32791      32760      32756      32749      32745      32792      32755      32801          0
2016 11 21 00:00:00.6068 0.02899   1,  20      50 ff ff ff ff ff ff 00 00 81 c0 81 81 80 17 80 1b 7f f8 7f f4 7f ed 7f e9 7f d9 80 18 7f f3 80 21 80 18 7f f7 80 1c 80 18 80 20 7f e8 00 00 ff ff ff ff
2016 11 21 00:00:00.6068       0   1,  21      36      32791      32760      32756      32749      32745      32792      32755      32801          0
2016 11 21 00:00:00.6355 0.02868   1,  20      50 ff ff ff ff ff ff 00 00 81 c0 81 81 80 17 80 1b 7f f8 7f f4 7f ed 7f e9 7f d9 80 18 7f f3 80 21 80 18 7f f6 80 1c 80 18 80 20 7f e8 00 00 ff ff ff ff
2016 11 21 00:00:00.6355       0   1,  21      36      32791      32760      32756      32749      32745      32792      32755      32801          0
2016 11 21 00:00:00.6641 0.02863   1,  20      50 ff ff ff ff ff ff 00 00 81 bf 81 81 80 17 80 1b 7f f8 7f f4 7f ed 7f e9 7f d9 80 19 7f f3 80 22 80 18 7f f6 80 1c 80 18 80 20 7f e8 00 00 ff ff ff ff
2016 11 21 00:00:00.6641       0   1,  21      36      32791      32760      32756      32749      32745      32793      32755      32802          0
2016 11 21 00:00:00.6934 0.02925   1,  20      50 ff ff ff ff ff ff 00 00 81 c1 81 81 80 17 80 1b 7f f8 7f f4 7f ed 7f e9 7f d9 80 18 7f f3 80 21 80 18 7f f7 80 1c 80 18 80 20 7f e9 00 00 ff ff ff ff
2016 11 21 00:00:00.6934       0   1,  21      36      32791      32760      32756      32749      32745      32792      32755      32801          0
2016 11 21 00:00:00.7223 0.02897   1,  20      50 ff ff ff ff ff ff 00 00 81 c1 81 81 80 17 80 1b 7f f8 7f f4 7f ed 7f e9 7f d9 80 18 7f f3 80 21 80 18 7f f6 80 1c 80 18 80 20 7f e8 00 00 ff ff ff ff
2016 11 21 00:00:00.7223       0   1,  21      36      32791      32760      32756      32749      32745      32792      32755      32801          0
2016 11 21 00:00:00.7512 0.02886   1,  20      50 ff ff ff ff ff ff 00 00 81 bf 81 81 80 17 80 1b 7f f8 7f f4 7f ed 7f e9 7f d9 80 18 7f f3 80 21 80 18 7f f7 80 1c 80 18 80 20 7f e8 00 00 ff ff ff ff
2016 11 21 00:00:00.7512       0   1,  21      36      32791      32760      32756      32749      32745      32792      32755      32801          0
2016 11 21 00:00:00.7799  0.0287   1,  20      50 ff ff ff ff ff ff 00 00 81 c0 81 81 80 17 80 1b 7f f8 7f f4 7f ed 7f e9 7f d9 80 18 7f f3 80 21 80 18 7f f7 80 1c 80 18 80 20 7f e8 00 00 ff ff ff ff
2016 11 21 00:00:00.7799       0   1,  21      36      32791      32760      32756      32749      32745      32792      32755      32801          0
2016 11 21 00:00:00.8072 0.02729   1,  20      50 ff ff ff ff ff ff 00 00 81 c0 81 81 80 17 80 1b 7f f8 7f f4 7f ed 7f e9 7f d9 80 18 7f f3 80 21 80 18 7f f7 80 1c 80 18 80 20 7f e8 00 00 ff ff ff ff
2016 11 21 00:00:00.8072       0   1,  21      36      32791      32760      32756      32749      32745      32792      32755      32801          0
2016 11 21 00:00:00.8361 0.02898   1,  20      50 ff ff ff ff ff ff 00 00 81 c0 81 81 80 17 80 1b 7f f8 7f f4 7f ed 7f e9 7f d9 80 18 7f f3 80 21 80 18 7f f6 80 1c 80 18 80 20 7f e8 00 00 ff ff ff ff
2016 11 21 00:00:00.8361       0   1,  21      36      32791      32760      32756      32749      32745      32792      32755      32801          0
2016 11 21 00:00:00.8646 0.02847   1,  20      50 ff ff ff ff ff ff 00 00 81 bf 81 81 80 17 80 1b 7f f8 7f f4 7f ed 7f e9 7f d9 80 19 7f f3 80 21 80 18 7f f6 80 1c 80 18 80 20 7f e8 00 00 ff ff ff ff
2016 11 21 00:00:00.8646       0   1,  21      36      32791      32760      32756      32749      32745      32793      32755      32801          0
2016 11 21 00:00:00.8934 0.02874   1,  20      50 ff ff ff ff ff ff 00 00 81 c0 81 81 80 17 80 1b 7f f8 7f f4 7f ed 7f e9 7f d9 80 19 7f f3 80 21 80 18 7f f7 80 1c 80 18 80 20 7f e8 00 00 ff ff ff ff
2016 11 21 00:00:00.8934       0   1,  21      36      32791      32760      32756      32749      32745      32793      32755      32801          0
2016 11 21 00:00:00.9221 0.02875   1,  20      50 ff ff ff ff ff ff 00 00 81 c1 81 81 80 17 80 1b 7f f8 7f f4 7f ed 7f e9 7f d9 80 18 7f f3 80 21 80 18 7f f6 80 1c 80 18 80 20 7f e8 00 00 ff ff ff ff
2016 11 21 00:00:00.9221       0   1,  21      36      32791      32760      32756      32749      32745      32792      32755      32801          0
2016 11 21 00:00:00.9507 0.02857   1,  20      50 ff ff ff ff ff ff 00 00 81 bf 81 81 80 17 80 1b 7f f8 7f f4 7f ed 7f e9 7f d9 80 19 7f f3 80 21 80 18 7f f6 80 1c 80 18 80 20 7f e8 00 00 ff ff ff ff
2016 11 21 00:00:00.9507       0   1,  21      36      32791      32760      32756      32749      32745      32793      32755      32801          0
2016 11 21 00:00:00.9790 0.02836   1,  20      50 ff ff ff ff ff ff 00 00 81 c0 81 81 80 17 80 1b 7f f8 7f f4 7f ed 7f e9 7f d9 80 18 7f f3 80 21 80 18 7f f6 80 1c 80 18 80 20 7f e8 00 00 ff ff ff ff
2016 11 21 00:00:00.9790       0   1,  21      36      32791      32760      32756      32749      32745      32792      32755      32801          0
2016 11 21 00:00:01.0083 0.02925   1,  20      50 ff ff ff ff ff ff 00 00 81 bf 81 81 80 17 80 1b 7f f8 7f f4 7f ed 7f e9 7f d9 80 18 7f f3 80 21 80 18 7f f7 80 1c 80 18 80 20 7f e8 00 00 ff ff ff ff
2016 11 21 00:00:01.0083       0   1,  21      36      32791      32760      32756      32749      32745      32792      32755      32801          0
2016 11 21 00:00:01.0365 0.02822   1,  20      50 ff ff ff ff ff ff 00 00 81 c0 81 81 80 17 80 1b 7f f8 7f f4 7f ed 7f e9 7f d9 80 18 7f f3 80 21 80 18 7f f6 80 1c 80 18 80 20 7f e8 00 00 ff ff ff ff
2016 11 21 00:00:01.0365       0   1,  21      36      32791      32760      32756      32749      32745      32792      32755      32801          0
2016 11 21 00:00:01.0658 0.02932   1,  20      50 ff ff ff ff ff ff 00 00 81 bf 81 81 80 17 80 1b 7f f8 7f f4 7f ed 7f e9 7f d9 80 18 7f f3 80 22 80 18 7f f6 80 1c 80 18 80 20 7f e8 00 00 ff ff ff ff
2016 11 21 00:00:01.0658       0   1,  21      36      32791      32760      32756      32749      32745      32792      32755      32802          0
2016 11 21 00:00:01.0947 0.02885   1,  20      50 ff ff ff ff ff ff 00 00 81 c0 81 81 80 17 80 1b 7f f8 7f f4 7f ed 7f e9 7f d9 80 18 7f f3 80 22 80 18 7f f6 80 1c 80 18 80 20 7f e8 00 00 ff ff ff ff
2016 11 21 00:00:01.0947       0   1,  21      36      32791      32760      32756      32749      32745      32792      32755      32802          0
2016 11 21 00:00:01.1232 0.02849   1,  20      50 ff ff ff ff ff ff 00 00 81 c0 81 81 80 17 80 1b 7f f8 7f f4 7f ed 7f e9 7f d9 80 18 7f f3 80 21 80 18 7f f6 80 1c 80 18 80 20 7f e8 00 00 ff ff ff ff
2016 11 21 00:00:01.1232       0   1,  21      36      32791      32760      32756      32749      32745      32792      32755      32801          0
2016 11 21 00:00:01.1514 0.02824   1,  20      50 ff ff ff ff ff ff 00 00 81 bf 81 81 80 17 80 1b 7f f8 7f f4 7f ed 7f e9 7f d9 80 18 7f f3 80 21 80 18 7f f6 80 1c 80 18 80 20 7f e8 00 00 ff ff ff ff
2016 11 21 00:00:01.1514       0   1,  21      36      32791      32760      32756      32749      32745      32792      32755      32801          0
2016 11 21 00:00:01.1802 0.02877   1,  20      50 ff ff ff ff ff ff 00 00 81 bf 81 81 80 17 80 1b 7f f8 7f f4 7f ed 7f e9 7f d9 80 18 7f f3 80 21 80 18 7f f6 80 1c 80 18 80 20 7f e8 00 00 ff ff ff ff
2016 11 21 00:00:01.1802       0   1,  21      36      32791      32760      32756      32749      32745      32792      32755      32801          0
2016 11 21 00:00:01.2087 0.02852   1,  20      50 ff ff ff ff ff ff 00 00 81 bf 81 81 80 17 80 1b 7f f8 7f f4 7f ed 7f e9 7f d9 80 18 7f f3 80 21 80 18 7f f6 80 1c 80 18 80 20 7f e8 00 00 ff ff ff ff
2016 11 21 00:00:01.2087       0   1,  21      36      32791      32760      32756      32749      32745      32792      32755      32801          0
2016 11 21 00:00:01.2376 0.02888   1,  20      50 ff ff ff ff ff ff 00 00 81 bf 81 81 80 17 80 1b 7f f8 7f f4 7f ed 7f e9 7f d9 80 18 7f f3 80 22 80 18 7f f7 80 1c 80 18 80 20 7f e8 00 00 ff ff ff ff
2016 11 21 00:00:01.2376       0   1,  21      36      32791      32760      32756      32749      32745      32792      32755      32802          0
2016 11 21 00:00:01.2659 0.02835   1,  20      50 ff ff ff ff ff ff 00 00 81 c1 81 81 80 17 80 1b 7f f8 7f f4 7f ed 7f e9 7f d9 80 18 7f f3 80 22 80 18 7f f7 80 1c 80 18 80 20 7f e8 00 00 ff ff ff ff
2016 11 21 00:00:01.2659       0   1,  21      36      32791      32760      32756      32749      32745      32792      32755      32802          0
2016 11 21 00:00:01.2945  0.0286   1,  20      50 ff ff ff ff ff ff 00 00 81 c1 81 81 80 17 80 1b 7f f8 7f f4 7f ed 7f e9 7f d9 80 18 7f f3 80 21 80 18 7f f7 80 1c 80 18 80 20 7f e8 00 00 ff ff ff ff
2016 11 21 00:00:01.2945       0   1,  21      36      32791      32760      32756      32749      32745      32792      32755      32801          0
2016 11 21 00:00:01.3233 0.02877   1,  20      50 ff ff ff ff ff ff 00 00 81 c0 81 81 80 17 80 1b 7f f8 7f f4 7f ed 7f e9 7f d9 80 18 7f f3 80 21 80 18 7f f6 80 1c 80 18 80 20 7f e8 00 00 ff ff ff ff
2016 11 21 00:00:01.3233       0   1,  21      36      32791      32760      32756      32749      32745      32792      32755      32801          0
2016 11 21 00:00:01.3519 0.02863   1,  20      50 ff ff ff ff ff ff 00 00 81 bf 81 81 80 17 80 1b 7f f8 7f f4 7f ed 7f e9 7f d9 80 18 7f f3 80 21 80 18 7f f6 80 1c 80 18 80 20 7f e8 00 00 ff ff ff ff
2016 11 21 00:00:01.3519       0   1,  21      36      32791      32760      32756      32749      32745      32792      32755      32801          0
2016 11 21 00:00:01.3811 0.02919   1,  20      50 ff ff ff ff ff ff 00 00 81 bf 81 81 80 17 80 1b 7f f8 7f f4 7f ed 7f e9 7f d9 80 18 7f f3 80 21 80 18 7f f6 80 1c 80 18 80 20 7f e9 00 00 ff ff ff ff
2016 11 21 00:00:01.3811       0   1,  21      36      32791      32760      32756      32749      32745      32792      32755      32801          0
2016 11 21 00:00:01.4098 0.02869   1,  20      50 ff ff ff ff ff ff 00 00 81 c0 81 81 80 17 80 1b 7f f8 7f f4 7f ed 7f e9 7f d9 80 18 7f f3 80 22 80 18 7f f6 80 1c 80 18 80 20 7f e8 00 00 ff ff ff ff
2016 11 21 00:00:01.4098       0   1,  21      36      32791      32760      32756      32749      32745      32792      32755      32802          0
2016 11 21 00:00:01.4380  0.0282   1,  20      50 ff ff ff ff ff ff 00 00 81 c0 81 81 80 17 80 1b 7f f8 7f f4 7f ed 7f e9 7f d9 80 18 7f f3 80 21 80 18 7f f7 80 1c 80 18 80 20 7f e8 00 00 ff ff ff ff
2016 11 21 00:00:01.4380       0   1,  21      36      32791      32760      32756      32749      32745      32792      32755      32801          0
2016 11 21 00:00:01.4666 0.02862   1,  20      50 ff ff ff ff ff ff 00 00 81 c0 81 81 80 17 80 1b 7f f8 7f f4 7f ed 7f e9 7f d9 80 18 7f f3 80 21 80 18 7f f6 80 1c 80 18 80 20 7f e8 00 00 ff ff ff ff
2016 11 21 00:00:01.4666       0   1,  21      36      32791      32760      32756      32749      32745      32792      32755      32801          0
2016 11 21 00:00:01.4951 0.02852   1,  20      50 ff ff ff ff ff ff 00 00 81 bf 81 81 80 17 80 1b 7f f8 7f f4 7f ed 7f e9 7f d9 80 18 7f f3 80 21 80 18 7f f6 80 1c 80 18 80 20 7f e8 00 00 ff ff ff ff
2016 11 21 00:00:01.4951       0   1,  21      36      32791      32760      32756      32749      32745      32792      32755      32801          0
2016 11 21 00:00:01.5241   0.029   1,  20      50 ff ff ff ff ff ff 00 00 81 bf 81 81 80 17 80 1b 7f f8 7f f4 7f ed 7f e9 7f d9 80 18 7f f3 80 21 80 18 7f f6 80 1c 80 18 80 20 7f e8 00 00 ff ff ff ff
2016 11 21 00:00:01.5241       0   1,  21      36      32791      32760      32756      32749      32745      32792      32755      32801          0
2016 11 21 00:00:01.5539 0.02975   1,  20      50 ff ff ff ff ff ff 00 00 81 bf 81 81 80 17 80 1b 7f f8 7f f4 7f ed 7f e9 7f d9 80 18 7f f3 80 21 80 18 7f f6 80 1c 80 18 80 20 7f e8 00 00 ff ff ff ff
2016 11 21 00:00:01.5539       0   1,  21      36      32791      32760      32756      32749      32745      32792      32755      32801          0
2016 11 21 00:00:01.5814 0.02747   1,  20      50 ff ff ff ff ff ff 00 00 81 bf 81 81 80 17 80 1b 7f f8 7f f4 7f ed 7f e9 7f d9 80 18 7f f3 80 22 80 18 7f f7 80 1c 80 18 80 20 7f e8 00 00 ff ff ff ff
2016 11 21 00:00:01.5814       0   1,  21      36      32791      32760      32756      32749      32745      32792      32755      32802          0
2016 11 21 00:00:01.6100 0.02869   1,  20      50 ff ff ff ff ff ff 00 00 81 c1 81 81 80 17 80 1b 7f f8 7f f4 7f ed 7f e9 7f d9 80 18 7f f3 80 22 80 18 7f f6 80 1c 80 18 80 20 7f e8 00 00 ff ff ff ff
2016 11 21 00:00:01.6100       0   1,  21      36      32791      32760      32756      32749      32745      32792      32755      32802          0
2016 11 21 00:00:01.6393 0.02922   1,  20      50 ff ff ff ff ff ff 00 00 81 c0 81 81 80 17 80 1b 7f f8 7f f4 7f ed 7f e9 7f d9 80 18 7f f3 80 21 80 18 7f f6 80 1c 80 18 80 20 7f e8 00 00 ff ff ff ff
2016 11 21 00:00:01.6393       0   1,  21      36      32791      32760      32756      32749      32745      32792      32755      32801          0
2016 11 21 00:00:01.6682  0.0289   1,  20      50 ff ff ff ff ff ff 00 00 81 bf 81 81 80 17 80 1b 7f f8 7f f4 7f ed 7f e9 7f d9 80 18 7f f3 80 21 80 18 7f f6 80 1c 80 18 80 20 7f e8 00 00 ff ff ff ff
2016 11 21 00:00:01.6682       0   1,  21      36      32791      32760      32756      32749      32745      32792      32755      32801          0
2016 11 21 00:00:01.6966 0.02846   1,  20      50 ff ff ff ff ff ff 00 00 81 bf 81 81 80 17 80 1b 7f f8 7f f4 7f ed 7f e9 7f d9 80 18 7f f3 80 21 80 18 7f f7 80 1c 80 18 80 20 7f e8 00 00 ff ff ff ff
2016 11 21 00:00:01.6966       0   1,  21      36      32791      32760      32756      32749      32745      32792      32755      32801          0
2016 11 21 00:00:01.7249 0.02827   1,  20      50 ff ff ff ff ff ff 00 00 81 c0 81 81 80 17 80 1b 7f f8 7f f4 7f ed 7f e9 7f d9 80 18 7f f3 80 21 80 18 7f f6 80 1c 80 18 80 20 7f e8 00 00 ff ff ff ff
2016 11 21 00:00:01.7249       0   1,  21      36      32791      32760      32756      32749      32745      32792      32755      32801          0
2016 11 21 00:00:01.7538  0.0289   1,  20      50 ff ff ff ff ff ff 00 00 81 bf 81 81 80 17 80 1b 7f f8 7f f4 7f ed 7f e9 7f d9 80 18 7f f3 80 21 80 18 7f f6 80 1c 80 18 80 20 7f e8 00 00 ff ff ff ff
2016 11 21 00:00:01.7538       0   1,  21      36      32791      32760      32756      32749      32745      32792      32755      32801          0
2016 11 21 00:00:01.7820 0.02822   1,  20      50 ff ff ff ff ff ff 00 00 81 bf 81 81 80 17 80 1b 7f f8 7f f4 7f ed 7f e9 7f d9 80 18 7f f3 80 21 80 18 7f f6 80 1c 80 18 80 20 7f e8 00 00 ff ff ff ff
2016 11 21 00:00:01.7820       0   1,  21      36      32791      32760      32756      32749      32745      32792      32755      32801          0
2016 11 21 00:00:01.8112 0.02918   1,  20      50 ff ff ff ff ff ff 00 00 81 bf 81 81 80 17 80 1b 7f f8 7f f4 7f ed 7f e9 7f d9 80 18 7f f3 80 21 80 18 7f f6 80 1c 80 18 80 20 7f e8 00 00 ff ff ff ff
2016 11 21 00:00:01.8112       0   1,  21      36      32791      32760      32756      32749      32745      32792      32755      32801          0
2016 11 21 00:00:01.8405 0.02936   1,  20      50 ff ff ff ff ff ff 00 00 81 bf 81 81 80 17 80 1b 7f f8 7f f4 7f ed 7f e9 7f d9 80 18 7f f3 80 21 80 18 7f f6 80 1c 80 18 80 20 7f e8 00 00 ff ff ff ff
2016 11 21 00:00:01.8405       0   1,  21      36      32791      32760      32756      32749      32745      32792      32755      32801          0
2016 11 21 00:00:01.8680 0.02745   1,  20      50 ff ff ff ff ff ff 00 00 81 bf 81 81 80 17 80 1b 7f f8 7f f4 7f ed 7f e9 7f d9 80 18 7f f3 80 21 80 18 7f f6 80 1c 80 18 80 20 7f e8 00 00 ff ff ff ff
2016 11 21 00:00:01.8680       0   1,  21      36      32791      32760      32756      32749      32745      32792      32755      32801          0
2016 11 21 00:00:01.8967 0.02873   1,  20      50 ff ff ff ff ff ff 00 00 81 bf 81 81 80 17 80 1b 7f f8 7f f4 7f ed 7f e9 7f d9 80 18 7f f3 80 21 80 18 7f f7 80 1c 80 18 80 20 7f e8 00 00 ff ff ff ff
2016 11 21 00:00:01.9479 0.05122   1,  20      50 ff ff ff ff ff ff 00 00 81 c0 81 81 80 17 80 1b 7f f8 7f f4 7f ed 7f e9 7f d9 80 18 7f f3 80 21 80 18 7f f6 80 1c 80 18 80 20 7f e8 00 00 ff ff ff ff
2016 11 21 00:00:01.9479       0   1,  21      36      32791      32760      32756      32749      32745      32792      32755      32801          0
2016 11 21 00:00:01.9545 0.006555   1,  20      50 ff ff ff ff ff ff 00 00 81 bf 81 81 80 17 80 1b 7f f8 7f f4 7f ed 7f e9 7f d9 80 18 7f f3 80 21 80 18 7f f6 80 1c 80 18 80 20 7f e8 00 00 ff ff ff ff
2016 11 21 00:00:01.9545       0   1,  21      36      32791      32760      32756      32749      32745      32792      32755      32801          0
2016 11 21 00:00:01.9826 0.02808   1,  20      50 ff ff ff ff ff ff 00 00 81 bf 81 81 80 17 80 1b 7f f8 7f f4 7f ed 7f e9 7f d9 80 18 7f f3 80 21 80 18 7f f7 80 1c 80 18 80 20 7f e8 00 00 ff ff ff ff
2016 11 21 00:00:01.9826       0   1,  21      36      32791      32760      32756      32749      32745      32792      32755      32801          0
2016 11 21 00:00:02.0113 0.02874   1,  20      50 ff ff ff ff ff ff 00 00 81 c0 81 81 80 17 80 1b 7f f8 7f f4 7f ed 7f e9 7f d9 80 19 7f f3 80 22 80 18 7f f7 80 1c 80 18 80 20 7f e8 00 00 ff ff ff ff
2016 11 21 00:00:02.0113       0   1,  21      36      32791      32760      32756      32749      32745      32793      32755      32802          0
2016 11 21 00:00:02.0401 0.02878   1,  20      50 ff ff ff ff ff ff 00 00 81 c2 81 81 80 17 80 1b 7f f8 7f f4 7f ed 7f e9 7f d9 80 18 7f f3 80 21 80 18 7f f6 80 1c 80 18 80 20 7f e8 00 00 ff ff ff ff
2016 11 21 00:00:02.0401       0   1,  21      36      32791      32760      32756      32749      32745      32792      32755      32801          0
2016 11 21 00:00:02.0693 0.02925   1,  20      50 ff ff ff ff ff ff 00 00 81 bf 81 81 80 17 80 1b 7f f8 7f f4 7f ed 7f e9 7f d9 80 18 7f f3 80 21 80 18 7f f6 80 1c 80 18 80 20 7f e9 00 00 ff ff ff ff
2016 11 21 00:00:02.0693       0   1,  21      36      32791      32760      32756      32749      32745      32792      32755      32801          0
2016 11 21 00:00:02.0976 0.02822   1,  20      50 ff ff ff ff ff ff 00 00 81 c0 81 81 80 17 80 1b 7f f8 7f f4 7f ed 7f e9 7f d9 80 18 7f f3 80 21 80 18 7f f6 80 1c 80 18 80 20 7f e8 00 00 ff ff ff ff
2016 11 21 00:00:02.0976       0   1,  21      36      32791      32760      32756      32749      32745      32792      32755      32801          0
2016 11 21 00:00:02.1261 0.02852   1,  20      50 ff ff ff ff ff ff 00 00 81 bf 81 81 80 17 80 1b 7f f8 7f f4 7f ed 7f e9 7f d9 80 18 7f f3 80 22 80 18 7f f6 80 1c 80 18 80 20 7f e8 00 00 ff ff ff ff
2016 11 21 00:00:02.1261       0   1,  21      36      32791      32760      32756      32749      32745      32792      32755      32802          0
2016 11 21 00:00:02.1549 0.02884   1,  20      50 ff ff ff ff ff ff 00 00 81 c0 81 81 80 17 80 1b 7f f8 7f f4 7f ed 7f e9 7f d9 80 18 7f f3 80 22 80 18 7f f7 80 1c 80 18 80 20 7f e8 00 00 ff ff ff ff
2016 11 21 00:00:02.1549       0   1,  21      36      32791      32760      32756      32749      32745      32792      32755      32802          0
2016 11 21 00:00:02.1835 0.02855   1,  20      50 ff ff ff ff ff ff 00 00 81 c1 81 81 80 17 80 1b 7f f8 7f f4 7f ed 7f e9 7f d9 80 18 7f f3 80 21 80 18 7f f6 80 1c 80 18 80 20 7f e8 00 00 ff ff ff ff
2016 11 21 00:00:02.1835       0   1,  21      36      32791      32760      32756      32749      32745      32792      32755      32801          0
2016 11 21 00:00:02.2126 0.02915   1,  20      50 ff ff ff ff ff ff 00 00 81 bf 81 81 80 17 80 1b 7f f8 7f f4 7f ed 7f e9 7f d9 80 18 7f f3 80 21 80 18 7f f6 80 1c 80 18 80 20 7f e8 00 00 ff ff ff ff
2016 11 21 00:00:02.2126       0   1,  21      36      32791      32760      32756      32749      32745      32792      32755      32801          0
2016 11 21 00:00:02.2409 0.02824   1,  20      50 ff ff ff ff ff ff 00 00 81 bf 81 81 80 17 80 1b 7f f8 7f f4 7f ed 7f e9 7f d9 80 18 7f f3 80 21 80 18 7f f6 80 1c 80 18 80 20 7f e8 00 00 ff ff ff ff
2016 11 21 00:00:02.2409       0   1,  21      36      32791      32760      32756      32749      32745      32792      32755      32801          0
2016 11 21 00:00:02.2694 0.02856   1,  20      50 ff ff ff ff ff ff 00 00 81 bf 81 81 80 17 80 1b 7f f8 7f f4 7f ed 7f e9 7f d9 80 18 7f f3 80 21 80 18 7f f7 80 1c 80 18 80 20 7f e8 00 00 ff ff ff ff
2016 11 21 00:00:02.2694       0   1,  21      36      32791      32760      32756      32749      32745      32792      32755      32801          0
2016 11 21 00:00:02.2984 0.02899   1,  20      50 ff ff ff ff ff ff 00 00 81 c0 81 81 80 17 80 1b 7f f8 7f f4 7f ed 7f e9 7f d9 80 18 7f f3 80 21 80 18 7f f6 80 1c 80 18 80 20 7f e8 00 00 ff ff ff ff
2016 11 21 00:00:02.2984       0   1,  21      36      32791      32760      32756      32749      32745      32792      32755      32801          0
2016 11 21 00:00:02.3272 0.02879   1,  20      50 ff ff ff ff ff ff 00 00 81 bf 81 81 80 17 80 1b 7f f8 7f f4 7f ed 7f e9 7f d9 80 18 7f f3 80 21 80 18 7f f6 80 1c 80 18 80 20 7f e8 00 00 ff ff ff ff
2016 11 21 00:00:02.3272       0   1,  21      36      32791      32760      32756      32749      32745      32792      32755      32801          0
2016 11 21 00:00:02.3559 0.02873   1,  20      50 ff ff ff ff ff ff 00 00 81 bf 81 81 80 17 80 1b 7f f8 7f f4 7f ed 7f e9 7f d9 80 18 7f f3 80 21 80 18 7f f6 80 1c 80 18 80 20 7f e8 00 00 ff ff ff ff
2016 11 21 00:00:02.3559       0   1,  21      36      32791      32760      32756      32749      32745      32792      32755      32801          0
2016 11 21 00:00:02.3841 0.02815   1,  20      50 ff ff ff ff ff ff 00 00 81 bf 81 81 80 17 80 1b 7f f8 7f f4 7f ed 7f e9 7f d9 80 18 7f f3 80 21 80 18 7f f7 80 1c 80 18 80 20 7f e8 00 00 ff ff ff ff
2016 11 21 00:00:02.3841       0   1,  21      36      32791      32760      32756      32749      32745      32792      32755      32801          0
2016 11 21 00:00:02.4129 0.02881   1,  20      50 ff ff ff ff ff ff 00 00 81 c0 81 81 80 17 80 1b 7f f8 7f f4 7f ed 7f e9 7f d9 80 18 7f f3 80 21 80 18 7f f7 80 1c 80 18 80 20 7f e8 00 00 ff ff ff ff
2016 11 21 00:00:02.4129       0   1,  21      36      32791      32760      32756      32749      32745      32792      32755      32801          0
2016 11 21 00:00:02.4415 0.02861   1,  20      50 ff ff ff ff ff ff 00 00 81 c0 81 81 80 17 80 1b 7f f8 7f f4 7f ed 7f e9 7f d9 80 18 7f f3 80 21 80 18 7f f6 80 1c 80 18 80 20 7f e8 00 00 ff ff ff ff
2016 11 21 00:00:02.4415       0   1,  21      36      32791      32760      32756      32749      32745      32792      32755      32801          0
2016 11 21 00:00:02.4701 0.02862   1,  20      50 ff ff ff ff ff ff 00 00 81 bf 81 81 80 17 80 1b 7f f8 7f f4 7f ed 7f e9 7f d9 80 18 7f f3 80 21 80 18 7f f6 80 1c 80 18 80 20 7f e8 00 00 ff ff ff ff
2016 11 21 00:00:02.4701       0   1,  21      36      32791      32760      32756      32749      32745      32792      32755      32801          0
2016 11 21 00:00:02.4988 0.02862   1,  20      50 ff ff ff ff ff ff 00 00 81 bf 81 81 80 17 80 1b 7f f8 7f f4 7f ed 7f e9 7f d9 80 18 7f f3 80 21 80 18 7f f6 80 1c 80 18 80 20 7f e8 00 00 ff ff ff ff
2016 11 21 00:00:02.4988       0   1,  21      36      32791      32760      32756      32749      32745      32792      32755      32801          0
2016 11 21 00:00:02.5279 0.02917   1,  20      50 ff ff ff ff ff ff 00 00 81 bf 81 81 80 17 80 1b 7f f8 7f f4 7f ed 7f e9 7f d9 80 18 7f f3 80 21 80 18 7f f6 80 1c 80 18 80 20 7f e8 00 00 ff ff ff ff
2016 11 21 00:00:02.5279       0   1,  21      36      32791      32760      32756      32749      32745      32792      32755      32801          0
2016 11 21 00:00:02.5564 0.02849   1,  20      50 ff ff ff ff ff ff 00 00 81 bf 81 81 80 17 80 1b 7f f8 7f f4 7f ed 7f e9 7f d9 80 18 7f f3 80 21 80 18 7f f6 80 1c 80 18 80 20 7f e8 00 00 ff ff ff ff
2016 11 21 00:00:02.5564       0   1,  21      36      32791      32760      32756      32749      32745      32792      32755      32801          0
2016 11 21 00:00:02.5851 0.02868   1,  20      50 ff ff ff ff ff ff 00 00 81 bf 81 81 80 17 80 1b 7f f8 7f f4 7f ed 7f e9 7f d9 80 18 7f f3 80 21 80 18 7f f6 80 1c 80 18 80 20 7f e8 00 00 ff ff ff ff
2016 11 21 00:00:02.5851       0   1,  21      36      32791      32760      32756      32749      32745      32792      32755      32801          0
2016 11 21 00:00:02.6138 0.02871   1,  20      50 ff ff ff ff ff ff 00 00 81 bf 81 81 80 17 80 1b 7f f8 7f f4 7f ed 7f e9 7f d9 80 18 7f f3 80 21 80 18 7f f6 80 1c 80 18 80 20 7f e8 00 00 ff ff ff ff
2016 11 21 00:00:02.6138       0   1,  21      36      32791      32760      32756      32749      32745      32792      32755      32801          0
2016 11 21 00:00:02.6421 0.02829   1,  20      50 ff ff ff ff ff ff 00 00 81 bf 81 81 80 17 80 1b 7f f8 7f f4 7f ed 7f e9 7f d9 80 18 7f f3 80 21 80 18 7f f7 80 1c 80 18 80 20 7f e8 00 00 ff ff ff ff
2016 11 21 00:00:02.6421       0   1,  21      36      32791      32760      32756      32749      32745      32792      32755      32801          0
2016 11 21 00:00:02.6716 0.02952   1,  20      50 ff ff ff ff ff ff 00 00 81 c0 81 81 80 17 80 1b 7f f8 7f f4 7f ed 7f e9 7f d9 80 18 7f f3 80 21 80 18 7f f7 80 1c 80 18 80 20 7f e8 00 00 ff ff ff ff
2016 11 21 00:00:02.6716       0   1,  21      36      32791      32760      32756      32749      32745      32792      32755      32801          0
2016 11 21 00:00:02.6995 0.02792   1,  20      50 ff ff ff ff ff ff 00 00 81 c0 81 81 80 17 80 1b 7f f8 7f f4 7f ed 7f e9 7f d9 80 18 7f f3 80 21 80 18 7f f6 80 1c 80 18 80 20 7f e9 00 00 ff ff ff ff
2016 11 21 00:00:02.6995       0   1,  21      36      32791      32760      32756      32749      32745      32792      32755      32801          0
2016 11 21 00:00:02.7285 0.02895   1,  20      50 ff ff ff ff ff ff 00 00 81 c0 81 81 80 17 80 1b 7f f8 7f f4 7f ed 7f e9 7f d9 80 18 7f f3 80 21 80 18 7f f6 80 1c 80 18 80 20 7f e9 00 00 ff ff ff ff
2016 11 21 00:00:02.7285       0   1,  21      36      32791      32760      32756      32749      32745      32792      32755      32801          0
2016 11 21 00:00:02.7575 0.02905   1,  20      50 ff ff ff ff ff ff 00 00 81 c0 81 81 80 17 80 1b 7f f8 7f f4 7f ed 7f e9 7f d9 80 18 7f f3 80 21 80 18 7f f6 80 1c 80 18 80 20 7f e8 00 00 ff ff ff ff
2016 11 21 00:00:02.7575       0   1,  21      36      32791      32760      32756      32749      32745      32792      32755      32801          0
2016 11 21 00:00:02.7856 0.02802   1,  20      50 ff ff ff ff ff ff 00 00 81 bf 81 81 80 17 80 1b 7f f8 7f f4 7f ed 7f e9 7f d9 80 18 7f f3 80 21 80 18 7f f6 80 1c 80 18 80 20 7f e8 00 00 ff ff ff ff
2016 11 21 00:00:02.7856       0   1,  21      36      32791      32760      32756      32749      32745      32792      32755      32801          0
2016 11 21 00:00:02.8142 0.02865   1,  20      50 ff ff ff ff ff ff 00 00 81 bf 81 81 80 17 80 1b 7f f8 7f f4 7f ed 7f e9 7f d9 80 18 7f f3 80 21 80 18 7f f6 80 1c 80 18 80 20 7f e8 00 00 ff ff ff ff
2016 11 21 00:00:02.8142       0   1,  21      36      32791      32760      32756      32749      32745      32792      32755      32801          0
2016 11 21 00:00:02.8431 0.02888   1,  20      50 ff ff ff ff ff ff 00 00 81 bf 81 81 80 17 80 1b 7f f8 7f f4 7f ed 7f e9 7f d9 80 18 7f f3 80 21 80 18 7f f6 80 1c 80 18 80 20 7f e8 00 00 ff ff ff ff
2016 11 21 00:00:02.8431       0   1,  21      36      32791      32760      32756      32749      32745      32792      32755      32801          0
2016 11 21 00:00:02.8718  0.0287   1,  20      50 ff ff ff ff ff ff 00 00 81 bf 81 81 80 17 80 1b 7f f8 7f f4 7f ed 7f e9 7f d9 80 18 7f f3 80 21 80 18 7f f6 80 1c 80 18 80 20 7f e8 00 00 ff ff ff ff
2016 11 21 00:00:02.8718       0   1,  21      36      32791      32760      32756      32749      32745      32792      32755      32801          0
2016 11 21 00:00:02.9007 0.02889   1,  20      50 ff ff ff ff ff ff 00 00 81 bf 81 81 80 17 80 1b 7f f8 7f f4 7f ed 7f e9 7f d9 80 18 7f f3 80 21 80 18 7f f6 80 1c 80 18 80 20 7f e8 00 00 ff ff ff ff
2016 11 21 00:00:02.9007       0   1,  21      36      32791      32760      32756      32749      32745      32792      32755      32801          0
2016 11 21 00:00:02.9288 0.02814   1,  20      50 ff ff ff ff ff ff 00 00 81 bf 81 81 80 17 80 1b 7f f8 7f f4 7f ed 7f e9 7f d9 80 18 7f f3 80 21 80 18 7f f7 80 1c 80 18 80 20 7f e8 00 00 ff ff ff ff
2016 11 21 00:00:02.9288       0   1,  21      36      32791      32760      32756      32749      32745      32792      32755      32801          0
2016 11 21 00:00:02.9577 0.02891   1,  20      50 ff ff ff ff ff ff 00 00 81 c0 81 81 80 17 80 1b 7f f8 7f f4 7f ed 7f e9 7f d9 80 18 7f f3 80 21 80 18 7f f6 80 1c 80 18 80 20 7f e8 00 00 ff ff ff ff
2016 11 21 00:00:02.9577       0   1,  21      36      32791      32760      32756      32749      32745      32792      32755      32801          0
2016 11 21 00:00:02.9862 0.02853   1,  20      50 ff ff ff ff ff ff 00 00 81 bf 81 81 80 17 80 1b 7f f8 7f f4 7f ed 7f e9 7f d9 80 18 7f f3 80 21 80 18 7f f6 80 1c 80 18 80 20 7f e8 00 00 ff ff ff ff
2016 11 21 00:00:02.9862       0   1,  21      36      32791      32760      32756      32749      32745      32792      32755      32801          0
2016 11 21 00:00:03.0152 0.02892   1,  20      50 ff ff ff ff ff ff 00 00 81 bf 81 81 80 17 80 1b 7f f8 7f f4 7f ed 7f e9 7f d9 80 18 7f f3 80 21 80 18 7f f7 80 1c 80 18 80 20 7f e9 00 00 ff ff ff ff
2016 11 21 00:00:03.0152       0   1,  21      36      32791      32760      32756      32749      32745      32792      32755      32801          0
2016 11 21 00:00:03.0438 0.02859   1,  20      50 ff ff ff ff ff ff 00 00 81 c1 81 81 80 17 80 1b 7f f8 7f f4 7f ed 7f e9 7f d9 80 18 7f f3 80 22 80 18 7f f7 80 1c 80 18 80 20 7f e9 00 00 ff ff ff ff
2016 11 21 00:00:03.0438       0   1,  21      36      32791      32760      32756      32749      32745      32792      32755      32802          0
2016 11 21 00:00:03.0724 0.02868   1,  20      50 ff ff ff ff ff ff 00 00 81 c2 81 81 80 17 80 1b 7f f8 7f f4 7f ed 7f e9 7f d9 80 18 7f f3 80 22 80 18 7f f6 80 1c 80 18 80 20 7f e8 00 00 ff ff ff ff
2016 11 21 00:00:03.0724       0   1,  21      36      32791      32760      32756      32749      32745      32792      32755      32802          0
2016 11 21 00:00:03.1019 0.02948   1,  20      50 ff ff ff ff ff ff 00 00 81 c0 81 81 80 17 80 1b 7f f8 7f f4 7f ed 7f e9 7f d9 80 19 7f f3 80 21 80 18 7f f6 80 1c 80 18 80 20 7f e8 00 00 ff ff ff ff
2016 11 21 00:00:03.1019       0   1,  21      36      32791      32760      32756      32749      32745      32793      32755      32801          0
2016 11 21 00:00:03.1295 0.02754   1,  20      50 ff ff ff ff ff ff 00 00 81 c0 81 81 80 17 80 1b 7f f8 7f f4 7f ed 7f e9 7f d9 80 18 7f f3 80 21 80 18 7f f6 80 1c 80 18 80 20 7f e8 00 00 ff ff ff ff
2016 11 21 00:00:03.1295       0   1,  21      36      32791      32760      32756      32749      32745      32792      32755      32801          0
2016 11 21 00:00:03.1584 0.02894   1,  20      50 ff ff ff ff ff ff 00 00 81 bf 81 81 80 17 80 1b 7f f8 7f f4 7f ed 7f e9 7f d9 80 18 7f f3 80 21 80 18 7f f7 80 1c 80 18 80 20 7f e8 00 00 ff ff ff ff
2016 11 21 00:00:03.1584       0   1,  21      36      32791      32760      32756      32749      32745      32792      32755      32801          0
2016 11 21 00:00:03.1870 0.02858   1,  20      50 ff ff ff ff ff ff 00 00 81 c0 81 81 80 17 80 1b 7f f8 7f f4 7f ed 7f e9 7f d9 80 18 7f f3 80 21 80 18 7f f6 80 1c 80 18 80 20 7f e8 00 00 ff ff ff ff
2016 11 21 00:00:03.1870       0   1,  21      36      32791      32760      32756      32749      32745      32792      32755      32801          0
2016 11 21 00:00:03.2156 0.02867   1,  20      50 ff ff ff ff ff ff 00 00 81 bf 81 81 80 17 80 1b 7f f8 7f f4 7f ed 7f e9 7f d9 80 18 7f f3 80 21 80 18 7f f7 80 1c 80 18 80 20 7f e8 00 00 ff ff ff ff
2016 11 21 00:00:03.2156       0   1,  21      36      32791      32760      32756      32749      32745      32792      32755      32801          0
2016 11 21 00:00:03.2445 0.02882   1,  20      50 ff ff ff ff ff ff 00 00 81 c0 81 81 80 17 80 1b 7f f8 7f f4 7f ed 7f e9 7f d9 80 19 7f f3 80 21 80 18 7f f7 80 1c 80 18 80 20 7f e8 00 00 ff ff ff ff
2016 11 21 00:00:03.2445       0   1,  21      36      32791      32760      32756      32749      32745      32793      32755      32801          0
2016 11 21 00:00:03.2730 0.02849   1,  20      50 ff ff ff ff ff ff 00 00 81 c1 81 81 80 17 80 1b 7f f8 7f f4 7f ed 7f e9 7f d9 80 19 7f f3 80 21 80 18 7f f7 80 1c 80 18 80 20 7f e8 00 00 ff ff ff ff
2016 11 21 00:00:03.2730       0   1,  21      36      32791      32760      32756      32749      32745      32793      32755      32801          0
2016 11 21 00:00:03.3018 0.02886   1,  20      50 ff ff ff ff ff ff 00 00 81 c1 81 81 80 17 80 1b 7f f8 7f f4 7f ed 7f e9 7f d9 80 19 7f f3 80 21 80 18 7f f6 80 1c 80 18 80 20 7f e8 00 00 ff ff ff ff
2016 11 21 00:00:03.3018       0   1,  21      36      32791      32760      32756      32749      32745      32793      32755      32801          0
2016 11 21 00:00:03.3304 0.02856   1,  20      50 ff ff ff ff ff ff 00 00 81 c0 81 81 80 17 80 1b 7f f8 7f f4 7f ed 7f e9 7f d9 80 18 7f f3 80 21 80 18 7f f7 80 1c 80 18 80 20 7f e8 00 00 ff ff ff ff
2016 11 21 00:00:03.3304       0   1,  21      36      32791      32760      32756      32749      32745      32792      32755      32801          0
2016 11 21 00:00:03.3592  0.0288   1,  20      50 ff ff ff ff ff ff 00 00 81 c0 81 81 80 17 80 1b 7f f8 7f f4 7f ed 7f e9 7f d9 80 18 7f f3 80 21 80 18 7f f6 80 1c 80 18 80 20 7f e8 00 00 ff ff ff ff
2016 11 21 00:00:03.3592       0   1,  21      36      32791      32760      32756      32749      32745      32792      32755      32801          0
2016 11 21 00:00:03.3879 0.02869   1,  20      50 ff ff ff ff ff ff 00 00 81 bf 81 81 80 17 80 1b 7f f8 7f f4 7f ed 7f e9 7f d9 80 19 7f f3 80 21 80 18 7f f6 80 1c 80 18 80 20 7f e8 00 00 ff ff ff ff
2016 11 21 00:00:03.3879       0   1,  21      36      32791      32760      32756      32749      32745      32793      32755      32801          0
2016 11 21 00:00:03.4172 0.02931   1,  20      50 ff ff ff ff ff ff 00 00 81 c0 81 81 80 17 80 1b 7f f8 7f f4 7f ed 7f e9 7f d9 80 18 7f f3 80 21 80 18 7f f6 80 1c 80 18 80 20 7f e9 00 00 ff ff ff ff
2016 11 21 00:00:03.4172       0   1,  21      36      32791      32760      32756      32749      32745      32792      32755      32801          0
2016 11 21 00:00:03.4466 0.02942   1,  20      50 ff ff ff ff ff ff 00 00 81 c0 81 81 80 17 80 1b 7f f8 7f f4 7f ed 7f e9 7f d9 80 19 7f f3 80 21 80 18 7f f6 80 1e 80 18 80 20 7f e8 00 00 ff ff ff ff
2016 11 21 00:00:03.4466       0   1,  21      36      32791      32760      32756      32749      32745      32793      32755      32801          0
2016 11 21 00:00:03.4736 0.02702   1,  20      50 ff ff ff ff ff ff 00 00 81 c2 81 81 80 17 80 1b 7f f8 7f f4 7f ed 7f e9 7f d9 80 18 7f f3 80 21 80 18 7f f6 80 1c 80 18 80 20 7f e8 00 00 ff ff ff ff
2016 11 21 00:00:03.4736       0   1,  21      36      32791      32760      32756      32749      32745      32792      32755      32801          0
2016 11 21 00:00:03.5042 0.03055   1,  20      50 ff ff ff ff ff ff 00 00 81 bf 81 81 80 17 80 1b 7f f8 7f f4 7f ed 7f e9 7f d9 80 19 7f f3 80 21 80 18 7f f6 80 1c 80 18 80 20 7f e8 00 00 ff ff ff ff
2016 11 21 00:00:03.5042       0   1,  21      36      32791      32760      32756      32749      32745      32793      32755      32801          0
2016 11 21 00:00:03.5310 0.02687   1,  20      50 ff ff ff ff ff ff 00 00 81 c0 81 81 80 17 80 1b 7f f8 7f f4 7f ed 7f e9 7f d9 80 18 7f f3 80 21 80 18 7f f6 80 1c 80 18 80 20 7f e8 00 00 ff ff ff ff
2016 11 21 00:00:03.5310       0   1,  21      36      32791      32760      32756      32749      32745      32792      32755      32801          0
2016 11 21 00:00:03.5600 0.02892   1,  20      50 ff ff ff ff ff ff 00 00 81 bf 81 81 80 17 80 1b 7f f8 7f f4 7f ed 7f e9 7f d9 80 19 7f f3 80 22 80 18 7f f6 80 1c 80 18 80 20 7f e9 00 00 ff ff ff ff
2016 11 21 00:00:03.5600       0   1,  21      36      32791      32760      32756      32749      32745      32793      32755      32802          0
2016 11 21 00:00:03.5882 0.02825   1,  20      50 ff ff ff ff ff ff 00 00 81 c2 81 81 80 17 80 1b 7f f8 7f f4 7f ed 7f e9 7f d9 80 19 7f f3 80 21 80 18 7f f7 80 1c 80 18 80 20 7f e8 00 00 ff ff ff ff
2016 11 21 00:00:03.5882       0   1,  21      36      32791      32760      32756      32749      32745      32793      32755      32801          0
2016 11 21 00:00:03.6170 0.02882   1,  20      50 ff ff ff ff ff ff 00 00 81 c1 81 81 80 17 80 1b 7f f8 7f f4 7f ed 7f e9 7f d9 80 18 7f f3 80 21 80 18 7f f6 80 1c 80 18 80 20 7f e8 00 00 ff ff ff ff
2016 11 21 00:00:03.6170       0   1,  21      36      32791      32760      32756      32749      32745      32792      32755      32801          0
2016 11 21 00:00:03.6457 0.02871   1,  20      50 ff ff ff ff ff ff 00 00 81 bf 81 81 80 17 80 1b 7f f8 7f f4 7f ed 7f e9 7f d9 80 18 7f f3 80 21 80 18 7f f6 80 1c 80 18 80 20 7f e8 00 00 ff ff ff ff
2016 11 21 00:00:03.6457       0   1,  21      36      32791      32760      32756      32749      32745      32792      32755      32801          0
2016 11 21 00:00:03.6746 0.02889   1,  20      50 ff ff ff ff ff ff 00 00 81 bf 81 81 80 17 80 1b 7f f8 7f f4 7f ed 7f e9 7f d9 80 19 7f f3 80 21 80 18 7f f7 80 1c 80 18 80 20 7f e8 00 00 ff ff ff ff
2016 11 21 00:00:03.6746       0   1,  21      36      32791      32760      32756      32749      32745      32793      32755      32801          0
2016 11 21 00:00:03.7043  0.0297   1,  20      50 ff ff ff ff ff ff 00 00 81 c1 81 81 80 17 80 1b 7f f8 7f f4 7f ed 7f e9 7f d9 80 18 7f f3 80 21 80 18 7f f6 80 1c 80 18 80 20 7f e8 00 00 ff ff ff ff
2016 11 21 00:00:03.7043       0   1,  21      36      32791      32760      32756      32749      32745      32792      32755      32801          0
2016 11 21 00:00:03.7317 0.02739   1,  20      50 ff ff ff ff ff ff 00 00 81 bf 81 81 80 17 80 1b 7f f8 7f f4 7f ed 7f e9 7f d9 80 18 7f f3 80 21 80 18 7f f7 80 1c 80 18 80 20 7f e8 00 00 ff ff ff ff
2016 11 21 00:00:03.7317       0   1,  21      36      32791      32760      32756      32749      32745      32792      32755      32801          0
2016 11 21 00:00:03.7605 0.02882   1,  20      50 ff ff ff ff ff ff 00 00 81 c0 81 81 80 17 80 1b 7f f8 7f f4 7f ed 7f e9 7f d9 80 18 7f f3 80 21 80 18 7f f7 80 1c 80 18 80 20 7f e8 00 00 ff ff ff ff
2016 11 21 00:00:03.7605       0   1,  21      36      32791      32760      32756      32749      32745      32792      32755      32801          0
2016 11 21 00:00:03.7901 0.02954   1,  20      50 ff ff ff ff ff ff 00 00 81 c0 81 81 80 17 80 1b 7f f8 7f f4 7f ed 7f e9 7f d9 80 18 7f f3 80 21 80 18 7f f6 80 1c 80 18 80 20 7f e8 00 00 ff ff ff ff
2016 11 21 00:00:03.7901       0   1,  21      36      32791      32760      32756      32749      32745      32792      32755      32801          0
2016 11 21 00:00:03.8178 0.02774   1,  20      50 ff ff ff ff ff ff 00 00 81 bf 81 81 80 17 80 1b 7f f8 7f f4 7f ed 7f e9 7f d9 80 18 7f f3 80 22 80 18 7f f6 80 1c 80 18 80 20 7f e8 00 00 ff ff ff ff
2016 11 21 00:00:03.8178       0   1,  21      36      32791      32760      32756      32749      32745      32792      32755      32802          0
2016 11 21 00:00:03.8476 0.02982   1,  20      50 ff ff ff ff ff ff 00 00 81 c0 81 81 80 17 80 1b 7f f8 7f f4 7f ed 7f e9 7f d9 80 18 7f f3 80 21 80 18 7f f6 80 1c 80 18 80 20 7f e8 00 00 ff ff ff ff
2016 11 21 00:00:03.8476       0   1,  21      36      32791      32760      32756      32749      32745      32792      32755      32801          0
2016 11 21 00:00:03.8750 0.02739   1,  20      50 ff ff ff ff ff ff 00 00 81 bf 81 81 80 17 80 1b 7f f8 7f f4 7f ed 7f e9 7f d9 80 18 7f f3 80 21 80 18 7f f6 80 1c 80 18 80 20 7f e8 00 00 ff ff ff ff
2016 11 21 00:00:03.8750       0   1,  21      36      32791      32760      32756      32749      32745      32792      32755      32801          0
2016 11 21 00:00:03.9039 0.02884   1,  20      50 ff ff ff ff ff ff 00 00 81 bf 81 81 80 17 80 1b 7f f8 7f f4 7f ed 7f e9 7f d9 80 18 7f f3 80 21 80 18 7f f6 80 1c 80 18 80 20 7f e8 00 00 ff ff ff ff
2016 11 21 00:00:03.9039       0   1,  21      36      32791      32760      32756      32749      32745      32792      32755      32801          0
2016 11 21 00:00:03.9329 0.02904   1,  20      50 ff ff ff ff ff ff 00 00 81 bf 81 81 80 17 80 1b 7f f8 7f f4 7f ed 7f e9 7f d9 80 18 7f f3 80 21 80 18 7f f6 80 1c 80 18 80 20 7f e8 00 00 ff ff ff ff
2016 11 21 00:00:03.9329       0   1,  21      36      32791      32760      32756      32749      32745      32792      32755      32801          0
2016 11 21 00:00:03.9613 0.02839   1,  20      50 ff ff ff ff ff ff 00 00 81 bf 81 81 80 17 80 1b 7f f8 7f f4 7f ed 7f e9 7f d9 80 18 7f f3 80 21 80 18 7f f7 80 1c 80 18 80 20 7f e8 00 00 ff ff ff ff
2016 11 21 00:00:03.9613       0   1,  21      36      32791      32760      32756      32749      32745      32792      32755      32801          0
2016 11 21 00:00:03.9904 0.02914   1,  20      50 ff ff ff ff ff ff 00 00 81 c0 81 81 80 17 80 1b 7f f8 7f f4 7f ed 7f e9 7f d9 80 18 7f f3 80 21 80 18 7f f6 80 1c 80 18 80 20 7f e8 00 00 ff ff ff ff
2016 11 21 00:00:03.9904       0   1,  21      36      32791      32760      32756      32749      32745      32792      32755      32801          0
2016 11 21 00:00:04.0185 0.02806   1,  20      50 ff ff ff ff ff ff 00 00 81 bf 81 81 80 17 80 1b 7f f8 7f f4 7f ed 7f e9 7f d9 80 18 7f f3 80 21 80 18 7f f6 80 1c 80 18 80 20 7f e8 00 00 ff ff ff ff
2016 11 21 00:00:04.0185       0   1,  21      36      32791      32760      32756      32749      32745      32792      32755      32801          0
2016 11 21 00:00:04.0477 0.02925   1,  20      50 ff ff ff ff ff ff 00 00 81 bf 81 81 80 17 80 1b 7f f8 7f f4 7f ed 7f e9 7f d9 80 18 7f f3 80 21 80 18 7f f6 80 1c 80 18 80 20 7f e9 00 00 ff ff ff ff
2016 11 21 00:00:04.0477       0   1,  21      36      32791      32760      32756      32749      32745      32792      32755      32801          0
2016 11 21 00:00:04.0759 0.02813   1,  20      50 ff ff ff ff ff ff 00 00 81 c0 81 81 80 17 80 1b 7f f8 7f f4 7f ed 7f e9 7f d9 80 18 7f f3 80 21 80 18 7f f6 80 1c 80 18 80 20 7f e8 00 00 ff ff ff ff
2016 11 21 00:00:04.0759       0   1,  21      36      32791      32760      32756      32749      32745      32792      32755      32801          0
2016 11 21 00:00:04.1047 0.02878   1,  20      50 ff ff ff ff ff ff 00 00 81 bf 81 81 80 17 80 1b 7f f8 7f f4 7f ed 7f e9 7f d9 80 18 7f f3 80 21 80 18 7f f6 80 1c 80 18 80 20 7f e9 00 00 ff ff ff ff
2016 11 21 00:00:04.1047       0   1,  21      36      32791      32760      32756      32749      32745      32792      32755      32801          0
2016 11 21 00:00:04.1334 0.02873   1,  20      50 ff ff ff ff ff ff 00 00 81 c0 81 81 80 17 80 1b 7f f8 7f f4 7f ed 7f e9 7f d9 80 18 7f f3 80 21 80 18 7f f7 80 1c 80 18 80 20 7f e8 00 00 ff ff ff ff
2016 11 21 00:00:04.1334       0   1,  21      36      32791      32760      32756      32749      32745      32792      32755      32801          0
2016 11 21 00:00:04.1622 0.02879   1,  20      50 ff ff ff ff ff ff 00 00 81 c0 81 81 80 17 80 1b 7f f8 7f f4 7f ed 7f e9 7f d9 80 18 7f f3 80 21 80 18 7f f6 80 1c 80 18 80 20 7f e8 00 00 ff ff ff ff
2016 11 21 00:00:04.1622       0   1,  21      36      32791      32760      32756      32749      32745      32792      32755      32801          0
2016 11 21 00:00:04.1905 0.02829   1,  20      50 ff ff ff ff ff ff 00 00 81 bf 81 81 80 17 80 1b 7f f8 7f f4 7f ed 7f e9 7f d9 80 18 7f f3 80 22 80 18 7f f6 80 1c 80 18 80 20 7f e8 00 00 ff ff ff ff
2016 11 21 00:00:04.1905       0   1,  21      36      32791      32760      32756      32749      32745      32792      32755      32802          0
2016 11 21 00:00:04.2193 0.02886   1,  20      50 ff ff ff ff ff ff 00 00 81 c0 81 81 80 17 80 1b 7f f8 7f f4 7f ed 7f e9 7f d9 80 18 7f f3 80 21 80 18 7f f6 80 1c 80 18 80 20 7f e8 00 00 ff ff ff ff
2016 11 21 00:00:04.2193       0   1,  21      36      32791      32760      32756      32749      32745      32792      32755      32801          0
2016 11 21 00:00:04.2480 0.02872   1,  20      50 ff ff ff ff ff ff 00 00 81 bf 81 81 80 17 80 1b 7f f8 7f f4 7f ed 7f e9 7f d9 80 18 7f f3 80 21 80 18 7f f6 80 1c 80 18 80 20 7f e8 00 00 ff ff ff ff
2016 11 21 00:00:04.2480       0   1,  21      36      32791      32760      32756      32749      32745      32792      32755      32801          0
2016 11 21 00:00:04.2768 0.02881   1,  20      50 ff ff ff ff ff ff 00 00 81 bf 81 81 80 17 80 1b 7f f8 7f f4 7f ed 7f e9 7f d9 80 18 7f f3 80 21 80 18 7f f7 80 1c 80 18 80 20 7f e8 00 00 ff ff ff ff
2016 11 21 00:00:04.2768       0   1,  21      36      32791      32760      32756      32749      32745      32792      32755      32801          0
2016 11 21 00:00:04.3052  0.0284   1,  20      50 ff ff ff ff ff ff 00 00 81 c0 81 81 80 17 80 1b 7f f8 7f f4 7f ed 7f e9 7f d9 80 18 7f f3 80 21 80 18 7f f7 80 1c 80 18 80 20 7f e9 00 00 ff ff ff ff
2016 11 21 00:00:04.3052       0   1,  21      36      32791      32760      32756      32749      32745      32792      32755      32801          0
2016 11 21 00:00:04.3352 0.02993   1,  20      50 ff ff ff ff ff ff 00 00 81 c1 81 81 80 17 80 1b 7f f8 7f f4 7f ed 7f e9 7f d9 80 18 7f f3 80 21 80 18 7f f7 80 1c 80 18 80 20 7f e9 00 00 ff ff ff ff
2016 11 21 00:00:04.3352       0   1,  21      36      32791      32760      32756      32749      32745      32792      32755      32801          0
2016 11 21 00:00:04.3626 0.02745   1,  20      50 ff ff ff ff ff ff 00 00 81 c1 81 81 80 17 80 1b 7f f8 7f f4 7f ed 7f e9 7f d9 80 18 7f f3 80 22 80 18 7f f6 80 1c 80 18 80 20 7f e8 00 00 ff ff ff ff
2016 11 21 00:00:04.3626       0   1,  21      36      32791      32760      32756      32749      32745      32792      32755      32802          0
2016 11 21 00:00:04.3911 0.02848   1,  20      50 ff ff ff ff ff ff 00 00 81 c0 81 81 80 17 80 1b 7f f8 7f f4 7f ed 7f e9 7f d9 80 18 7f f3 80 21 80 18 7f f6 80 1e 80 18 80 20 7f e8 00 00 ff ff ff ff
2016 11 21 00:00:04.3911       0   1,  21      36      32791      32760      32756      32749      32745      32792      32755      32801          0
2016 11 21 00:00:04.4206 0.02954   1,  20      50 ff ff ff ff ff ff 00 00 81 c1 81 81 80 17 80 1b 7f f8 7f f4 7f ed 7f e9 7f d9 80 18 7f f3 80 21 80 18 7f f6 80 1c 80 18 80 20 7f e8 00 00 ff ff ff ff
2016 11 21 00:00:04.4206       0   1,  21      36      32791      32760      32756      32749      32745      32792      32755      32801          0
2016 11 21 00:00:04.4485 0.02789   1,  20      50 ff ff ff ff ff ff 00 00 81 bf 81 81 80 17 80 1b 7f f8 7f f4 7f ed 7f e9 7f d9 80 18 7f f3 80 21 80 18 7f f7 80 1c 80 18 80 20 7f e8 00 00 ff ff ff ff
2016 11 21 00:00:04.4485       0   1,  21      36      32791      32760      32756      32749      32745      32792      32755      32801          0
2016 11 21 00:00:04.4772 0.02864   1,  20      50 ff ff ff ff ff ff 00 00 81 c0 81 81 80 17 80 1b 7f f8 7f f4 7f ed 7f e9 7f d9 80 18 7f f3 80 21 80 18 7f f6 80 1c 80 18 80 20 7f e9 00 00 ff ff ff ff
2016 11 21 00:00:04.4772       0   1,  21      36      32791      32760      32756      32749      32745      32792      32755      32801          0
2016 11 21 00:00:04.5061 0.02894   1,  20      50 ff ff ff ff ff ff 00 00 81 c0 81 81 80 17 80 1b 7f f8 7f f4 7f ed 7f e9 7f d9 80 18 7f f3 80 21 80 18 7f f6 80 1c 80 18 80 20 7f e8 00 00 ff ff ff ff
2016 11 21 00:00:04.5061       0   1,  21      36      32791      32760      32756      32749      32745      32792      32755      32801          0
2016 11 21 00:00:04.5347  0.0286   1,  20      50 ff ff ff ff ff ff 00 00 81 bf 81 81 80 17 80 1b 7f f8 7f f4 7f ed 7f e9 7f d9 80 18 7f f3 80 21 80 18 7f f6 80 1c 80 18 80 20 7f e8 00 00 ff ff ff ff
2016 11 21 00:00:04.5347       0   1,  21      36      32791      32760      32756      32749      32745      32792      32755      32801          0
2016 11 21 00:00:04.5631 0.02842   1,  20      50 ff ff ff ff ff ff 00 00 81 bf 81 81 80 17 80 1b 7f f8 7f f4 7f ed 7f e9 7f d9 80 18 7f f3 80 21 80 18 7f f6 80 1c 80 18 80 20 7f e8 00 00 ff ff ff ff
2016 11 21 00:00:04.5631       0   1,  21      36      32791      32760      32756      32749      32745      32792      32755      32801          0
2016 11 21 00:00:04.5917 0.02857   1,  20      50 ff ff ff ff ff ff 00 00 81 bf 81 81 80 17 80 1b 7f f8 7f f4 7f ed 7f e9 7f d9 80 18 7f f3 80 21 80 18 7f f7 80 1c 80 18 80 20 7f e8 00 00 ff ff ff ff
2016 11 21 00:00:04.5917       0   1,  21      36      32791      32760      32756      32749      32745      32792      32755      32801          0
2016 11 21 00:00:04.6206 0.02892   1,  20      50 ff ff ff ff ff ff 00 00 81 c0 81 81 80 17 80 1b 7f f8 7f f4 7f ed 7f e9 7f d9 80 18 7f f3 80 21 80 18 7f f7 80 1c 80 18 80 20 7f e9 00 00 ff ff ff ff
2016 11 21 00:00:04.6206       0   1,  21      36      32791      32760      32756      32749      32745      32792      32755      32801          0
2016 11 21 00:00:04.6496 0.02895   1,  20      50 ff ff ff ff ff ff 00 00 81 c1 81 81 80 17 80 1b 7f f8 7f f4 7f ed 7f e9 7f d9 80 18 7f f3 80 21 80 18 7f f6 80 1c 80 18 80 20 7f e9 00 00 ff ff ff ff
2016 11 21 00:00:04.6496       0   1,  21      36      32791      32760      32756      32749      32745      32792      32755      32801          0
2016 11 21 00:00:04.6778 0.02823   1,  20      50 ff ff ff ff ff ff 00 00 81 c0 81 81 80 17 80 1b 7f f8 7f f4 7f ed 7f e9 7f d9 80 18 7f f3 80 21 80 18 7f f7 80 1c 80 18 80 20 7f e8 00 00 ff ff ff ff
2016 11 21 00:00:04.6778       0   1,  21      36      32791      32760      32756      32749      32745      32792      32755      32801          0
2016 11 21 00:00:04.7069 0.02909   1,  20      50 ff ff ff ff ff ff 00 00 81 c0 81 81 80 17 80 1b 7f f8 7f f4 7f ed 7f e9 7f d9 80 18 7f f3 80 21 80 18 7f f7 80 1c 80 18 80 20 7f e8 00 00 ff ff ff ff
2016 11 21 00:00:04.7069       0   1,  21      36      32791      32760      32756      32749      32745      32792      32755      32801          0
2016 11 21 00:00:04.7354 0.02854   1,  20      50 ff ff ff ff ff ff 00 00 81 c0 81 81 80 17 80 1b 7f f8 7f f4 7f ed 7f e9 7f d9 80 18 7f f3 80 21 80 18 7f f6 80 1c 80 18 80 20 7f e8 00 00 ff ff ff ff
2016 11 21 00:00:04.7354       0   1,  21      36      32791      32760      32756      32749      32745      32792      32755      32801          0
2016 11 21 00:00:04.7640 0.02859   1,  20      50 ff ff ff ff ff ff 00 00 81 bf 81 81 80 17 80 1b 7f f8 7f f4 7f ed 7f e9 7f d9 80 18 7f f3 80 21 80 18 7f f6 80 1c 80 18 80 20 7f e9 00 00 ff ff ff ff
2016 11 21 00:00:04.7640       0   1,  21      36      32791      32760      32756      32749      32745      32792      32755      32801          0
2016 11 21 00:00:04.7927 0.02869   1,  20      50 ff ff ff ff ff ff 00 00 81 c0 81 81 80 17 80 1b 7f f8 7f f4 7f ed 7f e9 7f d9 80 18 7f f3 80 21 80 18 7f f7 80 1c 80 18 80 20 7f e8 00 00 ff ff ff ff
2016 11 21 00:00:04.7927       0   1,  21      36      32791      32760      32756      32749      32745      32792      32755      32801          0
2016 11 21 00:00:04.8212  0.0285   1,  20      50 ff ff ff ff ff ff 00 00 81 c0 81 81 80 17 80 1b 7f f8 7f f4 7f ed 7f e9 7f d9 80 18 7f f3 80 21 80 18 7f f6 80 1c 80 18 80 20 7f e9 00 00 ff ff ff ff
2016 11 21 00:00:04.8212       0   1,  21      36      32791      32760      32756      32749      32745      32792      32755      32801          0
2016 11 21 00:00:04.8502 0.02896   1,  20      50 ff ff ff ff ff ff 00 00 81 c0 81 81 80 17 80 1b 7f f8 7f f4 7f ed 7f e9 7f d9 80 18 7f f3 80 21 80 18 7f f6 80 1c 80 18 80 20 7f e8 00 00 ff ff ff ff
2016 11 21 00:00:04.8502       0   1,  21      36      32791      32760      32756      32749      32745      32792      32755      32801          0
2016 11 21 00:00:04.8786 0.02845   1,  20      50 ff ff ff ff ff ff 00 00 81 bf 81 81 80 17 80 1b 7f f8 7f f4 7f ed 7f e9 7f d9 80 18 7f f3 80 21 80 18 7f f7 80 1c 80 18 80 20 7f e8 00 00 ff ff ff ff
2016 11 21 00:00:04.8786       0   1,  21      36      32791      32760      32756      32749      32745      32792      32755      32801          0
2016 11 21 00:00:04.9075 0.02885   1,  20      50 ff ff ff ff ff ff 00 00 81 c0 81 81 80 17 80 1b 7f f8 7f f4 7f ed 7f e9 7f d9 80 18 7f f3 80 21 80 18 7f f7 80 1c 80 18 80 20 7f e9 00 00 ff ff ff ff
2016 11 21 00:00:04.9075       0   1,  21      36      32791      32760      32756      32749      32745      32792      32755      32801          0
2016 11 21 00:00:04.9363 0.02882   1,  20      50 ff ff ff ff ff ff 00 00 81 c1 81 81 80 17 80 1b 7f f8 7f f4 7f ed 7f e9 7f d9 80 18 7f f3 80 21 80 18 7f f7 80 1c 80 18 80 20 7f e8 00 00 ff ff ff ff
2016 11 21 00:00:04.9363       0   1,  21      36      32791      32760      32756      32749      32745      32792      32755      32801          0
2016 11 21 00:00:04.9646 0.02832   1,  20      50 ff ff ff ff ff ff 00 00 81 c0 81 81 80 17 80 1b 7f f8 7f f4 7f ed 7f e9 7f d9 80 19 7f f3 80 21 80 18 7f f6 80 1c 80 18 80 20 7f e8 00 00 ff ff ff ff
2016 11 21 00:00:04.9646       0   1,  21      36      32791      32760      32756      32749      32745      32793      32755      32801          0
2016 11 21 00:00:04.9936   0.029   1,  20      50 ff ff ff ff ff ff 00 00 81 c0 81 81 80 17 80 1b 7f f8 7f f4 7f ed 7f e9 7f d9 80 18 7f f3 80 21 80 18 7f f7 80 1c 80 18 80 20 7f e8 00 00 ff ff ff ff
