|--- date time --------|  deltaT       len data...
2012 06 01 00:00:00.0531       0      28    0.04184    -1.4675      -0.02      21.31          0     1.4681     358.37 
2012 06 01 00:00:00.0814 0.02829      28   0.015859    -1.4525       0.15      21.42          0     1.4526     359.37 
2012 06 01 00:00:00.1314    0.05      28    0.18174    -1.5252       0.18      21.35          0      1.536      353.2 
2012 06 01 00:00:00.1821 0.05071      28    0.27567    -1.6025        0.2      21.15          0     1.6261     350.24 
2012 06 01 00:00:00.2314 0.04929      28     0.2154    -1.4869       0.14      20.68          0     1.5024     351.76 
2012 06 01 00:00:00.2814    0.05      28    0.18442    -1.4806       0.23      20.83          0      1.492      352.9 
2012 06 01 00:00:00.3314 0.05001      28     0.0555    -1.4639        0.1      20.56          0     1.4649     357.83 
2012 06 01 00:00:00.3814    0.05      28    0.04282    -1.5258       0.09      20.54          0     1.5264     358.39 
2012 06 01 00:00:00.4321 0.05071      28  -0.073423    -1.4472       0.09      20.52          0      1.449     2.9044 
2012 06 01 00:00:00.4814 0.04929      28  -0.026462    -1.4858       0.08      20.56          0     1.4861     1.0203 
2012 06 01 00:00:00.5314 0.05002      28  -0.048782    -1.4845       0.12      20.53          0     1.4853     1.8821 
2012 06 01 00:00:00.5814 0.05002      28  -0.031103    -1.4139        0.1      20.49          0     1.4142     1.2602 
2012 06 01 00:00:00.6314    0.05      28  -0.012801    -1.4822       0.18      20.51          0     1.4822    0.49485 
2012 06 01 00:00:00.6853 0.05381      28   -0.13476    -1.5734       0.21      20.53          0     1.5792     4.8954 
2012 06 01 00:00:00.7315  0.0462      28   -0.24235    -1.4998       0.24      20.54          0     1.5192     9.1791 
2012 06 01 00:00:00.7814 0.04997      28   -0.22271    -1.5457       0.27      20.52          0     1.5617     8.1986 
2012 06 01 00:00:00.8314    0.05      28   -0.18271    -1.4765       0.29      20.48          0     1.4877     7.0543 
2012 06 01 00:00:00.8814    0.05      28   -0.18271    -1.4765       0.29      20.44          0     1.4877     7.0543 
2012 06 01 00:00:00.9324 0.05098      28   -0.23333    -1.4241       0.33      20.34          0     1.4431     9.3046 
2012 06 01 00:00:00.9814 0.04903      28   -0.26333    -1.4761       0.28      20.47          0     1.4994     10.115 
2012 06 01 00:00:01.0314 0.04999      28   -0.30297    -1.4648       0.29      20.49          0     1.4958     11.686 
2012 06 01 00:00:01.0814 0.05001      28   -0.30565    -1.5094       0.23      20.52          0       1.54     11.447 
2012 06 01 00:00:01.1314 0.05001      28   -0.27967    -1.5244       0.19      20.51          0     1.5498     10.396 
2012 06 01 00:00:01.1822 0.05072      28   -0.18137    -1.4541       0.11      20.66          0     1.4654     7.1094 
2012 06 01 00:00:01.2314 0.04927      28   -0.26431    -1.4178       0.22      20.55          0     1.4422      10.56 
2012 06 01 00:00:01.2814    0.05      28   -0.20235    -1.4305       0.17      20.53          0     1.4447     8.0513 
2012 06 01 00:00:01.3315 0.05001      28   -0.13771    -1.3985       0.09      20.67          0     1.4053     5.6235 
2012 06 01 00:00:01.3815    0.05      28   -0.16271    -1.4418       0.11      20.56          0      1.451     6.4385 
2012 06 01 00:00:01.4324 0.05095      28   -0.17503    -1.4232       0.08      20.49          0     1.4339     7.0113 
2012 06 01 00:00:01.4815 0.04905      28  -0.068064    -1.3579       0.19      20.47          0     1.3596     2.8695 
2012 06 01 00:00:01.5315    0.05      28  -0.050744    -1.3679        0.2       20.5          0     1.3688     2.1245 
2012 06 01 00:00:01.5815 0.05004      28   -0.15137    -1.4022       0.24      20.48          0     1.4103     6.1613 
2012 06 01 00:00:01.6315 0.04999      28   -0.25395    -1.3199       0.25      20.49          0     1.3441     10.891 
2012 06 01 00:00:01.6853 0.05381      28   -0.28261    -1.3495       0.26       20.5          0     1.3788     11.828 
2012 06 01 00:00:01.7316  0.0463      28   -0.26261    -1.3149       0.24      20.53          0     1.3408     11.295 
2012 06 01 00:00:01.7816 0.05002      28   -0.24163    -1.3385       0.27       20.5          0     1.3601     10.233 
2012 06 01 00:00:01.8316 0.04996      28   -0.22431    -1.3485       0.27       20.5          0      1.367      9.444 
2012 06 01 00:00:01.8815 0.04991      28   -0.22931    -1.3572       0.29      20.49          0     1.3764     9.5901 
2012 06 01 00:00:01.9323 0.05083      28   -0.24163    -1.3385       0.29      20.42          0     1.3601     10.233 
2012 06 01 00:00:01.9815 0.04917      28   -0.25895    -1.3285       0.29      20.39          0     1.3535      11.03 
2012 06 01 00:00:02.0315 0.05001      28   -0.18967    -1.3685       0.26      20.47          0     1.3816     7.8906 
2012 06 01 00:00:02.0815 0.05006      28   -0.14503    -1.3712       0.29      20.46          0     1.3788     6.0375 
2012 06 01 00:00:02.1315 0.04996      28  -0.095385    -1.3652       0.26      20.38          0     1.3685     3.9967 
2012 06 01 00:00:02.1815 0.04998      28  -0.068064    -1.3579       0.26       20.3          0     1.3596     2.8695 
2012 06 01 00:00:02.2315 0.05002      28  -0.054404    -1.3542       0.26      20.27          0     1.3553     2.3005 
2012 06 01 00:00:02.2815 0.04999      28  -0.081725    -1.3616       0.28      20.36          0      1.364     3.4349 
2012 06 01 00:00:02.3315 0.05005      28  -0.029763    -1.3916       0.28      20.44          0     1.3919     1.2253 
2012 06 01 00:00:02.3815 0.04999      28  -0.060744    -1.3852       0.29      20.51          0     1.3865     2.5109 
2012 06 01 00:00:02.4316 0.05012      28  -0.052084    -1.3902        0.3      20.53          0     1.3912     2.1456 
2012 06 01 00:00:02.4817 0.05008      28  -0.015122    -1.4462       0.27      20.55          0     1.4463    0.59909 
2012 06 01 00:00:02.5317 0.04993      28  -0.046103    -1.4399        0.2      20.53          0     1.4406     1.8339 
2012 06 01 00:00:02.5816 0.04998      28  -0.064763    -1.4522       0.18      20.54          0     1.4536     2.5535 
2012 06 01 00:00:02.6317 0.05007      28  0.0071985    -1.4475       0.23      20.42          0     1.4475     359.72 
2012 06 01 00:00:02.6816 0.04991      28 -0.0028015    -1.4649       0.21      20.43          0     1.4649    0.10957 
2012 06 01 00:00:02.7316 0.04999      28  -0.057442    -1.4795       0.23      20.41          0     1.4806     2.2234 
2012 06 01 00:00:02.7816 0.05002      28  -0.086103    -1.5091       0.18      20.45          0     1.5116     3.2654 
2012 06 01 00:00:02.8315 0.04992      28   -0.10574    -1.4632       0.21      20.44          0      1.467     4.1336 
2012 06 01 00:00:02.8815 0.04999      28   -0.10074    -1.4545       0.21       20.4          0      1.458     3.9622 
2012 06 01 00:00:02.9315 0.04999      28   -0.13271    -1.3899       0.24      20.41          0     1.3962     5.4542 
2012 06 01 00:00:02.9815 0.04999      28   -0.17369    -1.4008       0.15      20.44          0     1.4116     7.0679 
2012 06 01 00:00:03.0315 0.04999      28   -0.18369    -1.4182       0.14      20.43          0       1.43     7.3801 
2012 06 01 00:00:03.0815    0.05      28   -0.23565    -1.3882       0.14      20.44          0      1.408     9.6345 
2012 06 01 00:00:03.1315 0.05001      28   -0.23431    -1.3658       0.17      20.44          0     1.3858     9.7343 
2012 06 01 00:00:03.1815    0.05      28   -0.23931    -1.3745       0.14      20.77          0     1.3952     9.8765 
2012 06 01 00:00:03.2315    0.05      28   -0.20467    -1.3945       0.21      21.23          0     1.4094     8.3496 
2012 06 01 00:00:03.2815    0.05      28    -0.1044    -1.4408       0.16      21.11          0     1.4446     4.1445 
2012 06 01 00:00:03.3315 0.05001      28   -0.10574    -1.4632       0.19      21.15          0      1.467     4.1336 
2012 06 01 00:00:03.3815 0.05001      28   -0.14405    -1.4295       0.09      21.48          0     1.4367     5.7541 
2012 06 01 00:00:03.4321 0.05052      28   -0.14708    -1.5548       0.04       21.4          0     1.5617     5.4042 
2012 06 01 00:00:03.4819  0.0498      28  -0.077443    -1.5141       0.09      21.14          0     1.5161     2.9279 
2012 06 01 00:00:03.5315 0.04968      28    -0.1294    -1.4841       0.06       21.2          0     1.4898     4.9831 
2012 06 01 00:00:03.5815    0.05      28   -0.19467    -1.3772      -0.04      21.29          0     1.3909     8.0456 
2012 06 01 00:00:03.6315 0.05001      28   -0.18797    -1.2656      -0.01      21.45          0     1.2795     8.4481 
2012 06 01 00:00:03.6830 0.05151      28   -0.16029    -1.1776      -0.05      21.41          0     1.1885      7.751 
2012 06 01 00:00:03.7316 0.04852      28   -0.29287    -1.1473      -0.18      21.55          0     1.1841      14.32 
2012 06 01 00:00:03.7816 0.05007      28   -0.19163    -1.2519      -0.15      21.58          0     1.2665     8.7026 
2012 06 01 00:00:03.8316 0.04992      28   -0.10771    -1.3466      -0.08      21.28          0     1.3509     4.5731 
2012 06 01 00:00:03.8816 0.04999      28  -0.040744    -1.3506       0.04      21.46          0     1.3512      1.728 
2012 06 01 00:00:03.9315 0.04999      28    0.05184    -1.4502      -0.04      21.58          0     1.4511     357.95 
2012 06 01 00:00:03.9816 0.05001      28  -0.032442    -1.4362      -0.14      21.72          0     1.4366      1.294 
2012 06 01 00:00:04.0316    0.05      28   -0.13369    -1.3316      -0.13      21.72          0     1.3382     5.7332 
2012 06 01 00:00:04.0816 0.04999      28   -0.12235    -1.2919      -0.12      21.61          0     1.2977     5.4099 
2012 06 01 00:00:04.1316    0.05      28  -0.045744    -1.3592      -0.08      21.23          0       1.36     1.9275 
2012 06 01 00:00:04.1816    0.05      28  -0.050744    -1.3679      -0.04      21.24          0     1.3688     2.1245 
2012 06 01 00:00:04.2316 0.05001      28   0.025859    -1.4352      -0.04      21.25          0     1.4354     358.97 
2012 06 01 00:00:04.2816 0.04999      28   0.055859    -1.3832      -0.01      20.99          0     1.3844     357.69 
2012 06 01 00:00:04.3316    0.05      28   0.037558    -1.3149       0.09      20.57          0     1.3155     358.36 
2012 06 01 00:00:04.3816 0.05001      28    0.17478    -1.4173       0.18      20.42          0      1.428     352.97 
2012 06 01 00:00:04.4316    0.05      28    0.14746    -1.4246       0.16      20.46          0     1.4322     354.09 
2012 06 01 00:00:04.4816 0.05001      28   0.027558    -1.3323       0.14       20.5          0     1.3326     358.82 
2012 06 01 00:00:04.5316 0.04999      28   0.024256     -1.238       0.16      20.49          0     1.2382     358.88 
2012 06 01 00:00:04.5816 0.05001      28   0.035237     -1.279       0.05      20.49          0     1.2795     358.42 
2012 06 01 00:00:04.6316 0.05001      28   0.024256     -1.238       0.07      20.46          0     1.2382     358.88 
2012 06 01 00:00:04.6816 0.05001      28 -0.0080643     -1.254       0.03      20.49          0      1.254    0.36846 
2012 06 01 00:00:04.7316    0.05      28   0.058897     -1.258      -0.01      20.44          0     1.2594     357.32 
2012 06 01 00:00:04.7816 0.05001      28    0.11854    -1.2347      -0.03      20.48          0     1.2404     354.52 
2012 06 01 00:00:04.8316 0.04999      28   0.059878    -1.3163       0.01      20.51          0     1.3176      357.4 
2012 06 01 00:00:04.8816    0.05      28  -0.036366     -1.203      -0.04      20.49          0     1.2035     1.7315 
2012 06 01 00:00:04.9316    0.05      28   -0.17297    -1.2396      -0.07      20.41          0     1.2516     7.9436 
2012 06 01 00:00:04.9816 0.05002      28   -0.18565    -1.3016      -0.07       20.4          0     1.3147     8.1177 
2012 06 01 00:00:05.0316 0.04999      28   -0.18199    -1.3152      -0.05      20.45          0     1.3277     7.8781 
2012 06 01 00:00:05.0816    0.05      28   -0.18797    -1.2656       0.02      20.48          0     1.2795     8.4481 
2012 06 01 00:00:05.1316 0.05001      28   -0.12065     -1.189       0.03      20.48          0     1.1951     5.7941 
2012 06 01 00:00:05.1816    0.05      28   -0.10833    -1.2076       0.12       20.5          0     1.2125     5.1258 
2012 06 01 00:00:05.2316 0.05001      28   -0.13199    -1.2286       0.14      20.53          0     1.2357     6.1317 
2012 06 01 00:00:05.2816 0.04999      28   -0.15199    -1.2632       0.13      20.53          0     1.2724     6.8605 
2012 06 01 00:00:05.3316 0.04999      28   -0.13369    -1.3316       0.09      20.56          0     1.3382     5.7332 
2012 06 01 00:00:05.3816 0.05001      28   -0.12503    -1.3366       0.05      20.77          0     1.3424     5.3441 
2012 06 01 00:00:05.4316    0.05      28   -0.19663    -1.2606      -0.02      20.91          0     1.2758     8.8658 
2012 06 01 00:00:05.4816 0.05001      28   -0.30823    -1.2539      -0.06      21.19          0     1.2912     13.811 
2012 06 01 00:00:05.5316    0.05      28   -0.27493    -1.2962      -0.17      21.39          0      1.325     11.975 
2012 06 01 00:00:05.5816    0.05      28   -0.35287    -1.2512      -0.21      21.68          0        1.3      15.75 
2012 06 01 00:00:05.6316    0.05      28   -0.29091    -1.2639      -0.31      21.73          0     1.2969     12.962 
2012 06 01 00:00:05.6843 0.05268      28   -0.31225    -1.3208      -0.26      21.67          0     1.3572     13.301 
2012 06 01 00:00:05.7317 0.04735      28   -0.30457    -1.2675      -0.24      21.34          0     1.3036     13.511 
2012 06 01 00:00:05.7817 0.05006      28   -0.30457    -1.2675      -0.23      21.19          0     1.3036     13.511 
2012 06 01 00:00:05.8316 0.04991      28   -0.32787    -1.2079      -0.08      20.58          0     1.2516     15.187 
2012 06 01 00:00:05.8816 0.04999      28   -0.31457    -1.2849      -0.03      20.49          0     1.3228     13.757 
2012 06 01 00:00:05.9316    0.05      28   -0.30555    -1.2092      -0.12      20.62          0     1.2472     14.181 
2012 06 01 00:00:05.9826 0.05099      28   -0.31921    -1.2129      -0.15      20.66          0     1.2542     14.745 
2012 06 01 00:00:06.0316 0.04902      28   -0.35885    -1.2016      -0.22      20.77          0      1.254     16.629 
2012 06 01 00:00:06.0816    0.05      28   -0.32921    -1.2302      -0.24      20.89          0     1.2735     14.982 
2012 06 01 00:00:06.1316    0.05      28   -0.34457    -1.3368      -0.19      20.85          0     1.3805     14.454 
2012 06 01 00:00:06.1816 0.05001      28   -0.26627    -1.3012      -0.09      20.44          0     1.3282     11.565 
2012 06 01 00:00:06.2324 0.05072      28   -0.26225    -1.2342      -0.03      20.37          0     1.2618     11.996 
2012 06 01 00:00:06.2816 0.04928      28   -0.21493    -1.1923       0.14      20.34          0     1.2115     10.219 
2012 06 01 00:00:06.3316 0.04999      28   -0.18163    -1.2346        0.1      20.39          0     1.2479     8.3691 
2012 06 01 00:00:06.3816 0.05001      28   -0.22261    -1.2456      -0.04       20.4          0     1.2653     10.133 
2012 06 01 00:00:06.4316    0.05      28   -0.21029    -1.2642      -0.09       20.4          0     1.2816      9.444 
2012 06 01 00:00:06.4824 0.05071      28   -0.23761    -1.2716      -0.13      20.38          0     1.2936     10.585 
2012 06 01 00:00:06.5316 0.04929      28   -0.22895    -1.2766      -0.01      20.39          0     1.2969     10.168 
2012 06 01 00:00:06.5817    0.05      28   -0.14101    -1.3042       0.05      20.37          0     1.3118     6.1706 
2012 06 01 00:00:06.6317    0.05      28   -0.17833    -1.3289       0.07      20.36          0     1.3408     7.6431 
2012 06 01 00:00:06.6817    0.05      28   -0.16931    -1.2532       0.08      20.35          0     1.2646     7.6938 
2012 06 01 00:00:06.7326 0.05095      28   -0.18065    -1.2929       0.09      20.31          0     1.3055     7.9541 
2012 06 01 00:00:06.7817 0.04905      28   -0.25395    -1.3199       0.15      20.28          0     1.3441     10.891 
2012 06 01 00:00:06.8317    0.05      28   -0.23529    -1.3075       0.12      20.28          0     1.3285     10.201 
2012 06 01 00:00:06.8817 0.04999      28   -0.21297    -1.3089       0.16      20.26          0     1.3261     9.2417 
2012 06 01 00:00:06.9317 0.05001      28   -0.20163    -1.2692       0.13      20.27          0     1.2851     9.0265 
2012 06 01 00:00:06.9824 0.05073      28   -0.23127    -1.2406       0.09      20.27          0     1.2619      10.56 
2012 06 01 00:00:07.0317 0.04927      28   -0.28725    -1.2775        0.1      20.28          0     1.3094     12.672 
2012 06 01 00:00:07.0817    0.05      28   -0.29091    -1.2639       0.17      20.29          0     1.2969     12.962 
2012 06 01 00:00:07.1317 0.05001      28   -0.21029    -1.2642       0.21      20.32          0     1.2816      9.444 
2012 06 01 00:00:07.1817 0.05001      28   -0.19529    -1.2382       0.22      20.29          0     1.2536     8.9625 
2012 06 01 00:00:07.2324 0.05072      28   -0.18931    -1.2879       0.22      20.37          0     1.3017     8.3621 
2012 06 01 00:00:07.2817 0.04928      28   -0.21127    -1.2059       0.21      20.42          0     1.2243     9.9369 
2012 06 01 00:00:07.3317    0.05      28   -0.21993    -1.2009       0.23      20.45          0     1.2209     10.378 
2012 06 01 00:00:07.3817 0.05001      28   -0.21127    -1.2059       0.26      20.44          0     1.2243     9.9369 
2012 06 01 00:00:07.4317    0.05      28   -0.24725    -1.2082       0.24      20.44          0     1.2333     11.565 
2012 06 01 00:00:07.4841 0.05238      28   -0.28323    -1.2106       0.21      20.42          0     1.2433     13.168 
2012 06 01 00:00:07.5318 0.04776      28   -0.22359    -1.1873       0.23      20.41          0     1.2081     10.665 
2012 06 01 00:00:07.5817  0.0499      28   -0.30885    -1.1149       0.21      20.39          0     1.1569     15.483 
2012 06 01 00:00:07.6317    0.05      28   -0.31153    -1.1596       0.26       20.4          0     1.2007     15.038 
2012 06 01 00:00:07.6817 0.05001      28   -0.30787    -1.1732       0.28       20.3          0      1.213     14.703 
2012 06 01 00:00:07.7317    0.05      28   -0.24725    -1.2082       0.31      20.24          0     1.2333     11.565 
2012 06 01 00:00:07.7818 0.05007      28   -0.26493    -1.2789       0.35      20.25          0      1.306     11.704 
2012 06 01 00:00:07.8317  0.0499      28   -0.27225    -1.2516       0.31      20.24          0     1.2808     12.272 
2012 06 01 00:00:07.8817 0.05001      28   -0.30457    -1.2675       0.27      20.25          0     1.3036     13.511 
2012 06 01 00:00:07.9317 0.04999      28   -0.34421    -1.2562       0.21      20.37          0     1.3025     15.324 
2012 06 01 00:00:07.9817 0.05002      28   -0.36385    -1.2102       0.18      20.39          0     1.2637     16.734 
2012 06 01 00:00:08.0317 0.04999      28   -0.34153    -1.2116       0.18      20.36          0     1.2588     15.743 
2012 06 01 00:00:08.0817 0.05001      28   -0.36019    -1.2239       0.15      20.37          0     1.2758     16.399 
2012 06 01 00:00:08.1317 0.04999      28   -0.37385    -1.2275       0.17      20.33          0     1.2832     16.938 
2012 06 01 00:00:08.1817 0.05001      28   -0.36617    -1.1742       0.14      20.36          0       1.23      17.32 
2012 06 01 00:00:08.2317 0.05001      28   -0.28921    -1.1609       0.12      20.36          0     1.1964     13.989 
2012 06 01 00:00:08.2817    0.05      28   -0.32385    -1.1409        0.1      20.38          0      1.186     15.847 
2012 06 01 00:00:08.3317 0.04999      28   -0.31849    -1.0516       0.09      20.37          0     1.0988     16.849 
2012 06 01 00:00:08.3817 0.05001      28   -0.30617    -1.0703       0.14      20.31          0     1.1132     15.964 
2012 06 01 00:00:08.4317    0.05      28   -0.24921    -1.0916       0.26      20.23          0     1.1197      12.86 
2012 06 01 00:00:08.4817 0.05002      28   -0.14859    -1.0574       0.34      20.24          0     1.0678     7.9993 
2012 06 01 00:00:08.5318 0.05001      28  -0.045648    -1.0591       0.34      20.24          0       1.06      2.468 
2012 06 01 00:00:08.5818 0.05005      28  -0.050648    -1.0677       0.36      20.25          0     1.0689     2.7158 
2012 06 01 00:00:08.6318    0.05      28  -0.036987    -1.0641       0.36      20.25          0     1.0647     1.9908 
2012 06 01 00:00:08.6818 0.05002      28  -0.028327    -1.0691       0.34      20.26          0     1.0694     1.5178 
2012 06 01 00:00:08.7317 0.04992      28  -0.039667    -1.1087       0.36      20.27          0     1.1094      2.049 
2012 06 01 00:00:08.7818 0.05001      28  -0.085648    -1.1283        0.4       20.3          0     1.1316     4.3407 
2012 06 01 00:00:08.8342 0.05244      28   -0.12065     -1.189       0.37      20.47          0     1.1951     5.7941 
2012 06 01 00:00:08.8818 0.04755      28   -0.22725    -1.1736       0.36      20.73          0     1.1954     10.959 
2012 06 01 00:00:08.9317 0.04998      28   -0.22725    -1.1736       0.34      20.81          0     1.1954     10.959 
2012 06 01 00:00:08.9818 0.05002      28  -0.016725     -1.249       0.37      20.78          0     1.2491    0.76718 
2012 06 01 00:00:09.0317 0.04999      28   0.069878     -1.299       0.42       20.8          0     1.3008     356.92 
2012 06 01 00:00:09.0818 0.05001      28   0.041218    -1.3286       0.07      20.87          0     1.3292     358.22 
2012 06 01 00:00:09.1317 0.04999      28  -0.018064    -1.2713      -0.07      20.79          0     1.2714    0.81409 
2012 06 01 00:00:09.1818 0.05001      28  -0.048064    -1.3232       -0.2      20.68          0     1.3241     2.0802 
2012 06 01 00:00:09.2318    0.05      28  -0.066725    -1.3356      -0.22      20.54          0     1.3372     2.8601 
2012 06 01 00:00:09.2818 0.05001      28  -0.088686    -1.2536      -0.32      20.73          0     1.2567     4.0466 
2012 06 01 00:00:09.3318 0.04999      28  -0.098327    -1.1903      -0.29      20.77          0     1.1944     4.7223 
2012 06 01 00:00:09.3818 0.05001      28  -0.096987     -1.168      -0.24      20.68          0      1.172     4.7468 
2012 06 01 00:00:09.4318    0.05      28  -0.076987    -1.1333      -0.35      20.65          0      1.136     3.8861 
2012 06 01 00:00:09.4818 0.05001      28  -0.071987    -1.1247      -0.36      20.66          0      1.127     3.6623 
2012 06 01 00:00:09.5318 0.04999      28  -0.095648    -1.1457      -0.34      20.94          0     1.1497     4.7724 
2012 06 01 00:00:09.5818 0.05001      28  -0.044667    -1.1174      -0.29      20.66          0     1.1183     2.2892 
2012 06 01 00:00:09.6318 0.05007      28   0.028275     -1.171      -0.25      20.57          0     1.1714     358.62 
2012 06 01 00:00:09.6819 0.05001      28   0.060237    -1.2357      -0.27      20.49          0     1.2371     357.21 
2012 06 01 00:00:09.7319    0.05      28     0.1022     -1.283      -0.29      20.52          0     1.2871     355.45 
2012 06 01 00:00:09.7818    0.05      28   0.095859     -1.314      -0.29      20.57          0     1.3175     355.83 
2012 06 01 00:00:09.8342 0.05239      28   0.041218    -1.3286      -0.26      20.79          0     1.3292     358.22 
2012 06 01 00:00:09.8818 0.04755      28   0.036577    -1.2566      -0.24      20.75          0     1.2572     358.33 
2012 06 01 00:00:09.9318 0.04999      28   0.028897    -1.3099      -0.25      20.68          0     1.3103     358.74 
2012 06 01 00:00:09.9818 0.05001      28   0.005237    -1.3309      -0.27      20.65          0     1.3309     359.77 
