|--- date time --------|  deltaT       len data...
2012 06 01 00:00:00.0531       0      28   0.042278    -1.4676  -0.008787      21.31          0     1.4682     358.35 
2012 06 01 00:00:00.0814 0.02829      28    0.01229    -1.4516    0.16045      21.42          0     1.4516     359.51 
2012 06 01 00:00:00.1314    0.05      28    0.17742     -1.524    0.19482      21.35          0     1.5343     353.36 
2012 06 01 00:00:00.1821 0.05071      28    0.27085    -1.6012    0.21752      21.15          0     1.6239      350.4 
2012 06 01 00:00:00.2314 0.04929      28    0.21202     -1.486    0.15538      20.68          0      1.501     351.88 
2012 06 01 00:00:00.2814    0.05      28    0.17892    -1.4791    0.24459      20.83          0     1.4898      353.1 
2012 06 01 00:00:00.3314 0.05001      28   0.053101    -1.4632    0.11148      20.56          0     1.4642     357.92 
2012 06 01 00:00:00.3814    0.05      28   0.040661    -1.5252    0.10157      20.54          0     1.5258     358.47 
2012 06 01 00:00:00.4321 0.05071      28   -0.07555    -1.4466   0.098331      20.52          0     1.4486     2.9896 
2012 06 01 00:00:00.4814 0.04929      28  -0.028365    -1.4853   0.089686      20.56          0     1.4856     1.0941 
2012 06 01 00:00:00.5314 0.05002      28  -0.051624    -1.4837    0.12914      20.53          0     1.4846     1.9927 
2012 06 01 00:00:00.5814 0.05002      28  -0.033477    -1.4132    0.10912      20.49          0     1.4136      1.357 
2012 06 01 00:00:00.6314    0.05      28   -0.01707     -1.481    0.18996      20.51          0     1.4811    0.66036 
2012 06 01 00:00:00.6853 0.05381      28   -0.13971    -1.5721    0.21764      20.53          0     1.5783     5.0784 
2012 06 01 00:00:00.7315  0.0462      28   -0.24797    -1.4982    0.24463      20.54          0     1.5186     9.3975 
2012 06 01 00:00:00.7814 0.04997      28   -0.22904     -1.544    0.27537      20.52          0     1.5609     8.4376 
2012 06 01 00:00:00.8314    0.05      28   -0.18952    -1.4746    0.29587      20.48          0     1.4868     7.3237 
2012 06 01 00:00:00.8814    0.05      28   -0.18952    -1.4746    0.29587      20.44          0     1.4868     7.3237 
2012 06 01 00:00:00.9324 0.05098      28   -0.24108    -1.4221    0.33434      20.34          0     1.4424     9.6216 
2012 06 01 00:00:00.9814 0.04903      28   -0.26989    -1.4743    0.28397      20.47          0     1.4988     10.373 
2012 06 01 00:00:01.0314 0.04999      28   -0.30975    -1.4629    0.29296      20.49          0     1.4954     11.955 
2012 06 01 00:00:01.0814 0.05001      28   -0.31102     -1.508     0.2332      20.52          0     1.5397     11.654 
2012 06 01 00:00:01.1314 0.05001      28    -0.2841    -1.5232    0.19392      20.51          0     1.5495     10.565 
2012 06 01 00:00:01.1822 0.05072      28   -0.18393    -1.4534    0.11582      20.66          0      1.465     7.2125 
2012 06 01 00:00:01.2314 0.04927      28   -0.26945    -1.4164     0.2236      20.55          0     1.4418     10.771 
2012 06 01 00:00:01.2814    0.05      28   -0.20633    -1.4294    0.17516      20.53          0     1.4442     8.2136 
2012 06 01 00:00:01.3315 0.05001      28   -0.13981    -1.3979   0.096507      20.67          0     1.4049     5.7114 
2012 06 01 00:00:01.3815    0.05      28   -0.16528    -1.4411    0.11618      20.56          0     1.4506     6.5426 
2012 06 01 00:00:01.4324 0.05095      28   -0.17689    -1.4226   0.085784      20.49          0     1.4336     7.0877 
2012 06 01 00:00:01.4815 0.04905      28  -0.072554    -1.3567    0.19787      20.47          0     1.3586     3.0612 
2012 06 01 00:00:01.5315    0.05      28  -0.055474    -1.3666    0.20834       20.5          0     1.3677     2.3245 
2012 06 01 00:00:01.5815 0.05004      28   -0.15701    -1.4007    0.24616      20.48          0     1.4094     6.3961 
2012 06 01 00:00:01.6315 0.04999      28    -0.2598    -1.3183    0.25322      20.49          0     1.3436     11.149 
2012 06 01 00:00:01.6853 0.05381      28   -0.28869    -1.3479    0.26273       20.5          0     1.3784     12.089 
2012 06 01 00:00:01.7316  0.0463      28   -0.26822    -1.3134    0.24299      20.53          0     1.3405     11.543 
2012 06 01 00:00:01.7816 0.05002      28   -0.24796    -1.3368    0.27362       20.5          0     1.3596     10.508 
2012 06 01 00:00:01.8316 0.04996      28   -0.23064    -1.3468    0.27409       20.5          0     1.3664     9.7176 
2012 06 01 00:00:01.8815 0.04991      28   -0.23611    -1.3554    0.29403      20.49          0     1.3758     9.8822 
2012 06 01 00:00:01.9323 0.05083      28   -0.24843    -1.3367    0.29362      20.42          0     1.3596     10.529 
2012 06 01 00:00:01.9815 0.04917      28   -0.26575    -1.3267    0.29315      20.39          0     1.3531     11.327 
2012 06 01 00:00:02.0315 0.05001      28   -0.19578    -1.3669    0.26504      20.47          0     1.3808     8.1509 
2012 06 01 00:00:02.0815 0.05006      28   -0.15185    -1.3694     0.2961      20.46          0     1.3778      6.328 
2012 06 01 00:00:02.1315 0.04996      28   -0.10152    -1.3636    0.26725      20.38          0     1.3673     4.2579 
2012 06 01 00:00:02.1815 0.04998      28  -0.074207    -1.3562    0.26785       20.3          0     1.3583     3.1318 
2012 06 01 00:00:02.2315 0.05002      28   -0.06055    -1.3526    0.26815      20.27          0     1.3539     2.5632 
2012 06 01 00:00:02.2815 0.04999      28  -0.088335    -1.3598    0.28754      20.36          0     1.3626     3.7169 
2012 06 01 00:00:02.3315 0.05005      28  -0.036388    -1.3898    0.28896      20.44          0     1.3902     1.4998 
2012 06 01 00:00:02.3815 0.04999      28  -0.067596    -1.3834    0.29818      20.51          0      1.385     2.7975 
2012 06 01 00:00:02.4316 0.05012      28  -0.059175    -1.3883    0.30841      20.53          0     1.3896     2.4407 
2012 06 01 00:00:02.4817 0.05008      28  -0.021515    -1.4445    0.27965      20.55          0     1.4446    0.85335 
2012 06 01 00:00:02.5317 0.04993      28  -0.050834    -1.4386     0.2089      20.53          0     1.4395     2.0238 
2012 06 01 00:00:02.5816 0.04998      28  -0.069017     -1.451    0.18854      20.54          0     1.4527     2.7232 
2012 06 01 00:00:02.6317 0.05007      28  0.0017437    -1.4461    0.24019      20.42          0     1.4461     359.93 
2012 06 01 00:00:02.6816 0.04991      28 -0.0077813    -1.4635    0.22007      20.43          0     1.4635    0.30463 
2012 06 01 00:00:02.7316 0.04999      28  -0.062879     -1.478    0.23887      20.41          0     1.4794     2.4361 
2012 06 01 00:00:02.7816 0.05002      28  -0.090351     -1.508    0.18839      20.45          0     1.5107     3.4288 
2012 06 01 00:00:02.8315 0.04992      28   -0.11069    -1.4618    0.21763      20.44          0      1.466     4.3304 
2012 06 01 00:00:02.8815 0.04999      28    -0.1057    -1.4532     0.2177       20.4          0      1.457     4.1601 
2012 06 01 00:00:02.9315 0.04999      28   -0.13836    -1.3883    0.24653      20.41          0     1.3952     5.6912 
2012 06 01 00:00:02.9815 0.04999      28    -0.1772    -1.3999    0.15565      20.44          0     1.4111     7.2143 
2012 06 01 00:00:03.0315 0.04999      28   -0.18696    -1.4173    0.14553      20.43          0     1.4295     7.5149 
2012 06 01 00:00:03.0815    0.05      28   -0.23891    -1.3873    0.14411      20.44          0     1.4077     9.7713 
2012 06 01 00:00:03.1315 0.05001      28   -0.23828    -1.3648      0.174      20.44          0     1.3854     9.9036 
2012 06 01 00:00:03.1815    0.05      28   -0.24257    -1.3736    0.14394      20.77          0     1.3949     10.015 
2012 06 01 00:00:03.2315    0.05      28   -0.20959    -1.3932    0.21487      21.23          0     1.4088     8.5555 
2012 06 01 00:00:03.2815    0.05      28   -0.10817    -1.4398    0.16754      21.11          0     1.4439     4.2966 
2012 06 01 00:00:03.3315 0.05001      28   -0.11022    -1.4619    0.19764      21.15          0     1.4661     4.3116 
2012 06 01 00:00:03.3815 0.05001      28   -0.14615    -1.4289   0.096552      21.48          0     1.4364       5.84 
2012 06 01 00:00:03.4321 0.05052      28   -0.14801    -1.5545   0.047282       21.4          0     1.5615      5.439 
2012 06 01 00:00:03.4819  0.0498      28  -0.079568    -1.5135   0.098657      21.14          0     1.5156     3.0093 
2012 06 01 00:00:03.5315 0.04968      28   -0.13081    -1.4837    0.06725       21.2          0     1.4895     5.0382 
2012 06 01 00:00:03.5815    0.05      28   -0.19369    -1.3774  -0.034933      21.29          0      1.391     8.0044 
2012 06 01 00:00:03.6315 0.05001      28    -0.1877    -1.2656 -0.0054847      21.45          0     1.2795     8.4359 
2012 06 01 00:00:03.6830 0.05151      28   -0.15909    -1.1779  -0.045372      21.41          0     1.1886     7.6915 
2012 06 01 00:00:03.7316 0.04852      28   -0.28856    -1.1484   -0.17865      21.55          0     1.1841     14.105 
2012 06 01 00:00:03.7816 0.05007      28   -0.18806    -1.2528   -0.14562      21.58          0     1.2669     8.5365 
2012 06 01 00:00:03.8316 0.04992      28   -0.10581     -1.347   -0.07306      21.28          0     1.3512     4.4913 
2012 06 01 00:00:03.8816 0.04999      28  -0.041699    -1.3503    0.04851      21.46          0     1.3509     1.7688 
2012 06 01 00:00:03.9315 0.04999      28   0.052747    -1.4504  -0.028654      21.58          0     1.4514     357.92 
2012 06 01 00:00:03.9816 0.05001      28   -0.02915     -1.437    -0.1307      21.72          0     1.4373     1.1621 
2012 06 01 00:00:04.0316    0.05      28    -0.1306    -1.3324   -0.12375      21.72          0     1.3387     5.5984 
2012 06 01 00:00:04.0816 0.04999      28    -0.1195    -1.2927   -0.11374      21.61          0     1.2982     5.2818 
2012 06 01 00:00:04.1316    0.05      28  -0.043865    -1.3597  -0.071517      21.23          0     1.3604     1.8477 
2012 06 01 00:00:04.1816    0.05      28  -0.049808    -1.3681  -0.031593      21.24          0      1.369      2.085 
2012 06 01 00:00:04.2316 0.05001      28   0.026774    -1.4354  -0.029361      21.25          0     1.4357     358.93 
2012 06 01 00:00:04.2816 0.04999      28   0.056057    -1.3833  0.0010116      20.99          0     1.3844     357.68 
2012 06 01 00:00:04.3316    0.05      28     0.0354    -1.3143    0.10012      20.57          0     1.3148     358.46 
2012 06 01 00:00:04.3816 0.05001      28    0.17046    -1.4161    0.19398      20.42          0     1.4263     353.14 
2012 06 01 00:00:04.4316    0.05      28    0.14362    -1.4235    0.17338      20.46          0     1.4308     354.24 
2012 06 01 00:00:04.4816 0.05001      28   0.024222    -1.3314    0.14998       20.5          0     1.3316     358.96 
2012 06 01 00:00:04.5316 0.04999      28   0.020449    -1.2369     0.1693      20.49          0     1.2371     359.05 
2012 06 01 00:00:04.5816 0.05001      28   0.034024    -1.2786   0.059852      20.49          0     1.2791     358.48 
2012 06 01 00:00:04.6316 0.05001      28   0.022574    -1.2375   0.079329      20.46          0     1.2377     358.95 
2012 06 01 00:00:04.6816 0.05001      28 -0.0087929    -1.2537   0.038678      20.49          0     1.2538    0.40182 
2012 06 01 00:00:04.7316    0.05      28   0.059095     -1.258 0.00029636      20.44          0     1.2594     357.31 
2012 06 01 00:00:04.7816 0.05001      28    0.11919    -1.2348  -0.018436      20.48          0     1.2406     354.49 
2012 06 01 00:00:04.8316 0.04999      28   0.059603    -1.3162    0.02068      20.51          0     1.3175     357.41 
2012 06 01 00:00:04.8816    0.05      28  -0.035433    -1.2032  -0.032289      20.49          0     1.2037     1.6868 
2012 06 01 00:00:04.9316    0.05      28   -0.17129      -1.24  -0.065276      20.41          0     1.2518     7.8647 
2012 06 01 00:00:04.9816 0.05002      28   -0.18397     -1.302  -0.065186       20.4          0     1.3149     8.0424 
2012 06 01 00:00:05.0316 0.04999      28   -0.18078    -1.3155   -0.04502      20.45          0     1.3279     7.8246 
2012 06 01 00:00:05.0816    0.05      28   -0.18841    -1.2654   0.024506      20.48          0     1.2794     8.4685 
2012 06 01 00:00:05.1316 0.05001      28   -0.12134    -1.1888   0.035612      20.48          0     1.1949     5.8283 
2012 06 01 00:00:05.1816    0.05      28   -0.11115    -1.2069    0.12599       20.5          0      1.212     5.2621 
2012 06 01 00:00:05.2316 0.05001      28   -0.13528    -1.2277    0.14556      20.53          0     1.2351     6.2879 
2012 06 01 00:00:05.2816 0.04999      28   -0.15504    -1.2624    0.13531      20.53          0     1.2719     7.0014 
2012 06 01 00:00:05.3316 0.04999      28    -0.1358     -1.331   0.096182      20.56          0     1.3379     5.8256 
2012 06 01 00:00:05.3816 0.05001      28   -0.12619    -1.3362   0.056429      20.77          0     1.3422     5.3951 
2012 06 01 00:00:05.4316    0.05      28   -0.19612    -1.2607  -0.015718      20.91          0     1.2759     8.8425 
2012 06 01 00:00:05.4816 0.05001      28   -0.30675    -1.2543  -0.058383      21.19          0     1.2912     13.743 
2012 06 01 00:00:05.5316    0.05      28   -0.27086    -1.2973    -0.1673      21.39          0     1.3252     11.794 
2012 06 01 00:00:05.5816    0.05      28   -0.34784    -1.2525   -0.20941      21.68          0     1.2999      15.52 
2012 06 01 00:00:05.6316    0.05      28   -0.28353    -1.2658   -0.30784      21.73          0     1.2972     12.625 
2012 06 01 00:00:05.6843 0.05268      28   -0.30605    -1.3225     -0.258      21.67          0     1.3574      13.03 
2012 06 01 00:00:05.7317 0.04735      28   -0.29884    -1.2691   -0.23816      21.34          0     1.3038     13.251 
2012 06 01 00:00:05.7817 0.05006      28   -0.29908     -1.269   -0.22816      21.19          0     1.3038     13.262 
2012 06 01 00:00:05.8316 0.04991      28   -0.32591    -1.2084  -0.079129      20.58          0     1.2516     15.094 
2012 06 01 00:00:05.8816 0.04999      28    -0.3138    -1.2851  -0.028347      20.49          0     1.3228     13.722 
2012 06 01 00:00:05.9316    0.05      28   -0.30266      -1.21   -0.11858      20.62          0     1.2473     14.043 
2012 06 01 00:00:05.9826 0.05099      28    -0.3156    -1.2139   -0.14887      20.66          0     1.2542     14.574 
2012 06 01 00:00:06.0316 0.04902      28   -0.35358     -1.203   -0.21986      20.77          0     1.2538     16.379 
2012 06 01 00:00:06.0816    0.05      28   -0.32348    -1.2317   -0.23897      20.89          0     1.2735     14.715 
2012 06 01 00:00:06.1316    0.05      28   -0.34001     -1.338   -0.18868      20.85          0     1.3806     14.258 
2012 06 01 00:00:06.1816 0.05001      28   -0.26409    -1.3018  -0.087086      20.44          0     1.3283     11.468 
2012 06 01 00:00:06.2324 0.05072      28   -0.26149    -1.2344  -0.027429      20.37          0     1.2618      11.96 
2012 06 01 00:00:06.2816 0.04928      28    -0.2182    -1.1914    0.14337      20.34          0     1.2112     10.378 
2012 06 01 00:00:06.3316 0.04999      28   -0.18396     -1.234    0.10444      20.39          0     1.2476     8.4793 
2012 06 01 00:00:06.3816 0.05001      28   -0.22163    -1.2458  -0.036419       20.4          0     1.2654     10.087 
2012 06 01 00:00:06.4316    0.05      28   -0.20813    -1.2648  -0.085996       20.4          0     1.2818     9.3445 
2012 06 01 00:00:06.4824 0.05071      28    -0.2345    -1.2724   -0.12658      20.38          0     1.2938     10.442 
2012 06 01 00:00:06.5316 0.04929      28   -0.22867    -1.2766 -0.0063833      20.39          0     1.2969     10.155 
2012 06 01 00:00:06.5817    0.05      28   -0.14217    -1.3039   0.055849      20.37          0     1.3116     6.2226 
2012 06 01 00:00:06.6317    0.05      28   -0.17995    -1.3284   0.075117      20.36          0     1.3406     7.7145 
2012 06 01 00:00:06.6817    0.05      28   -0.17117    -1.2527   0.084852      20.35          0     1.2644     7.7806 
2012 06 01 00:00:06.7326 0.05095      28   -0.18274    -1.2923    0.09483      20.31          0     1.3052     8.0487 
2012 06 01 00:00:06.7817 0.04905      28   -0.25744    -1.3189    0.15325      20.28          0     1.3438     11.045 
2012 06 01 00:00:06.8317    0.05      28   -0.23808    -1.3068    0.12362      20.28          0     1.3283     10.325 
2012 06 01 00:00:06.8817 0.04999      28   -0.21671    -1.3079    0.16415      20.26          0     1.3257     9.4082 
2012 06 01 00:00:06.9317 0.05001      28   -0.20466    -1.2684    0.13417      20.27          0     1.2848     9.1659 
2012 06 01 00:00:06.9824 0.05073      28   -0.23335      -1.24   0.093306      20.27          0     1.2618     10.658 
2012 06 01 00:00:07.0317 0.04927      28   -0.28955    -1.2769    0.10221      20.28          0     1.3093     12.776 
2012 06 01 00:00:07.0817    0.05      28   -0.29487    -1.2628    0.17202      20.29          0     1.2968     13.143 
2012 06 01 00:00:07.1317 0.05001      28   -0.21521    -1.2629    0.21391      20.32          0     1.2811     9.6708 
2012 06 01 00:00:07.1817 0.05001      28   -0.20045    -1.2369     0.2241      20.29          0      1.253     9.2055 
2012 06 01 00:00:07.2324 0.05072      28   -0.19447    -1.2865    0.22456      20.37          0     1.3011     8.5959 
2012 06 01 00:00:07.2817 0.04928      28   -0.21619    -1.2046    0.21352      20.42          0     1.2239     10.175 
2012 06 01 00:00:07.3317    0.05      28   -0.22532    -1.1995    0.23328      20.45          0     1.2205     10.639 
2012 06 01 00:00:07.3817 0.05001      28   -0.21737    -1.2043    0.26351      20.44          0     1.2238     10.232 
2012 06 01 00:00:07.4317    0.05      28   -0.25287    -1.2067    0.24268      20.44          0      1.233     11.835 
2012 06 01 00:00:07.4841 0.05238      28   -0.28813    -1.2093    0.21185      20.42          0     1.2431     13.402 
2012 06 01 00:00:07.5318 0.04776      28   -0.22898    -1.1858    0.23311      20.41          0     1.2077     10.929 
2012 06 01 00:00:07.5817  0.0499      28   -0.31375    -1.1136    0.21065      20.39          0      1.157     15.734 
2012 06 01 00:00:07.6317    0.05      28   -0.31761     -1.158    0.26085       20.4          0     1.2007     15.338 
2012 06 01 00:00:07.6817 0.05001      28   -0.31442    -1.1715    0.28102       20.3          0      1.213     15.024 
2012 06 01 00:00:07.7317    0.05      28   -0.25452    -1.2063    0.31266      20.24          0     1.2329     11.914 
2012 06 01 00:00:07.7818 0.05007      28   -0.27314    -1.2767    0.35267      20.25          0     1.3056     12.076 
2012 06 01 00:00:07.8317  0.0499      28   -0.27952    -1.2496    0.31234      20.24          0     1.2805     12.608 
2012 06 01 00:00:07.8817 0.05001      28   -0.31088    -1.2659    0.27169      20.25          0     1.3035     13.798 
2012 06 01 00:00:07.9317 0.04999      28    -0.3491    -1.2549     0.2107      20.37          0     1.3025     15.546 
2012 06 01 00:00:07.9817 0.05002      28   -0.36802    -1.2091    0.17996      20.39          0     1.2639     16.929 
2012 06 01 00:00:08.0317 0.04999      28   -0.34571    -1.2104    0.18049      20.36          0     1.2588      15.94 
2012 06 01 00:00:08.0817 0.05001      28   -0.36366     -1.223    0.15014      20.37          0     1.2759      16.56 
2012 06 01 00:00:08.1317 0.04999      28   -0.37778    -1.2265    0.16983      20.33          0     1.2834      17.12 
2012 06 01 00:00:08.1817 0.05001      28    -0.3694    -1.1734    0.13969      20.36          0     1.2301     17.475 
2012 06 01 00:00:08.2317 0.05001      28   -0.29199    -1.1602    0.12143      20.36          0     1.1964     14.126 
2012 06 01 00:00:08.2817    0.05      28   -0.32615    -1.1403    0.10049      20.38          0      1.186     15.961 
2012 06 01 00:00:08.3317 0.04999      28   -0.32055    -1.0511    0.09006      20.37          0     1.0989      16.96 
2012 06 01 00:00:08.3817 0.05001      28   -0.30942    -1.0694    0.14045      20.31          0     1.1133     16.136 
2012 06 01 00:00:08.4317    0.05      28    -0.2553      -1.09     0.2619      20.23          0     1.1195     13.182 
2012 06 01 00:00:08.4817 0.05002      28    -0.1566    -1.0552    0.34403      20.24          0     1.0668     8.4413 
2012 06 01 00:00:08.5318 0.05001      28  -0.053685    -1.0569    0.34647      20.24          0     1.0583     2.9078 
2012 06 01 00:00:08.5818 0.05005      28  -0.059156    -1.0654     0.3664      20.25          0     1.0671     3.1779 
2012 06 01 00:00:08.6318    0.05      28    -0.0455    -1.0618     0.3667      20.25          0     1.0628     2.4537 
2012 06 01 00:00:08.6818 0.05002      28   -0.03637    -1.0669    0.34695      20.26          0     1.0675     1.9524 
2012 06 01 00:00:08.7317 0.04992      28  -0.048178    -1.1064    0.36692      20.27          0     1.1075     2.4933 
2012 06 01 00:00:08.7818 0.05001      28  -0.095091    -1.1258    0.40595       20.3          0     1.1298      4.828 
2012 06 01 00:00:08.8342 0.05244      28   -0.12937    -1.1866    0.37551      20.47          0     1.1937     6.2221 
2012 06 01 00:00:08.8818 0.04755      28   -0.23571    -1.1714     0.3629      20.73          0     1.1948     11.378 
2012 06 01 00:00:08.9317 0.04998      28   -0.23524    -1.1715    0.34291      20.81          0     1.1949     11.354 
2012 06 01 00:00:08.9818 0.05002      28  -0.025479    -1.2466    0.37834      20.78          0     1.2469     1.1709 
2012 06 01 00:00:09.0317 0.04999      28   0.059919    -1.2963    0.43068       20.8          0     1.2977     357.35 
2012 06 01 00:00:09.0818 0.05001      28   0.039531    -1.3281   0.080299      20.87          0     1.3287      358.3 
2012 06 01 00:00:09.1317 0.04999      28  -0.016429    -1.2717  -0.061419      20.79          0     1.2718    0.74015 
2012 06 01 00:00:09.1818 0.05001      28  -0.043351    -1.3245   -0.19176      20.68          0     1.3252     1.8747 
2012 06 01 00:00:09.2318    0.05      28  -0.061534    -1.3369   -0.21212      20.54          0     1.3383     2.6353 
2012 06 01 00:00:09.2818 0.05001      28  -0.081128    -1.2556   -0.31312      20.73          0     1.2582     3.6969 
2012 06 01 00:00:09.3318 0.04999      28  -0.091475    -1.1921   -0.28376      20.77          0     1.1956     4.3879 
2012 06 01 00:00:09.3818 0.05001      28  -0.091316    -1.1695   -0.23388      20.68          0      1.173     4.4647 
2012 06 01 00:00:09.4318    0.05      28  -0.068725    -1.1355   -0.34359      20.65          0     1.1376     3.4634 
2012 06 01 00:00:09.4818 0.05001      28   -0.06349    -1.1269   -0.35353      20.66          0     1.1287     3.2246 
2012 06 01 00:00:09.5318 0.04999      28  -0.087616    -1.1478   -0.33396      20.94          0     1.1511     4.3652 
2012 06 01 00:00:09.5818 0.05001      28   -0.03783    -1.1192   -0.28295      20.66          0     1.1198      1.936 
2012 06 01 00:00:09.6318 0.05007      28   0.034148    -1.1726    -0.2409      20.57          0     1.1731     358.33 
2012 06 01 00:00:09.6819 0.05001      28   0.066573    -1.2373   -0.25973      20.49          0     1.2391     356.92 
2012 06 01 00:00:09.7319    0.05      28    0.10899    -1.2848   -0.27844      20.52          0     1.2894     355.15 
2012 06 01 00:00:09.7818    0.05      28    0.10266    -1.3157    -0.2784      20.57          0     1.3197     355.54 
2012 06 01 00:00:09.8342 0.05239      28   0.047323    -1.3302    -0.2496      20.79          0      1.331     357.96 
2012 06 01 00:00:09.8818 0.04755      28   0.042211    -1.2581   -0.23017      20.75          0     1.2588     358.08 
2012 06 01 00:00:09.9318 0.04999      28    0.03477    -1.3115   -0.24001      20.68          0     1.3119     358.48 
2012 06 01 00:00:09.9818 0.05001      28   0.011588    -1.3326   -0.26043      20.65          0     1.3326      359.5 
