|--- date time --------|  deltaT       len data...
2012 06 01 00:00:00.0531       0      28       0.77      -1.25      -0.02      21.31          0     1.4681     328.37 
2012 06 01 00:00:00.0814 0.02829      28       0.74      -1.25       0.15      21.42          0     1.4526     329.37 
2012 06 01 00:00:00.1314    0.05      28       0.92      -1.23       0.18      21.35          0      1.536      323.2 
2012 06 01 00:00:00.1821 0.05071      28       1.04      -1.25        0.2      21.15          0     1.6261     320.24 
2012 06 01 00:00:00.2314 0.04929      28       0.93      -1.18       0.14      20.68          0     1.5024     321.76 
2012 06 01 00:00:00.2814    0.05      28        0.9      -1.19       0.23      20.83          0      1.492      322.9 
2012 06 01 00:00:00.3314 0.05001      28       0.78      -1.24        0.1      20.56          0     1.4649     327.83 
2012 06 01 00:00:00.3814    0.05      28        0.8       -1.3       0.09      20.54          0     1.5264     328.39 
2012 06 01 00:00:00.4321 0.05071      28       0.66      -1.29       0.09      20.52          0      1.449      332.9 
2012 06 01 00:00:00.4814 0.04929      28       0.72       -1.3       0.08      20.56          0     1.4861     331.02 
2012 06 01 00:00:00.5314 0.05002      28        0.7      -1.31       0.12      20.53          0     1.4853     331.88 
2012 06 01 00:00:00.5814 0.05002      28       0.68      -1.24        0.1      20.49          0     1.4142     331.26 
2012 06 01 00:00:00.6314    0.05      28       0.73      -1.29       0.18      20.51          0     1.4822     330.49 
2012 06 01 00:00:00.6853 0.05381      28       0.67      -1.43       0.21      20.53          0     1.5792      334.9 
2012 06 01 00:00:00.7315  0.0462      28       0.54      -1.42       0.24      20.54          0     1.5192     339.18 
2012 06 01 00:00:00.7814 0.04997      28       0.58      -1.45       0.27      20.52          0     1.5617      338.2 
2012 06 01 00:00:00.8314    0.05      28       0.58      -1.37       0.29      20.48          0     1.4877     337.05 
2012 06 01 00:00:00.8814    0.05      28       0.58      -1.37       0.29      20.44          0     1.4877     337.05 
2012 06 01 00:00:00.9324 0.05098      28       0.51      -1.35       0.33      20.34          0     1.4431      339.3 
2012 06 01 00:00:00.9814 0.04903      28       0.51      -1.41       0.28      20.47          0     1.4994     340.11 
2012 06 01 00:00:01.0314 0.04999      28       0.47      -1.42       0.29      20.49          0     1.4958     341.69 
2012 06 01 00:00:01.0814 0.05001      28       0.49      -1.46       0.23      20.52          0       1.54     341.45 
2012 06 01 00:00:01.1314 0.05001      28       0.52      -1.46       0.19      20.51          0     1.5498      340.4 
2012 06 01 00:00:01.1822 0.05072      28       0.57      -1.35       0.11      20.66          0     1.4654     337.11 
2012 06 01 00:00:01.2314 0.04927      28       0.48      -1.36       0.22      20.55          0     1.4422     340.56 
2012 06 01 00:00:01.2814    0.05      28       0.54      -1.34       0.17      20.53          0     1.4447     338.05 
2012 06 01 00:00:01.3315 0.05001      28       0.58      -1.28       0.09      20.67          0     1.4053     335.62 
2012 06 01 00:00:01.3815    0.05      28       0.58      -1.33       0.11      20.56          0      1.451     336.44 
2012 06 01 00:00:01.4324 0.05095      28       0.56      -1.32       0.08      20.49          0     1.4339     337.01 
2012 06 01 00:00:01.4815 0.04905      28       0.62      -1.21       0.19      20.47          0     1.3596     332.87 
2012 06 01 00:00:01.5315    0.05      28       0.64      -1.21        0.2       20.5          0     1.3688     332.12 
2012 06 01 00:00:01.5815 0.05004      28       0.57      -1.29       0.24      20.48          0     1.4103     336.16 
2012 06 01 00:00:01.6315 0.04999      28       0.44      -1.27       0.25      20.49          0     1.3441     340.89 
2012 06 01 00:00:01.6853 0.05381      28       0.43      -1.31       0.26       20.5          0     1.3788     341.83 
2012 06 01 00:00:01.7316  0.0463      28       0.43      -1.27       0.24      20.53          0     1.3408     341.29 
2012 06 01 00:00:01.7816 0.05002      28       0.46      -1.28       0.27       20.5          0     1.3601     340.23 
2012 06 01 00:00:01.8316 0.04996      28       0.48      -1.28       0.27       20.5          0      1.367     339.44 
2012 06 01 00:00:01.8815 0.04991      28       0.48      -1.29       0.29      20.49          0     1.3764     339.59 
2012 06 01 00:00:01.9323 0.05083      28       0.46      -1.28       0.29      20.42          0     1.3601     340.23 
2012 06 01 00:00:01.9815 0.04917      28       0.44      -1.28       0.29      20.39          0     1.3535     341.03 
2012 06 01 00:00:02.0315 0.05001      28       0.52      -1.28       0.26      20.47          0     1.3816     337.89 
2012 06 01 00:00:02.0815 0.05006      28       0.56      -1.26       0.29      20.46          0     1.3788     336.04 
2012 06 01 00:00:02.1315 0.04996      28        0.6      -1.23       0.26      20.38          0     1.3685        334 
2012 06 01 00:00:02.1815 0.04998      28       0.62      -1.21       0.26       20.3          0     1.3596     332.87 
2012 06 01 00:00:02.2315 0.05002      28       0.63       -1.2       0.26      20.27          0     1.3553      332.3 
2012 06 01 00:00:02.2815 0.04999      28       0.61      -1.22       0.28      20.36          0      1.364     333.43 
2012 06 01 00:00:02.3315 0.05005      28       0.67      -1.22       0.28      20.44          0     1.3919     331.23 
2012 06 01 00:00:02.3815 0.04999      28       0.64      -1.23       0.29      20.51          0     1.3865     332.51 
2012 06 01 00:00:02.4316 0.05012      28       0.65      -1.23        0.3      20.53          0     1.3912     332.15 
2012 06 01 00:00:02.4817 0.05008      28       0.71      -1.26       0.27      20.55          0     1.4463      330.6 
2012 06 01 00:00:02.5317 0.04993      28       0.68      -1.27        0.2      20.53          0     1.4406     331.83 
2012 06 01 00:00:02.5816 0.04998      28       0.67      -1.29       0.18      20.54          0     1.4536     332.55 
2012 06 01 00:00:02.6317 0.05007      28       0.73      -1.25       0.23      20.42          0     1.4475     329.72 
2012 06 01 00:00:02.6816 0.04991      28       0.73      -1.27       0.21      20.43          0     1.4649     330.11 
2012 06 01 00:00:02.7316 0.04999      28       0.69      -1.31       0.23      20.41          0     1.4806     332.22 
2012 06 01 00:00:02.7816 0.05002      28       0.68      -1.35       0.18      20.45          0     1.5116     333.27 
2012 06 01 00:00:02.8315 0.04992      28       0.64      -1.32       0.21      20.44          0      1.467     334.13 
2012 06 01 00:00:02.8815 0.04999      28       0.64      -1.31       0.21       20.4          0      1.458     333.96 
2012 06 01 00:00:02.9315 0.04999      28       0.58      -1.27       0.24      20.41          0     1.3962     335.45 
2012 06 01 00:00:02.9815 0.04999      28       0.55       -1.3       0.15      20.44          0     1.4116     337.07 
2012 06 01 00:00:03.0315 0.04999      28       0.55      -1.32       0.14      20.43          0       1.43     337.38 
2012 06 01 00:00:03.0815    0.05      28       0.49      -1.32       0.14      20.44          0      1.408     339.63 
2012 06 01 00:00:03.1315 0.05001      28       0.48       -1.3       0.17      20.44          0     1.3858     339.73 
2012 06 01 00:00:03.1815    0.05      28       0.48      -1.31       0.14      20.77          0     1.3952     339.88 
2012 06 01 00:00:03.2315    0.05      28       0.52      -1.31       0.21      21.23          0     1.4094     338.35 
2012 06 01 00:00:03.2815    0.05      28       0.63       -1.3       0.16      21.11          0     1.4446     334.14 
2012 06 01 00:00:03.3315 0.05001      28       0.64      -1.32       0.19      21.15          0      1.467     334.13 
2012 06 01 00:00:03.3815 0.05001      28       0.59      -1.31       0.09      21.48          0     1.4367     335.75 
2012 06 01 00:00:03.4321 0.05052      28       0.65      -1.42       0.04       21.4          0     1.5617      335.4 
2012 06 01 00:00:03.4819  0.0498      28       0.69      -1.35       0.09      21.14          0     1.5161     332.93 
2012 06 01 00:00:03.5315 0.04968      28       0.63      -1.35       0.06       21.2          0     1.4898     334.98 
2012 06 01 00:00:03.5815    0.05      28       0.52      -1.29      -0.04      21.29          0     1.3909     338.05 
2012 06 01 00:00:03.6315 0.05001      28       0.47      -1.19      -0.01      21.45          0     1.2795     338.45 
2012 06 01 00:00:03.6830 0.05151      28       0.45       -1.1      -0.05      21.41          0     1.1885     337.75 
2012 06 01 00:00:03.7316 0.04852      28       0.32      -1.14      -0.18      21.55          0     1.1841     344.32 
2012 06 01 00:00:03.7816 0.05007      28       0.46      -1.18      -0.15      21.58          0     1.2665      338.7 
2012 06 01 00:00:03.8316 0.04992      28       0.58      -1.22      -0.08      21.28          0     1.3509     334.57 
2012 06 01 00:00:03.8816 0.04999      28       0.64      -1.19       0.04      21.46          0     1.3512     331.73 
2012 06 01 00:00:03.9315 0.04999      28       0.77      -1.23      -0.04      21.58          0     1.4511     327.95 
2012 06 01 00:00:03.9816 0.05001      28       0.69      -1.26      -0.14      21.72          0     1.4366     331.29 
2012 06 01 00:00:04.0316    0.05      28       0.55      -1.22      -0.13      21.72          0     1.3382     335.73 
2012 06 01 00:00:04.0816 0.04999      28       0.54      -1.18      -0.12      21.61          0     1.2977     335.41 
2012 06 01 00:00:04.1316    0.05      28       0.64       -1.2      -0.08      21.23          0       1.36     331.93 
2012 06 01 00:00:04.1816    0.05      28       0.64      -1.21      -0.04      21.24          0     1.3688     332.12 
2012 06 01 00:00:04.2316 0.05001      28       0.74      -1.23      -0.04      21.25          0     1.4354     328.97 
2012 06 01 00:00:04.2816 0.04999      28       0.74      -1.17      -0.01      20.99          0     1.3844     327.69 
2012 06 01 00:00:04.3316    0.05      28       0.69      -1.12       0.09      20.57          0     1.3155     328.36 
2012 06 01 00:00:04.3816 0.05001      28       0.86      -1.14       0.18      20.42          0      1.428     322.97 
2012 06 01 00:00:04.4316    0.05      28       0.84      -1.16       0.16      20.46          0     1.4322     324.09 
2012 06 01 00:00:04.4816 0.05001      28       0.69      -1.14       0.14       20.5          0     1.3326     328.82 
2012 06 01 00:00:04.5316 0.04999      28       0.64      -1.06       0.16      20.49          0     1.2382     328.88 
2012 06 01 00:00:04.5816 0.05001      28       0.67      -1.09       0.05      20.49          0     1.2795     328.42 
2012 06 01 00:00:04.6316 0.05001      28       0.64      -1.06       0.07      20.46          0     1.2382     328.88 
2012 06 01 00:00:04.6816 0.05001      28       0.62      -1.09       0.03      20.49          0      1.254     330.37 
2012 06 01 00:00:04.7316    0.05      28       0.68      -1.06      -0.01      20.44          0     1.2594     327.32 
2012 06 01 00:00:04.7816 0.05001      28       0.72      -1.01      -0.03      20.48          0     1.2404     324.52 
2012 06 01 00:00:04.8316 0.04999      28       0.71      -1.11       0.01      20.51          0     1.3176      327.4 
2012 06 01 00:00:04.8816    0.05      28       0.57      -1.06      -0.04      20.49          0     1.2035     331.73 
2012 06 01 00:00:04.9316    0.05      28       0.47      -1.16      -0.07      20.41          0     1.2516     337.94 
2012 06 01 00:00:04.9816 0.05002      28       0.49      -1.22      -0.07       20.4          0     1.3147     338.12 
2012 06 01 00:00:05.0316 0.04999      28        0.5      -1.23      -0.05      20.45          0     1.3277     337.88 
2012 06 01 00:00:05.0816    0.05      28       0.47      -1.19       0.02      20.48          0     1.2795     338.45 
2012 06 01 00:00:05.1316 0.05001      28       0.49      -1.09       0.03      20.48          0     1.1951     335.79 
2012 06 01 00:00:05.1816    0.05      28       0.51       -1.1       0.12       20.5          0     1.2125     335.13 
2012 06 01 00:00:05.2316 0.05001      28        0.5      -1.13       0.14      20.53          0     1.2357     336.13 
2012 06 01 00:00:05.2816 0.04999      28        0.5      -1.17       0.13      20.53          0     1.2724     336.86 
2012 06 01 00:00:05.3316 0.04999      28       0.55      -1.22       0.09      20.56          0     1.3382     335.73 
2012 06 01 00:00:05.3816 0.05001      28       0.56      -1.22       0.05      20.77          0     1.3424     335.34 
2012 06 01 00:00:05.4316    0.05      28       0.46      -1.19      -0.02      20.91          0     1.2758     338.87 
2012 06 01 00:00:05.4816 0.05001      28       0.36      -1.24      -0.06      21.19          0     1.2912     343.81 
2012 06 01 00:00:05.5316    0.05      28       0.41      -1.26      -0.17      21.39          0      1.325     341.98 
2012 06 01 00:00:05.5816    0.05      28       0.32      -1.26      -0.21      21.68          0        1.3     345.75 
2012 06 01 00:00:05.6316    0.05      28       0.38      -1.24      -0.31      21.73          0     1.2969     342.96 
2012 06 01 00:00:05.6843 0.05268      28       0.39       -1.3      -0.26      21.67          0     1.3572      343.3 
2012 06 01 00:00:05.7317 0.04735      28       0.37      -1.25      -0.24      21.34          0     1.3036     343.51 
2012 06 01 00:00:05.7817 0.05006      28       0.37      -1.25      -0.23      21.19          0     1.3036     343.51 
2012 06 01 00:00:05.8316 0.04991      28       0.32      -1.21      -0.08      20.58          0     1.2516     345.19 
2012 06 01 00:00:05.8816 0.04999      28       0.37      -1.27      -0.03      20.49          0     1.3228     343.76 
2012 06 01 00:00:05.9316    0.05      28       0.34       -1.2      -0.12      20.62          0     1.2472     344.18 
2012 06 01 00:00:05.9826 0.05099      28       0.33      -1.21      -0.15      20.66          0     1.2542     344.74 
2012 06 01 00:00:06.0316 0.04902      28       0.29      -1.22      -0.22      20.77          0      1.254     346.63 
2012 06 01 00:00:06.0816    0.05      28       0.33      -1.23      -0.24      20.89          0     1.2735     344.98 
2012 06 01 00:00:06.1316    0.05      28       0.37      -1.33      -0.19      20.85          0     1.3805     344.45 
2012 06 01 00:00:06.1816 0.05001      28       0.42      -1.26      -0.09      20.44          0     1.3282     341.57 
2012 06 01 00:00:06.2324 0.05072      28       0.39       -1.2      -0.03      20.37          0     1.2618        342 
2012 06 01 00:00:06.2816 0.04928      28       0.41      -1.14       0.14      20.34          0     1.2115     340.22 
2012 06 01 00:00:06.3316 0.04999      28       0.46      -1.16        0.1      20.39          0     1.2479     338.37 
2012 06 01 00:00:06.3816 0.05001      28       0.43      -1.19      -0.04       20.4          0     1.2653     340.13 
2012 06 01 00:00:06.4316    0.05      28       0.45       -1.2      -0.09       20.4          0     1.2816     339.44 
2012 06 01 00:00:06.4824 0.05071      28       0.43      -1.22      -0.13      20.38          0     1.2936     340.58 
2012 06 01 00:00:06.5316 0.04929      28       0.44      -1.22      -0.01      20.39          0     1.2969     340.17 
2012 06 01 00:00:06.5817    0.05      28       0.53       -1.2       0.05      20.37          0     1.3118     336.17 
2012 06 01 00:00:06.6317    0.05      28       0.51      -1.24       0.07      20.36          0     1.3408     337.64 
2012 06 01 00:00:06.6817    0.05      28       0.48      -1.17       0.08      20.35          0     1.2646     337.69 
2012 06 01 00:00:06.7326 0.05095      28       0.49      -1.21       0.09      20.31          0     1.3055     337.95 
2012 06 01 00:00:06.7817 0.04905      28       0.44      -1.27       0.15      20.28          0     1.3441     340.89 
2012 06 01 00:00:06.8317    0.05      28       0.45      -1.25       0.12      20.28          0     1.3285      340.2 
2012 06 01 00:00:06.8817 0.04999      28       0.47      -1.24       0.16      20.26          0     1.3261     339.24 
2012 06 01 00:00:06.9317 0.05001      28       0.46       -1.2       0.13      20.27          0     1.2851     339.03 
2012 06 01 00:00:06.9824 0.05073      28       0.42      -1.19       0.09      20.27          0     1.2619     340.56 
2012 06 01 00:00:07.0317 0.04927      28       0.39      -1.25        0.1      20.28          0     1.3094     342.67 
2012 06 01 00:00:07.0817    0.05      28       0.38      -1.24       0.17      20.29          0     1.2969     342.96 
2012 06 01 00:00:07.1317 0.05001      28       0.45       -1.2       0.21      20.32          0     1.2816     339.44 
2012 06 01 00:00:07.1817 0.05001      28       0.45      -1.17       0.22      20.29          0     1.2536     338.96 
2012 06 01 00:00:07.2324 0.05072      28       0.48      -1.21       0.22      20.37          0     1.3017     338.36 
2012 06 01 00:00:07.2817 0.04928      28       0.42      -1.15       0.21      20.42          0     1.2243     339.94 
2012 06 01 00:00:07.3317    0.05      28       0.41      -1.15       0.23      20.45          0     1.2209     340.38 
2012 06 01 00:00:07.3817 0.05001      28       0.42      -1.15       0.26      20.44          0     1.2243     339.94 
2012 06 01 00:00:07.4317    0.05      28       0.39      -1.17       0.24      20.44          0     1.2333     341.57 
2012 06 01 00:00:07.4841 0.05238      28       0.36      -1.19       0.21      20.42          0     1.2433     343.17 
2012 06 01 00:00:07.5318 0.04776      28        0.4      -1.14       0.23      20.41          0     1.2081     340.67 
2012 06 01 00:00:07.5817  0.0499      28       0.29      -1.12       0.21      20.39          0     1.1569     345.48 
2012 06 01 00:00:07.6317    0.05      28       0.31      -1.16       0.26       20.4          0     1.2007     345.04 
2012 06 01 00:00:07.6817 0.05001      28       0.32      -1.17       0.28       20.3          0      1.213      344.7 
2012 06 01 00:00:07.7317    0.05      28       0.39      -1.17       0.31      20.24          0     1.2333     341.57 
2012 06 01 00:00:07.7818 0.05007      28       0.41      -1.24       0.35      20.25          0      1.306      341.7 
2012 06 01 00:00:07.8317  0.0499      28       0.39      -1.22       0.31      20.24          0     1.2808     342.27 
2012 06 01 00:00:07.8817 0.05001      28       0.37      -1.25       0.27      20.25          0     1.3036     343.51 
2012 06 01 00:00:07.9317 0.04999      28       0.33      -1.26       0.21      20.37          0     1.3025     345.32 
2012 06 01 00:00:07.9817 0.05002      28       0.29      -1.23       0.18      20.39          0     1.2637     346.73 
2012 06 01 00:00:08.0317 0.04999      28       0.31      -1.22       0.18      20.36          0     1.2588     345.74 
2012 06 01 00:00:08.0817 0.05001      28        0.3      -1.24       0.15      20.37          0     1.2758      346.4 
2012 06 01 00:00:08.1317 0.04999      28       0.29      -1.25       0.17      20.33          0     1.2832     346.94 
2012 06 01 00:00:08.1817 0.05001      28       0.27       -1.2       0.14      20.36          0       1.23     347.32 
2012 06 01 00:00:08.2317 0.05001      28       0.33      -1.15       0.12      20.36          0     1.1964     343.99 
2012 06 01 00:00:08.2817    0.05      28       0.29      -1.15        0.1      20.38          0      1.186     345.85 
2012 06 01 00:00:08.3317 0.04999      28       0.25      -1.07       0.09      20.37          0     1.0988     346.85 
2012 06 01 00:00:08.3817 0.05001      28       0.27      -1.08       0.14      20.31          0     1.1132     345.96 
2012 06 01 00:00:08.4317    0.05      28       0.33      -1.07       0.26      20.23          0     1.1197     342.86 
2012 06 01 00:00:08.4817 0.05002      28        0.4      -0.99       0.34      20.24          0     1.0678        338 
2012 06 01 00:00:08.5318 0.05001      28       0.49      -0.94       0.34      20.24          0       1.06     332.47 
2012 06 01 00:00:08.5818 0.05005      28       0.49      -0.95       0.36      20.25          0     1.0689     332.72 
2012 06 01 00:00:08.6318    0.05      28        0.5      -0.94       0.36      20.25          0     1.0647     331.99 
2012 06 01 00:00:08.6818 0.05002      28       0.51      -0.94       0.34      20.26          0     1.0694     331.52 
2012 06 01 00:00:08.7317 0.04992      28       0.52      -0.98       0.36      20.27          0     1.1094     332.05 
2012 06 01 00:00:08.7818 0.05001      28       0.49      -1.02        0.4       20.3          0     1.1316     334.34 
2012 06 01 00:00:08.8342 0.05244      28       0.49      -1.09       0.37      20.47          0     1.1951     335.79 
2012 06 01 00:00:08.8818 0.04755      28       0.39      -1.13       0.36      20.73          0     1.1954     340.96 
2012 06 01 00:00:08.9317 0.04998      28       0.39      -1.13       0.34      20.81          0     1.1954     340.96 
2012 06 01 00:00:08.9818 0.05002      28       0.61      -1.09       0.37      20.78          0     1.2491     330.77 
2012 06 01 00:00:09.0317 0.04999      28       0.71      -1.09       0.42       20.8          0     1.3008     326.92 
2012 06 01 00:00:09.0818 0.05001      28        0.7      -1.13       0.07      20.87          0     1.3292     328.22 
2012 06 01 00:00:09.1317 0.04999      28       0.62      -1.11      -0.07      20.79          0     1.2714     330.81 
2012 06 01 00:00:09.1818 0.05001      28       0.62      -1.17       -0.2      20.68          0     1.3241     332.08 
2012 06 01 00:00:09.2318    0.05      28       0.61      -1.19      -0.22      20.54          0     1.3372     332.86 
2012 06 01 00:00:09.2818 0.05001      28       0.55      -1.13      -0.32      20.73          0     1.2567     334.05 
2012 06 01 00:00:09.3318 0.04999      28       0.51      -1.08      -0.29      20.77          0     1.1944     334.72 
2012 06 01 00:00:09.3818 0.05001      28        0.5      -1.06      -0.24      20.68          0      1.172     334.75 
2012 06 01 00:00:09.4318    0.05      28        0.5      -1.02      -0.35      20.65          0      1.136     333.89 
2012 06 01 00:00:09.4818 0.05001      28        0.5      -1.01      -0.36      20.66          0      1.127     333.66 
2012 06 01 00:00:09.5318 0.04999      28       0.49      -1.04      -0.34      20.94          0     1.1497     334.77 
2012 06 01 00:00:09.5818 0.05001      28       0.52      -0.99      -0.29      20.66          0     1.1183     332.29 
2012 06 01 00:00:09.6318 0.05007      28       0.61         -1      -0.25      20.57          0     1.1714     328.62 
2012 06 01 00:00:09.6819 0.05001      28       0.67      -1.04      -0.27      20.49          0     1.2371     327.21 
2012 06 01 00:00:09.7319    0.05      28       0.73      -1.06      -0.29      20.52          0     1.2871     325.45 
2012 06 01 00:00:09.7818    0.05      28       0.74      -1.09      -0.29      20.57          0     1.3175     325.83 
2012 06 01 00:00:09.8342 0.05239      28        0.7      -1.13      -0.26      20.79          0     1.3292     328.22 
2012 06 01 00:00:09.8818 0.04755      28       0.66      -1.07      -0.24      20.75          0     1.2572     328.33 
2012 06 01 00:00:09.9318 0.04999      28       0.68      -1.12      -0.25      20.68          0     1.3103     328.74 
2012 06 01 00:00:09.9818 0.05001      28       0.67      -1.15      -0.27      20.65          0     1.3309     329.77 
