|--- date time --------|  deltaT       len data...
2012 06 01 00:00:00.0555       0      32    0.63795   0.092548     1.4354     20.571          0          0    0.64463     261.75 
2012 06 01 00:00:00.0755 0.01997      32     0.7183    0.10764      1.418     20.493          0          0    0.72632     261.48 
2012 06 01 00:00:00.1255    0.05      32    0.72735   0.059478     1.3858     20.481          0          0    0.72978     265.33 
2012 06 01 00:00:00.1755 0.05001      32    0.69401  -0.016063     1.4239     20.547          0          0    0.69419     271.33 
2012 06 01 00:00:00.2255    0.05      32    0.65236  -0.057613     1.4568     20.571          0          0     0.6549     275.05 
2012 06 01 00:00:00.2755    0.05      32    0.66812  -0.015554     1.4981     20.665          0          0     0.6683     271.33 
2012 06 01 00:00:00.3255    0.05      32    0.69089    0.01544     1.4521     20.698          0          0    0.69106     268.72 
2012 06 01 00:00:00.3755    0.05      32    0.76589   0.010841     1.5342     20.508          0          0    0.76597     269.19 
2012 06 01 00:00:00.4255 0.05001      32    0.75725  -0.047352     1.5662      20.25          0          0    0.75873     273.58 
2012 06 01 00:00:00.4755    0.05      32    0.76883  -0.049465     1.5455     20.109          0          0    0.77042     273.68 
2012 06 01 00:00:00.5255    0.05      32    0.69063  -0.017369     1.5653      20.08          0          0    0.69084     271.44 
2012 06 01 00:00:00.5755 0.05003      32    0.62612   0.065737     1.5443     19.955          0          0    0.62956     264.01 
2012 06 01 00:00:00.6255 0.04996      32    0.66268    0.10129     1.4627     19.914          0          0    0.67037     261.31 
2012 06 01 00:00:00.6755    0.05      32    0.73494   0.066591     1.4301      20.02          0          0    0.73795     264.82 
2012 06 01 00:00:00.7255    0.05      32    0.72088   0.061122     1.4205      19.89          0          0    0.72347     265.15 
2012 06 01 00:00:00.7755    0.05      32    0.66479  -0.018003     1.4201     19.795          0          0    0.66504     271.55 
2012 06 01 00:00:00.8255    0.05      32    0.55457  -0.016738     1.4294     19.754          0          0    0.55482     271.73 
2012 06 01 00:00:00.8755 0.05002      32    0.44634 -0.0052648     1.4954      19.76          0          0    0.44637     270.68 
2012 06 01 00:00:00.9255    0.05      32     0.4846   0.039156     1.5016     19.738          0          0    0.48618     265.38 
2012 06 01 00:00:00.9755    0.05      32    0.48076    0.10288     1.4632     19.725          0          0    0.49164     257.92 
2012 06 01 00:00:01.0255 0.05001      32    0.50059     0.1704     1.4988     19.841          0          0     0.5288      251.2 
2012 06 01 00:00:01.0755    0.05      32    0.54296    0.22265     1.5737     19.793          0          0    0.58684      247.7 
2012 06 01 00:00:01.1255 0.05001      32    0.50963    0.29117      1.636     19.689          0          0    0.58694     240.26 
2012 06 01 00:00:01.1755    0.05      32    0.41874    0.30451     1.7024     19.725          0          0    0.51776     233.97 
2012 06 01 00:00:01.2255    0.05      32    0.39438    0.32807     1.6715     19.784          0          0      0.513     230.24 
2012 06 01 00:00:01.2755    0.05      32    0.39208    0.38581     1.6395     19.834          0          0    0.55007     225.46 
2012 06 01 00:00:01.3255    0.05      32    0.36051    0.32975     1.7629     19.766          0          0    0.48857     227.55 
2012 06 01 00:00:01.3755    0.05      32    0.31827    0.22207     1.8027     19.764          0          0    0.38808      235.1 
2012 06 01 00:00:01.4255 0.05001      32    0.31738    0.17825     1.8107      19.75          0          0    0.36401     240.68 
2012 06 01 00:00:01.4755 0.04999      32    0.38738   0.032013     1.7627     20.044          0          0     0.3887     265.28 
2012 06 01 00:00:01.5255    0.05      32    0.35512   0.047333     1.7832     19.986          0          0    0.35826     262.41 
2012 06 01 00:00:01.5755 0.04999      32     0.3756   0.063005     1.7786     19.801          0          0    0.38084     260.48 
2012 06 01 00:00:01.6255    0.05      32     0.2908    0.18534     1.7035     19.774          0          0    0.34484     237.49 
2012 06 01 00:00:01.6755 0.05001      32    0.32137     0.2249     1.6365      19.73          0          0    0.39225     235.02 
2012 06 01 00:00:01.7256 0.05006      32    0.33528    0.20524     1.6349     19.721          0          0    0.39311     238.53 
2012 06 01 00:00:01.7756 0.05002      32     0.3612    0.18328     1.6218     19.762          0          0    0.40504      243.1 
2012 06 01 00:00:01.8256 0.05001      32    0.35863    0.17787     1.6069     19.778          0          0    0.40031     243.62 
2012 06 01 00:00:01.8756 0.04992      32    0.32496    0.18495     1.6382     19.784          0          0     0.3739     240.35 
2012 06 01 00:00:01.9256 0.05001      32      0.298    0.19393     1.6291     19.805          0          0    0.35554     236.94 
2012 06 01 00:00:01.9756 0.04999      32    0.30219    0.23158     1.6208     19.738          0          0    0.38072     232.54 
2012 06 01 00:00:02.0256 0.05001      32    0.30814    0.23455     1.5836     19.731          0          0    0.38725     232.72 
2012 06 01 00:00:02.0757  0.0501      32    0.27757    0.24769     1.5765     19.754          0          0    0.37202     228.26 
2012 06 01 00:00:02.1256 0.04991      32    0.28537    0.25983     1.5471     19.728          0          0    0.38593     227.68 
2012 06 01 00:00:02.1756    0.05      32    0.29576    0.22064     1.5138     19.749          0          0    0.36899     233.28 
2012 06 01 00:00:02.2256 0.05005      32    0.29446    0.21215     1.5158     19.769          0          0    0.36293     234.23 
2012 06 01 00:00:02.2756 0.04995      32    0.29051    0.22171     1.4905     19.738          0          0    0.36544     232.65 
2012 06 01 00:00:02.3256 0.05008      32    0.33885     0.2155     1.5494     19.764          0          0    0.40157     237.55 
2012 06 01 00:00:02.3756 0.04993      32    0.32545    0.23228     1.5492     19.771          0          0    0.39984     234.48 
2012 06 01 00:00:02.4256    0.05      32    0.32741    0.20155     1.5794      19.73          0          0    0.38447     238.38 
2012 06 01 00:00:02.4758 0.05023      32    0.45076    0.13318     1.5608     19.728          0          0    0.47002     253.54 
2012 06 01 00:00:02.5258 0.05001      32    0.48536    0.15968     1.6102     19.651          0          0    0.51095     251.79 
2012 06 01 00:00:02.5757 0.04987      32    0.46423    0.22058     1.6684     19.716          0          0    0.51397     244.59 
2012 06 01 00:00:02.6258 0.05014      32    0.54188    0.22511     1.6309      19.72          0          0    0.58678     247.44 
2012 06 01 00:00:02.6757 0.04988      32    0.58345    0.16615     1.6146     19.696          0          0    0.60665      254.1 
2012 06 01 00:00:02.7257 0.04997      32    0.57584     0.1724      1.611     19.701          0          0    0.60109     253.33 
2012 06 01 00:00:02.7759 0.05019      32    0.52683    0.18385     1.6346     19.713          0          0    0.55798     250.76 
2012 06 01 00:00:02.8257 0.04982      32    0.52709    0.17005      1.607     19.716          0          0    0.55384     252.12 
2012 06 01 00:00:02.8757 0.04997      32    0.50907    0.19929     1.5737     19.716          0          0    0.54669     248.62 
2012 06 01 00:00:02.9256 0.04999      32    0.46328    0.19189     1.6311     19.772          0          0    0.50144      247.5 
2012 06 01 00:00:02.9756 0.04996      32    0.52183    0.11224     1.6263     19.813          0          0    0.53376     257.86 
2012 06 01 00:00:03.0256 0.05002      32    0.53967   0.077977     1.6476      19.81          0          0    0.54528     261.78 
2012 06 01 00:00:03.0756 0.04999      32     0.5923    0.15207     1.7117     19.658          0          0    0.61151      255.6 
2012 06 01 00:00:03.1256 0.04999      32    0.60014    0.18414     1.6851      19.65          0          0    0.62776     252.94 
2012 06 01 00:00:03.1756    0.05      32    0.59992    0.14064     1.6518     19.815          0          0    0.61618     256.81 
2012 06 01 00:00:03.2256 0.05001      32    0.58215   0.015705     1.7279     20.315          0          0    0.58236     268.45 
2012 06 01 00:00:03.2758 0.05017      32    0.53044   0.015754     1.7101      20.16          0          0    0.53067      268.3 
2012 06 01 00:00:03.3256 0.04983      32     0.5384  -0.065958     1.6342     20.404          0          0    0.54242     276.98 
2012 06 01 00:00:03.3756    0.05      32    0.58018   -0.17111     1.6072     20.288          0          0    0.60489     286.43 
2012 06 01 00:00:03.4276 0.05194      32    0.48622  -0.022954     1.6547     19.996          0          0    0.48676      272.7 
2012 06 01 00:00:03.4762  0.0486      32    0.57907  0.0032484      1.598     19.923          0          0    0.57908     269.68 
2012 06 01 00:00:03.5257  0.0495      32    0.60108  -0.025602     1.5602     19.969          0          0    0.60162     272.44 
2012 06 01 00:00:03.5756 0.04995      32    0.54957   0.083092     1.6355     20.301          0          0    0.55582      261.4 
2012 06 01 00:00:03.6256 0.05001      32      0.543   0.092591      1.604     20.295          0          0    0.55084     260.32 
2012 06 01 00:00:03.6758 0.05022      32    0.47983    0.12137     1.6897     20.293          0          0    0.49494      255.8 
2012 06 01 00:00:03.7256 0.04978      32    0.43625    0.21349     1.5297     20.076          0          0    0.48569     243.92 
2012 06 01 00:00:03.7757 0.05006      32    0.59149    0.14744     1.4937     20.272          0          0    0.60959        256 
2012 06 01 00:00:03.8257 0.05006      32      0.569   0.017814     1.4514     20.547          0          0    0.56928     268.21 
2012 06 01 00:00:03.8756  0.0499      32    0.68764   -0.10052     1.6585     20.698          0          0    0.69494     278.32 
2012 06 01 00:00:03.9256 0.04999      32    0.55038   -0.15138     1.5947     20.646          0          0    0.57082     285.38 
2012 06 01 00:00:03.9756 0.05001      32     0.5525   -0.21994     1.5261     20.611          0          0    0.59467     291.71 
2012 06 01 00:00:04.0256    0.05      32    0.70211     -0.166     1.6341      20.57          0          0    0.72146      283.3 
2012 06 01 00:00:04.0756    0.05      32    0.79653   -0.13665     1.6281     20.549          0          0    0.80817     279.73 
2012 06 01 00:00:04.1256    0.05      32    0.78367  -0.027803     1.7021     20.233          0          0    0.78416     272.03 
2012 06 01 00:00:04.1757 0.05004      32     0.7413    0.16254     1.6213     20.071          0          0    0.75891     257.63 
2012 06 01 00:00:04.2256 0.04997      32    0.68562    0.14962     1.5363     19.972          0          0    0.70176     257.69 
2012 06 01 00:00:04.2756    0.05      32    0.59205    0.11855     1.5999     20.196          0          0     0.6038     258.68 
2012 06 01 00:00:04.3257    0.05      32    0.57275  0.0030047     1.5534     20.482          0          0    0.57276      269.7 
2012 06 01 00:00:04.3757    0.05      32    0.59104  -0.083825     1.6107     20.298          0          0    0.59695     278.07 
2012 06 01 00:00:04.4257    0.05      32    0.68304   0.045648     1.5456     19.917          0          0    0.68457     266.18 
2012 06 01 00:00:04.4757    0.05      32    0.62275   0.017587      1.513     19.827          0          0    0.62299     268.38 
2012 06 01 00:00:04.5257    0.05      32    0.60475   0.031526     1.4448     19.772          0          0    0.60557     267.02 
2012 06 01 00:00:04.5757 0.05001      32    0.58927   0.030093     1.4606     19.827          0          0    0.59004     267.08 
2012 06 01 00:00:04.6257    0.05      32    0.60723  -0.042771     1.4614     20.047          0          0    0.60874     274.03 
2012 06 01 00:00:04.6757 0.05001      32    0.62003 -0.0074773     1.3814     19.953          0          0    0.62007     270.69 
2012 06 01 00:00:04.7257    0.05      32    0.66732  -0.013252     1.3633     20.115          0          0    0.66745     271.14 
2012 06 01 00:00:04.7757 0.04999      32    0.64523   0.057584     1.3274     20.134          0          0     0.6478      264.9 
2012 06 01 00:00:04.8257    0.05      32    0.61302   0.027644     1.3525     20.269          0          0    0.61365     267.42 
2012 06 01 00:00:04.8757 0.05001      32    0.66237  -0.031721     1.2432     20.165          0          0    0.66313     272.74 
2012 06 01 00:00:04.9257    0.05      32    0.60325  -0.056362     1.1609     20.085          0          0    0.60587     275.34 
2012 06 01 00:00:04.9757 0.05001      32    0.54533  -0.017424     1.1611     19.905          0          0    0.54561     271.83 
2012 06 01 00:00:05.0257 0.04999      32    0.59525  -0.010092     1.1369     19.875          0          0    0.59533     270.97 
2012 06 01 00:00:05.0757 0.05001      32    0.50245  -0.015605     1.2473     19.929          0          0    0.50269     271.78 
2012 06 01 00:00:05.1257 0.04999      32    0.54825  -0.027123     1.2409     19.969          0          0    0.54892     272.83 
2012 06 01 00:00:05.1757 0.05001      32    0.49648  -0.084222     1.3313     19.774          0          0    0.50357     279.63 
2012 06 01 00:00:05.2257 0.04999      32    0.38481   -0.12613     1.3359     19.766          0          0    0.40496     288.15 
2012 06 01 00:00:05.2757 0.05001      32    0.39549   -0.10342     1.2529     19.752          0          0    0.40879     284.65 
2012 06 01 00:00:05.3257 0.04999      32     0.4052   -0.11455     1.2992     19.752          0          0    0.42108     285.79 
2012 06 01 00:00:05.3757 0.05001      32    0.39676   -0.11126     1.3168     19.762          0          0    0.41207     285.66 
2012 06 01 00:00:05.4257    0.05      32    0.45193  -0.063993     1.3465     19.757          0          0    0.45644     278.06 
2012 06 01 00:00:05.4757 0.05001      32    0.48179  -0.042347     1.3004     19.767          0          0    0.48364     275.02 
2012 06 01 00:00:05.5257    0.05      32    0.50679  -0.031369     1.2722     19.815          0          0    0.50776     273.54 
2012 06 01 00:00:05.5757    0.05      32    0.43968   0.058232     1.2773     19.813          0          0    0.44352     262.46 
2012 06 01 00:00:05.6257 0.05001      32    0.49035   0.096203     1.3425      19.75          0          0     0.4997      258.9 
2012 06 01 00:00:05.6758 0.05006      32    0.42352   0.035258     1.4438     19.767          0          0    0.42499     265.24 
2012 06 01 00:00:05.7258 0.05001      32    0.43252   0.051105     1.4561     19.691          0          0    0.43552     263.26 
2012 06 01 00:00:05.7758 0.05001      32    0.43039  -0.025419     1.3997     19.919          0          0    0.43114     273.38 
2012 06 01 00:00:05.8257 0.04992      32    0.35897    -0.2306     1.3527     20.735          0          0    0.42666     302.72 
2012 06 01 00:00:05.8757 0.05002      32    0.19225   -0.31972     1.4068     20.997          0          0    0.37307     328.98 
2012 06 01 00:00:05.9257 0.04999      32    0.12557     -0.338     1.4734     21.183          0          0    0.36058     339.62 
2012 06 01 00:00:05.9757 0.05001      32    0.20076   -0.46002     1.5467     21.402          0          0    0.50192     336.42 
2012 06 01 00:00:06.0257    0.05      32    0.26096   -0.44372      1.714     21.279          0          0    0.51476     329.54 
2012 06 01 00:00:06.0757    0.05      32    0.34047   -0.45149      1.621     21.212          0          0    0.56547     322.98 
2012 06 01 00:00:06.1257    0.05      32    0.21765   -0.32258     1.6975     20.993          0          0    0.38914     325.99 
2012 06 01 00:00:06.1757 0.05001      32   0.099624   -0.15988     1.5583     20.214          0          0    0.18838     328.07 
2012 06 01 00:00:06.2257 0.05001      32    0.16183   -0.17952     1.4632     20.585          0          0     0.2417     317.97 
2012 06 01 00:00:06.2757    0.05      32    0.15728   -0.14114     1.5462     20.561          0          0    0.21133      311.9 
2012 06 01 00:00:06.3257    0.05      32    0.16863   -0.10429     1.4591     20.209          0          0    0.19827     301.73 
2012 06 01 00:00:06.3757    0.05      32    0.20801   -0.21708     1.4987     20.435          0          0    0.30065     316.22 
2012 06 01 00:00:06.4257    0.05      32    0.24681   -0.18776     1.4766     20.298          0          0    0.31011     307.26 
2012 06 01 00:00:06.4757 0.05002      32    0.14694   -0.20092     1.5226     20.207          0          0    0.24892     323.82 
2012 06 01 00:00:06.5257 0.04999      32    0.16406   -0.18564     1.6495     19.788          0          0    0.24775     318.53 
2012 06 01 00:00:06.5757 0.04999      32    0.20234   -0.21126     1.5793     19.783          0          0    0.29252     316.24 
2012 06 01 00:00:06.6257    0.05      32    0.27408   -0.23349     1.5396     19.842          0          0    0.36005     310.43 
2012 06 01 00:00:06.6758 0.05006      32    0.37581   -0.26635     1.4985     19.868          0          0    0.46063     305.33 
2012 06 01 00:00:06.7257 0.04995      32    0.37187   -0.22976     1.4732     19.875          0          0    0.43712     301.71 
2012 06 01 00:00:06.7757 0.05001      32    0.42866   -0.22371      1.562     19.931          0          0    0.48353     297.56 
2012 06 01 00:00:06.8258 0.05003      32    0.36859   -0.20762     1.5309     19.846          0          0    0.42304     299.39 
2012 06 01 00:00:06.8757 0.04997      32    0.31567   -0.13779     1.4949     19.803          0          0    0.34444     293.58 
2012 06 01 00:00:06.9257 0.04999      32    0.24902  -0.051515     1.4965      19.76          0          0    0.25429     281.69 
2012 06 01 00:00:06.9758 0.05001      32    0.28767   0.017672      1.464     19.697          0          0    0.28821     266.48 
2012 06 01 00:00:07.0257 0.04999      32    0.31401  -0.009697     1.4497     19.675          0          0    0.31416     271.77 
2012 06 01 00:00:07.0757 0.05001      32    0.27939   0.034101     1.4918     19.593          0          0    0.28146     263.04 
2012 06 01 00:00:07.1257    0.05      32    0.31531   0.073376     1.5081     19.563          0          0    0.32373      256.9 
2012 06 01 00:00:07.1758 0.05001      32    0.36838   0.049069     1.5264     19.602          0          0    0.37163     262.41 
2012 06 01 00:00:07.2258 0.05001      32    0.28752   0.075321     1.5106     19.627          0          0    0.29722     255.32 
2012 06 01 00:00:07.2758    0.05      32    0.33921   0.081336     1.4647     19.602          0          0    0.34882     256.52 
2012 06 01 00:00:07.3258 0.04999      32    0.41387    0.10908      1.457     19.576          0          0      0.428     255.24 
2012 06 01 00:00:07.3758 0.05001      32    0.42867   0.077965     1.4643     19.593          0          0     0.4357     259.69 
2012 06 01 00:00:07.4258    0.05      32    0.38512   0.044846      1.451     19.604          0          0    0.38772     263.36 
2012 06 01 00:00:07.4758 0.05004      32     0.3803   0.042355     1.4481     19.588          0          0    0.38265     263.64 
2012 06 01 00:00:07.5258 0.04997      32    0.36256   0.052427     1.4431     19.586          0          0    0.36633     261.77 
2012 06 01 00:00:07.5758 0.04999      32    0.41488    0.10585     1.4639     19.575          0          0    0.42817     255.69 
2012 06 01 00:00:07.6258    0.05      32    0.39181    0.10723     1.4581     19.559          0          0    0.40621     254.69 
2012 06 01 00:00:07.6758 0.05005      32    0.39695     0.0878     1.4469     19.573          0          0    0.40654     257.53 
2012 06 01 00:00:07.7258 0.05001      32    0.36256   0.094175     1.3992      19.58          0          0    0.37459     255.44 
2012 06 01 00:00:07.7758 0.04996      32    0.35755   0.070338     1.4138     19.583          0          0     0.3644     258.87 
2012 06 01 00:00:07.8258    0.05      32    0.33553   0.071837      1.419     19.619          0          0    0.34314     257.92 
2012 06 01 00:00:07.8758    0.05      32    0.32649   0.088427     1.3969     19.663          0          0    0.33825     254.85 
2012 06 01 00:00:07.9258    0.05      32     0.2919    0.13371     1.4527     19.668          0          0    0.32106     245.39 
2012 06 01 00:00:07.9758    0.05      32    0.32886    0.22893     1.5149      19.59          0          0     0.4007     235.16 
2012 06 01 00:00:08.0258 0.05001      32    0.35566    0.21456     1.5162     19.615          0          0    0.41537      238.9 
2012 06 01 00:00:08.0758    0.05      32    0.34425      0.235     1.4954     19.638          0          0    0.41681     235.68 
2012 06 01 00:00:08.1258 0.05001      32     0.3513    0.26218     1.4779     19.585          0          0    0.43835     233.27 
2012 06 01 00:00:08.1758 0.04999      32    0.36251    0.23723     1.4443     19.568          0          0    0.43324      236.8 
2012 06 01 00:00:08.2258 0.05001      32    0.37904    0.18144     1.4601     19.544          0          0    0.42023     244.42 
2012 06 01 00:00:08.2758    0.05      32    0.41878    0.15575     1.5075      19.54          0          0    0.44681      249.6 
2012 06 01 00:00:08.3258 0.05001      32    0.41832    0.16564     1.5074      19.54          0          0    0.44992      248.4 
2012 06 01 00:00:08.3758    0.05      32    0.38299     0.1689      1.538      19.54          0          0    0.41858      246.2 
2012 06 01 00:00:08.4258    0.05      32    0.40572    0.22046      1.508     19.542          0          0    0.46175     241.48 
2012 06 01 00:00:08.4758    0.05      32    0.40423    0.24735     1.5029     19.542          0          0    0.47391     238.54 
2012 06 01 00:00:08.5258    0.05      32    0.42615    0.17629     1.4682      19.54          0          0    0.46117     247.53 
2012 06 01 00:00:08.5758 0.05003      32     0.3983    0.19159     1.4165     19.542          0          0    0.44199     244.31 
2012 06 01 00:00:08.6258    0.05      32     0.3709    0.17232     1.3714     19.544          0          0    0.40898     245.08 
2012 06 01 00:00:08.6758 0.04997      32    0.30629    0.16554      1.323     19.546          0          0    0.34816     241.61 
2012 06 01 00:00:08.7258 0.05001      32    0.32665    0.22109     1.2742     19.547          0          0    0.39444     235.91 
2012 06 01 00:00:08.7758 0.04999      32    0.32134    0.26595      1.274     19.542          0          0    0.41712     230.39 
2012 06 01 00:00:08.8258    0.05      32    0.33813    0.32069     1.2297     19.547          0          0    0.46602     226.52 
2012 06 01 00:00:08.8758    0.05      32    0.36063    0.38663     1.2025     19.544          0          0    0.52871     223.01 
2012 06 01 00:00:08.9258    0.05      32    0.41503    0.38687     1.1888     19.551          0          0    0.56738     227.01 
2012 06 01 00:00:08.9758    0.05      32    0.50802    0.38915     1.2081     19.549          0          0    0.63994     232.55 
2012 06 01 00:00:09.0258    0.05      32    0.50197    0.33219     1.1638     19.544          0          0    0.60194      236.5 
2012 06 01 00:00:09.0758 0.04999      32    0.49426    0.25826     1.1755     19.629          0          0    0.55766     242.41 
2012 06 01 00:00:09.1258 0.05001      32    0.43644    0.16144     1.1038     19.825          0          0    0.46534      249.7 
2012 06 01 00:00:09.1758    0.05      32    0.31307     0.1773     1.1829     19.909          0          0    0.35979     240.48 
2012 06 01 00:00:09.2258    0.05      32    0.29054    0.17757     1.3198     19.847          0          0    0.34051     238.57 
2012 06 01 00:00:09.2758    0.05      32     0.3396    0.18694     1.3399     19.946          0          0    0.38766     241.17 
2012 06 01 00:00:09.3258    0.05      32    0.45652    0.23091     1.2923     19.752          0          0     0.5116     243.17 
2012 06 01 00:00:09.3758    0.05      32      0.519    0.21264     1.4141     20.011          0          0    0.56087     247.72 
2012 06 01 00:00:09.4258    0.05      32    0.56344    0.18184     1.4491     20.119          0          0    0.59206     252.11 
2012 06 01 00:00:09.4758    0.05      32    0.71743   0.063688     1.3914      20.08          0          0    0.72025     264.93 
2012 06 01 00:00:09.5258 0.05001      32    0.75992   -0.18878     1.3662     20.045          0          0    0.78302     283.95 
2012 06 01 00:00:09.5759 0.05003      32    0.67619   -0.19079     1.2693     20.088          0          0    0.70259     285.76 
2012 06 01 00:00:09.6259 0.05001      32    0.63953  -0.040814     1.3505     20.119          0          0    0.64083     273.65 
2012 06 01 00:00:09.6789 0.05301      32    0.67026   -0.13242      1.329     20.115          0          0    0.68322     281.18 
2012 06 01 00:00:09.7259 0.04696      32    0.63564   -0.12789     1.3345     20.151          0          0    0.64838     281.38 
2012 06 01 00:00:09.7759 0.05001      32    0.60495   -0.18793     1.2595     20.151          0          0    0.63347     287.26 
2012 06 01 00:00:09.8259    0.05      32    0.68176   -0.17629     1.3425     20.172          0          0    0.70418      284.5 
2012 06 01 00:00:09.8759    0.05      32    0.69883   -0.15868     1.3371     20.216          0          0    0.71662     282.79 
