|--- date time --------|  deltaT       len data...
2012 06 01 00:00:00.0555       0      32    0.65725        1.4   -0.14225     20.571          0          0     1.5466     205.15 
2012 06 01 00:00:00.0755 0.01997      32     0.7345     1.3818   -0.16175     20.493          0          0     1.5648     207.99 
2012 06 01 00:00:00.1255    0.05      32    0.74475      1.349    -0.1155     20.481          0          0     1.5409      208.9 
2012 06 01 00:00:00.1755 0.05001      32      0.716     1.3845   -0.04075     20.547          0          0     1.5587     207.35 
2012 06 01 00:00:00.2255    0.05      32      0.677     1.4158    0.00175     20.571          0          0     1.5693     205.56 
2012 06 01 00:00:00.2755    0.05      32    0.69225      1.458   -0.04025     20.665          0          0      1.614      205.4 
2012 06 01 00:00:00.3255    0.05      32     0.7125     1.4135   -0.07125     20.698          0          0     1.5829     206.75 
2012 06 01 00:00:00.3755    0.05      32    0.78825     1.4925   -0.07225     20.508          0          0     1.6879     207.84 
2012 06 01 00:00:00.4255 0.05001      32     0.7825     1.5218   -0.01575      20.25          0          0     1.7111     207.21 
2012 06 01 00:00:00.4755    0.05      32     0.7935      1.501   -0.01425     20.109          0          0     1.6978     207.86 
2012 06 01 00:00:00.5255    0.05      32      0.716     1.5235    -0.0405      20.08          0          0     1.6834     205.17 
2012 06 01 00:00:00.5755 0.05003      32     0.6495     1.5068    -0.1165     19.955          0          0     1.6408     203.32 
2012 06 01 00:00:00.6255 0.04996      32    0.68175     1.4265    -0.1525     19.914          0          0      1.581     205.54 
2012 06 01 00:00:00.6755    0.05      32      0.753     1.3925   -0.12325      20.02          0          0     1.5831      208.4 
2012 06 01 00:00:00.7255    0.05      32    0.73925     1.3833     -0.117      19.89          0          0     1.5684     208.12 
2012 06 01 00:00:00.7755    0.05      32    0.68725     1.3813     -0.037     19.795          0          0     1.5428     206.45 
2012 06 01 00:00:00.8255    0.05      32      0.579     1.3928   -0.03125     19.754          0          0     1.5083     202.57 
2012 06 01 00:00:00.8755 0.05002      32    0.47375     1.4603   -0.03575      19.76          0          0     1.5352     197.97 
2012 06 01 00:00:00.9255    0.05      32     0.5105     1.4668   -0.08125     19.738          0          0     1.5531     199.19 
2012 06 01 00:00:00.9755    0.05      32      0.504       1.43   -0.14225     19.725          0          0     1.5162     199.41 
2012 06 01 00:00:01.0255 0.05001      32      0.522     1.4648     -0.209     19.841          0          0      1.555     199.61 
2012 06 01 00:00:01.0755    0.05      32    0.56325     1.5373   -0.26275     19.793          0          0     1.6372     200.12 
2012 06 01 00:00:01.1255 0.05001      32       0.53     1.5973     -0.327     19.689          0          0     1.6829     198.36 
2012 06 01 00:00:01.1755    0.05      32     0.4435     1.6628   -0.33425     19.725          0          0     1.7209     194.93 
2012 06 01 00:00:01.2255    0.05      32    0.41825     1.6315     -0.355     19.784          0          0     1.6843     194.38 
2012 06 01 00:00:01.2755    0.05      32      0.413      1.597      -0.41     19.834          0          0     1.6495      194.5 
2012 06 01 00:00:01.3255    0.05      32      0.388     1.7218     -0.355     19.766          0          0     1.7649      192.7 
2012 06 01 00:00:01.3755    0.05      32    0.35075      1.765   -0.24875     19.764          0          0     1.7995     191.24 
2012 06 01 00:00:01.4255 0.05001      32      0.351     1.7738    -0.2065      19.75          0          0     1.8081     191.19 
2012 06 01 00:00:01.4755 0.04999      32    0.42125     1.7253   -0.06975     20.044          0          0     1.7759     193.72 
2012 06 01 00:00:01.5255    0.05      32    0.38975     1.7463    -0.0825     19.986          0          0     1.7892     192.58 
2012 06 01 00:00:01.5755 0.04999      32     0.4095     1.7415     -0.099     19.801          0          0      1.789     193.23 
2012 06 01 00:00:01.6255    0.05      32    0.32225     1.6685   -0.21075     19.774          0          0     1.6993     190.93 
2012 06 01 00:00:01.6755 0.05001      32     0.3495     1.6013    -0.2505      19.73          0          0     1.6389     192.31 
2012 06 01 00:00:01.7256 0.05006      32     0.3635        1.6    -0.2325     19.721          0          0     1.6408      192.8 
2012 06 01 00:00:01.7756 0.05002      32      0.389     1.5873     -0.213     19.762          0          0     1.6342     193.77 
2012 06 01 00:00:01.8256 0.05001      32    0.38625     1.5728    -0.2075     19.778          0          0     1.6195      193.8 
2012 06 01 00:00:01.8756 0.04992      32      0.354     1.6038   -0.21225     19.784          0          0     1.6424     192.45 
2012 06 01 00:00:01.9256 0.05001      32    0.32725      1.595     -0.219     19.805          0          0     1.6282     191.59 
2012 06 01 00:00:01.9756 0.04999      32    0.33025     1.5858    -0.2555     19.738          0          0     1.6198     191.76 
2012 06 01 00:00:02.0256 0.05001      32      0.335      1.549    -0.2585     19.731          0          0     1.5848      192.2 
2012 06 01 00:00:02.0757  0.0501      32    0.30475     1.5418     -0.269     19.754          0          0     1.5716     191.18 
2012 06 01 00:00:02.1256 0.04991      32    0.31125     1.5123     -0.281     19.728          0          0     1.5439     191.63 
2012 06 01 00:00:02.1756    0.05      32     0.3215     1.4808   -0.24375     19.749          0          0     1.5153     192.25 
2012 06 01 00:00:02.2256 0.05005      32     0.3205      1.483    -0.2355     19.769          0          0     1.5172     192.19 
2012 06 01 00:00:02.2756 0.04995      32    0.31575     1.4578   -0.24425     19.738          0          0     1.4916     192.22 
2012 06 01 00:00:02.3256 0.05008      32     0.3645     1.5155     -0.242     19.764          0          0     1.5587     193.52 
2012 06 01 00:00:02.3756 0.04993      32      0.351      1.515   -0.25725     19.771          0          0     1.5551     193.04 
2012 06 01 00:00:02.4256    0.05      32     0.3545     1.5455     -0.228      19.73          0          0     1.5856     192.92 
2012 06 01 00:00:02.4758 0.05023      32    0.47625     1.5265   -0.17025     19.728          0          0     1.5991     197.33 
2012 06 01 00:00:02.5258 0.05001      32     0.5105     1.5745    -0.1985     19.651          0          0     1.6552     197.96 
2012 06 01 00:00:02.5757 0.04987      32     0.4895     1.6313   -0.25625     19.716          0          0     1.7031      196.7 
2012 06 01 00:00:02.6258 0.05014      32    0.56375     1.5935    -0.2655      19.72          0          0     1.6903     199.48 
2012 06 01 00:00:02.6757 0.04988      32      0.606     1.5775   -0.21125     19.696          0          0     1.6899     201.01 
2012 06 01 00:00:02.7257 0.04997      32    0.59825      1.574   -0.21675     19.701          0          0     1.6839     200.81 
2012 06 01 00:00:02.7759 0.05019      32    0.55075     1.5978   -0.22475     19.713          0          0       1.69     199.02 
2012 06 01 00:00:02.8257 0.04982      32    0.55075     1.5708   -0.21125     19.716          0          0     1.6645     199.32 
2012 06 01 00:00:02.8757 0.04997      32    0.53125      1.538     -0.238     19.716          0          0     1.6272     199.06 
2012 06 01 00:00:02.9256 0.04999      32     0.4885      1.595   -0.22825     19.772          0          0     1.6681     197.03 
2012 06 01 00:00:02.9756 0.04996      32      0.548     1.5898   -0.15525     19.813          0          0     1.6815     199.02 
2012 06 01 00:00:03.0256 0.05002      32      0.567       1.61    -0.1235      19.81          0          0     1.7069      199.4 
2012 06 01 00:00:03.0756 0.04999      32    0.61775     1.6728     -0.199     19.658          0          0     1.7832     200.27 
2012 06 01 00:00:03.1256 0.04999      32     0.6235     1.6465   -0.23025      19.65          0          0     1.7606     200.74 
2012 06 01 00:00:03.1756    0.05      32      0.624     1.6138     -0.188     19.815          0          0     1.7302     201.14 
2012 06 01 00:00:03.2256 0.05001      32    0.61225     1.6868   -0.06675     20.315          0          0     1.7944     199.95 
2012 06 01 00:00:03.2758 0.05017      32      0.561     1.6703   -0.06325      20.16          0          0     1.7619     198.57 
2012 06 01 00:00:03.3256 0.04983      32    0.56875     1.5925    0.01575     20.404          0          0      1.691     199.65 
2012 06 01 00:00:03.3756    0.05      32      0.611     1.5588    0.11475     20.288          0          0     1.6742      201.4 
2012 06 01 00:00:03.4276 0.05194      32      0.517     1.6155    -0.0225     19.996          0          0     1.6962     197.75 
2012 06 01 00:00:03.4762  0.0486      32     0.6065     1.5588    -0.0535     19.923          0          0     1.6726     201.26 
2012 06 01 00:00:03.5257  0.0495      32      0.628       1.52   -0.02675     19.969          0          0     1.6446     202.45 
2012 06 01 00:00:03.5756 0.04995      32    0.57625      1.598     -0.129     20.301          0          0     1.6987     199.83 
2012 06 01 00:00:03.6256 0.05001      32    0.56875     1.5673    -0.1375     20.295          0          0     1.6673     199.95 
2012 06 01 00:00:03.6758 0.05022      32    0.50825     1.6528   -0.16175     20.293          0          0     1.7291     197.09 
2012 06 01 00:00:03.7256 0.04978      32    0.45875     1.4953    -0.2465     20.076          0          0      1.564     197.06 
2012 06 01 00:00:03.7757 0.05006      32    0.61125     1.4585   -0.19275     20.272          0          0     1.5814     202.74 
2012 06 01 00:00:03.8257 0.05006      32    0.59275     1.4153   -0.06575     20.547          0          0     1.5344     202.73 
2012 06 01 00:00:03.8756  0.0499      32    0.71725     1.6113    0.03925     20.698          0          0     1.7637        204 
2012 06 01 00:00:03.9256 0.04999      32      0.581     1.5485    0.09775     20.646          0          0     1.6539     200.57 
2012 06 01 00:00:03.9756 0.05001      32    0.58225     1.4755    0.16425     20.611          0          0     1.5862     201.53 
2012 06 01 00:00:04.0256    0.05      32    0.73225     1.5828    0.10175      20.57          0          0     1.7439     204.83 
2012 06 01 00:00:04.0756    0.05      32      0.825     1.5768     0.0675     20.549          0          0     1.7795     207.62 
2012 06 01 00:00:04.1256    0.05      32      0.811     1.6558    -0.0375     20.233          0          0     1.8437      206.1 
2012 06 01 00:00:04.1757 0.05004      32       0.76     1.5818     -0.218     20.071          0          0     1.7549     205.66 
2012 06 01 00:00:04.2256 0.04997      32      0.704      1.499   -0.20125     19.972          0          0     1.6561     205.16 
2012 06 01 00:00:04.2756    0.05      32    0.61575     1.5628   -0.16575     20.196          0          0     1.6797     201.51 
2012 06 01 00:00:04.3257    0.05      32    0.59925      1.515    -0.0525     20.482          0          0     1.6292     201.58 
2012 06 01 00:00:04.3757    0.05      32     0.6205     1.5673    0.02975     20.298          0          0     1.6856      201.6 
2012 06 01 00:00:04.4257    0.05      32      0.706     1.5065   -0.10075     19.917          0          0     1.6637     205.11 
2012 06 01 00:00:04.4757    0.05      32      0.647     1.4748    -0.0695     19.827          0          0     1.6104     203.69 
2012 06 01 00:00:04.5257    0.05      32    0.62725     1.4085   -0.08125     19.772          0          0     1.5419        204 
2012 06 01 00:00:04.5757 0.05001      32     0.6125     1.4243     -0.079     19.827          0          0     1.5504     203.27 
2012 06 01 00:00:04.6257    0.05      32    0.63225      1.422   -0.00975     20.047          0          0     1.5562     203.97 
2012 06 01 00:00:04.6757 0.05001      32      0.642     1.3445     -0.044     19.953          0          0     1.4899     205.52 
2012 06 01 00:00:04.7257    0.05      32    0.68825     1.3255   -0.04125     20.115          0          0     1.4935     207.44 
2012 06 01 00:00:04.7757 0.04999      32      0.663      1.293     -0.108     20.134          0          0     1.4531     207.15 
2012 06 01 00:00:04.8257    0.05      32    0.63325     1.3175   -0.07725     20.269          0          0     1.4618     205.67 
2012 06 01 00:00:04.8757 0.05001      32    0.68125     1.2068     -0.022     20.165          0          0     1.3858     209.45 
2012 06 01 00:00:04.9257    0.05      32      0.622     1.1258    0.00625     20.085          0          0     1.2862     208.92 
2012 06 01 00:00:04.9757 0.05001      32    0.56375      1.129   -0.02775     19.905          0          0     1.2619     206.53 
2012 06 01 00:00:05.0257 0.04999      32      0.612     1.1045   -0.03775     19.875          0          0     1.2627     208.99 
2012 06 01 00:00:05.0757 0.05001      32     0.5235     1.2148    -0.0275     19.929          0          0     1.3228     203.31 
2012 06 01 00:00:05.1257 0.04999      32    0.56875      1.207   -0.01925     19.969          0          0     1.3343     205.23 
2012 06 01 00:00:05.1757 0.05001      32      0.521     1.2943     0.0385     19.774          0          0     1.3952     201.93 
2012 06 01 00:00:05.2257 0.04999      32    0.41125      1.299    0.08625     19.766          0          0     1.3625     197.57 
2012 06 01 00:00:05.2757 0.05001      32    0.41975     1.2183    0.06425     19.752          0          0     1.2885     199.01 
2012 06 01 00:00:05.3257 0.04999      32     0.4305      1.263      0.074     19.752          0          0     1.3344     198.82 
2012 06 01 00:00:05.3757 0.05001      32     0.4225     1.2808    0.07125     19.762          0          0     1.3486     198.26 
2012 06 01 00:00:05.4257    0.05      32      0.477     1.3113    0.02175     19.757          0          0     1.3953     199.99 
2012 06 01 00:00:05.4757 0.05001      32      0.505     1.2663   -0.00075     19.767          0          0     1.3632     201.74 
2012 06 01 00:00:05.5257    0.05      32    0.52875     1.2385   -0.01275     19.815          0          0     1.3466     203.12 
2012 06 01 00:00:05.5757    0.05      32     0.4605     1.2475     -0.095     19.813          0          0     1.3298     200.26 
2012 06 01 00:00:05.6257 0.05001      32     0.5105     1.3113    -0.1355      19.75          0          0     1.4071     201.27 
2012 06 01 00:00:05.6758 0.05006      32    0.44925      1.411     -0.073     19.767          0          0     1.4808     197.66 
2012 06 01 00:00:05.7258 0.05001      32      0.458     1.4233     -0.089     19.691          0          0     1.4951     197.84 
2012 06 01 00:00:05.7758 0.05001      32    0.45625     1.3658    -0.0145     19.919          0          0     1.4399     198.47 
2012 06 01 00:00:05.8257 0.04992      32     0.3865     1.3083     0.1885     20.735          0          0     1.3641     196.46 
2012 06 01 00:00:05.8757 0.05002      32    0.22275      1.359      0.285     20.997          0          0     1.3771     189.31 
2012 06 01 00:00:05.9257 0.04999      32    0.15875     1.4263    0.30675     21.183          0          0     1.4351     186.35 
2012 06 01 00:00:05.9757 0.05001      32      0.234     1.4823    0.41775     21.402          0          0     1.5006     188.97 
2012 06 01 00:00:06.0257    0.05      32     0.2975      1.649    0.39725     21.279          0          0     1.6756     190.23 
2012 06 01 00:00:06.0757    0.05      32     0.3735      1.552    0.39975     21.212          0          0     1.5963     193.53 
2012 06 01 00:00:06.1257    0.05      32    0.25475     1.6468    0.28425     20.993          0          0     1.6663     188.79 
2012 06 01 00:00:06.1757 0.05001      32    0.13475     1.5248    0.13675     20.214          0          0     1.5307     185.05 
2012 06 01 00:00:06.2257 0.05001      32      0.194     1.4278      0.152     20.585          0          0     1.4409     187.74 
2012 06 01 00:00:06.2757    0.05      32    0.19125      1.512    0.11475     20.561          0          0      1.524     187.21 
2012 06 01 00:00:06.3257    0.05      32    0.20025     1.4275      0.079     20.209          0          0     1.4415     187.99 
2012 06 01 00:00:06.3757    0.05      32     0.2405     1.4588    0.18475     20.435          0          0     1.4784     189.36 
2012 06 01 00:00:06.4257    0.05      32    0.27825     1.4378      0.154     20.298          0          0     1.4644     190.95 
2012 06 01 00:00:06.4757 0.05002      32    0.18075     1.4855    0.17325     20.207          0          0     1.4965     186.94 
2012 06 01 00:00:06.5257 0.04999      32     0.2005     1.6113     0.1565     19.788          0          0     1.6237     187.09 
2012 06 01 00:00:06.5757 0.04999      32    0.23675      1.539      0.179     19.783          0          0     1.5571     188.75 
2012 06 01 00:00:06.6257    0.05      32    0.30675     1.4958    0.19575     19.842          0          0     1.5269     191.59 
2012 06 01 00:00:06.6758 0.05006      32     0.4065      1.449    0.22075     19.868          0          0     1.5049     195.67 
2012 06 01 00:00:06.7257 0.04995      32      0.402     1.4273      0.186     19.875          0          0     1.4828     195.73 
2012 06 01 00:00:06.7757 0.05001      32    0.46025      1.514    0.17575     19.931          0          0     1.5824     196.91 
2012 06 01 00:00:06.8258 0.05003      32        0.4     1.4863     0.1645     19.846          0          0     1.5391     195.06 
2012 06 01 00:00:06.8757 0.04997      32     0.3465      1.457      0.101     19.803          0          0     1.4976     193.38 
2012 06 01 00:00:06.9257 0.04999      32       0.28     1.4643    0.02225      19.76          0          0     1.4908     190.83 
2012 06 01 00:00:06.9758 0.05001      32     0.3165     1.4333     -0.047     19.697          0          0     1.4678     192.45 
2012 06 01 00:00:07.0257 0.04999      32     0.3425      1.418   -0.02225     19.675          0          0     1.4588     193.58 
2012 06 01 00:00:07.0757 0.05001      32    0.30875      1.461    -0.0625     19.593          0          0     1.4933     191.93 
2012 06 01 00:00:07.1257    0.05      32    0.34375     1.4768     -0.103     19.563          0          0     1.5162      193.1 
2012 06 01 00:00:07.1758 0.05001      32    0.39675     1.4935   -0.08325     19.602          0          0     1.5453     194.88 
2012 06 01 00:00:07.2258 0.05001      32     0.3165     1.4798     -0.103     19.627          0          0     1.5132     192.07 
2012 06 01 00:00:07.2758    0.05      32      0.366     1.4338     -0.112     19.602          0          0     1.4797     194.32 
2012 06 01 00:00:07.3258 0.04999      32    0.43825      1.425   -0.14375     19.576          0          0     1.4909     197.09 
2012 06 01 00:00:07.3758 0.05001      32    0.45375     1.4318   -0.11475     19.593          0          0     1.5019     197.58 
2012 06 01 00:00:07.4258    0.05      32     0.4115      1.419   -0.07975     19.604          0          0     1.4775     196.17 
2012 06 01 00:00:07.4758 0.05004      32    0.40675     1.4163     -0.077     19.588          0          0     1.4735     196.02 
2012 06 01 00:00:07.5258 0.04997      32      0.389     1.4118    -0.0855     19.586          0          0     1.4644     195.41 
2012 06 01 00:00:07.5758 0.04999      32     0.4395     1.4318   -0.14075     19.575          0          0     1.4977     197.06 
2012 06 01 00:00:07.6258    0.05      32    0.41675     1.4265    -0.1405     19.559          0          0     1.4861     196.29 
2012 06 01 00:00:07.6758 0.05005      32      0.422     1.4153     -0.122     19.573          0          0     1.4768      196.6 
2012 06 01 00:00:07.7258 0.05001      32      0.387      1.369    -0.1255      19.58          0          0     1.4226     195.78 
2012 06 01 00:00:07.7758 0.04996      32      0.383     1.3833   -0.10225     19.583          0          0     1.4353     195.48 
2012 06 01 00:00:07.8258    0.05      32     0.3615     1.3888   -0.10225     19.619          0          0      1.435     194.59 
2012 06 01 00:00:07.8758    0.05      32    0.35175     1.3673    -0.1175     19.663          0          0     1.4118     194.43 
2012 06 01 00:00:07.9258    0.05      32    0.31825     1.4225   -0.15925     19.668          0          0     1.4577     192.61 
2012 06 01 00:00:07.9758    0.05      32     0.3535     1.4813     -0.254      19.59          0          0     1.5228     193.42 
2012 06 01 00:00:08.0258 0.05001      32       0.38     1.4828     -0.242     19.615          0          0     1.5307     194.37 
2012 06 01 00:00:08.0758    0.05      32    0.36775     1.4618   -0.26075     19.638          0          0     1.5073     194.12 
2012 06 01 00:00:08.1258 0.05001      32    0.37325     1.4435   -0.28725     19.585          0          0      1.491      194.5 
2012 06 01 00:00:08.1758 0.04999      32      0.384     1.4113   -0.26375     19.568          0          0     1.4626     195.22 
2012 06 01 00:00:08.2258 0.05001      32    0.40225      1.428   -0.21125     19.544          0          0     1.4836     195.73 
2012 06 01 00:00:08.2758    0.05      32      0.443     1.4745    -0.1895      19.54          0          0     1.5396     196.72 
2012 06 01 00:00:08.3258 0.05001      32    0.44225     1.4743     -0.199      19.54          0          0     1.5392      196.7 
2012 06 01 00:00:08.3758    0.05      32     0.4085     1.5048       -0.2      19.54          0          0     1.5592     195.19 
2012 06 01 00:00:08.4258    0.05      32    0.42825      1.474     -0.251     19.542          0          0      1.535      196.2 
2012 06 01 00:00:08.4758    0.05      32    0.42575     1.4683   -0.27675     19.542          0          0     1.5287     196.17 
2012 06 01 00:00:08.5258    0.05      32     0.4485     1.4355    -0.2095      19.54          0          0     1.5039     197.35 
2012 06 01 00:00:08.5758 0.05003      32     0.4195     1.3848     -0.222     19.542          0          0     1.4469     196.85 
2012 06 01 00:00:08.6258    0.05      32    0.39225      1.341   -0.20125     19.544          0          0     1.3972      196.3 
2012 06 01 00:00:08.6758 0.04997      32    0.32825     1.2943      -0.19     19.546          0          0     1.3352     194.23 
2012 06 01 00:00:08.7258 0.05001      32      0.345     1.2445    -0.2445     19.547          0          0     1.2914     195.49 
2012 06 01 00:00:08.7758 0.04999      32    0.33825     1.2425   -0.28725     19.542          0          0     1.2877     195.23 
2012 06 01 00:00:08.8258    0.05      32    0.35075     1.1957    -0.3405     19.547          0          0     1.2461     196.35 
2012 06 01 00:00:08.8758    0.05      32      0.368     1.1645   -0.40475     19.544          0          0     1.2213     197.54 
2012 06 01 00:00:08.9258    0.05      32      0.419     1.1513    -0.4085     19.551          0          0     1.2251        200 
2012 06 01 00:00:08.9758    0.05      32    0.50775     1.1708     -0.417     19.549          0          0     1.2761     203.45 
2012 06 01 00:00:09.0258    0.05      32      0.504     1.1303   -0.36175     19.544          0          0     1.2375     204.03 
2012 06 01 00:00:09.0758 0.04999      32    0.50175      1.145    -0.2905     19.629          0          0     1.2501     203.66 
2012 06 01 00:00:09.1258 0.05001      32    0.44875     1.0773     -0.193     19.825          0          0      1.167     202.62 
2012 06 01 00:00:09.1758    0.05      32    0.33075      1.156   -0.20075     19.909          0          0     1.2024     195.97 
2012 06 01 00:00:09.2258    0.05      32     0.3125      1.291    -0.2005     19.847          0          0     1.3283     193.61 
2012 06 01 00:00:09.2758    0.05      32     0.3605       1.31     -0.213     19.946          0          0     1.3587     195.39 
2012 06 01 00:00:09.3258    0.05      32    0.47075      1.261   -0.26275     19.752          0          0      1.346     200.47 
2012 06 01 00:00:09.3758    0.05      32    0.53575     1.3808   -0.25025     20.011          0          0      1.481     201.21 
2012 06 01 00:00:09.4258    0.05      32    0.58125      1.415   -0.22375     20.119          0          0     1.5297     202.33 
2012 06 01 00:00:09.4758    0.05      32      0.735     1.3548     -0.119      20.08          0          0     1.5413     208.48 
2012 06 01 00:00:09.5258 0.05001      32     0.7845     1.3155     0.1225     20.045          0          0     1.5317     210.81 
2012 06 01 00:00:09.5759 0.05003      32     0.6995     1.2215     0.1305     20.088          0          0     1.4076      209.8 
2012 06 01 00:00:09.6259 0.05001      32     0.6615     1.3123   -0.01275     20.119          0          0     1.4696     206.75 
2012 06 01 00:00:09.6789 0.05301      32    0.69375      1.285      0.074     20.115          0          0     1.4603     208.36 
2012 06 01 00:00:09.7259 0.04696      32     0.6595     1.2915    0.07175     20.151          0          0     1.4501     207.05 
2012 06 01 00:00:09.7759 0.05001      32     0.6285     1.2135    0.13225     20.151          0          0     1.3666     207.38 
2012 06 01 00:00:09.8259    0.05      32    0.70625     1.2948     0.1155     20.172          0          0     1.4748     208.61 
2012 06 01 00:00:09.8759    0.05      32    0.72275     1.2905     0.0975     20.216          0          0     1.4791     209.25 
