|--- date time --------|  deltaT       len data...
2012 06 01 00:00:00.0555       0      32    0.66452     1.4182   -0.14168     20.571          0          0     1.5662     205.11 
2012 06 01 00:00:00.0755 0.01997      32    0.74332     1.3988   -0.16169     20.493          0          0     1.5841     207.99 
2012 06 01 00:00:00.1255    0.05      32    0.75464     1.3667   -0.11399     20.481          0          0     1.5612     208.91 
2012 06 01 00:00:00.1755 0.05001      32    0.72703      1.406  -0.036746     20.547          0          0     1.5828     207.34 
2012 06 01 00:00:00.2255    0.05      32    0.68888       1.44  0.0071352     20.571          0          0     1.5963     205.57 
2012 06 01 00:00:00.2755    0.05      32    0.70292     1.4807  -0.036096     20.665          0          0     1.6391     205.39 
2012 06 01 00:00:00.3255    0.05      32     0.7226     1.4341  -0.068169     20.698          0          0     1.6058     206.74 
2012 06 01 00:00:00.3755    0.05      32    0.79965     1.5143  -0.068826     20.508          0          0     1.7125     207.84 
2012 06 01 00:00:00.4255 0.05001      32    0.79546     1.5469  -0.010409      20.25          0          0     1.7394     207.21 
2012 06 01 00:00:00.4755    0.05      32    0.80666     1.5259 -0.0088975     20.109          0          0      1.726     207.86 
2012 06 01 00:00:00.5255    0.05      32    0.72708     1.5473  -0.036129      20.08          0          0     1.7097     205.17 
2012 06 01 00:00:00.5755 0.05003      32    0.65698     1.5276   -0.11487     19.955          0          0     1.6628     203.27 
2012 06 01 00:00:00.6255 0.04996      32    0.68928     1.4449   -0.15214     19.914          0          0     1.6008      205.5 
2012 06 01 00:00:00.6755    0.05      32     0.7628     1.4107   -0.12185      20.02          0          0     1.6037      208.4 
2012 06 01 00:00:00.7255    0.05      32    0.74889     1.4015   -0.11545      19.89          0          0     1.5891     208.12 
2012 06 01 00:00:00.7755    0.05      32    0.69792     1.4028  -0.032946     19.795          0          0     1.5669     206.45 
2012 06 01 00:00:00.8255    0.05      32    0.58808     1.4148  -0.027324     19.754          0          0     1.5322     202.57 
2012 06 01 00:00:00.8755 0.05002      32    0.48093     1.4833  -0.032377      19.76          0          0     1.5593     197.96 
2012 06 01 00:00:00.9255    0.05      32    0.51645     1.4883  -0.079159     19.738          0          0     1.5754     199.14 
2012 06 01 00:00:00.9755    0.05      32    0.50769     1.4497   -0.14226     19.725          0          0      1.536      199.3 
2012 06 01 00:00:01.0255 0.05001      32    0.52405     1.4846   -0.21113     19.841          0          0     1.5743     199.44 
2012 06 01 00:00:01.0755    0.05      32    0.56479     1.5582   -0.26642     19.793          0          0     1.6574     199.92 
2012 06 01 00:00:01.1255 0.05001      32    0.52869     1.6209   -0.33309     19.689          0          0      1.705     198.06 
2012 06 01 00:00:01.1755    0.05      32    0.43873     1.6894   -0.34111     19.725          0          0     1.7454     194.56 
2012 06 01 00:00:01.2255    0.05      32    0.41221      1.659   -0.36289     19.784          0          0     1.7094     193.95 
2012 06 01 00:00:01.2755    0.05      32    0.40551     1.6268   -0.42017     19.834          0          0     1.6765        194 
2012 06 01 00:00:01.3255    0.05      32    0.38046     1.7512   -0.36301     19.766          0          0      1.792     192.26 
2012 06 01 00:00:01.3755    0.05      32    0.34605     1.7925   -0.25314     19.764          0          0     1.8256     190.93 
2012 06 01 00:00:01.4255 0.05001      32    0.34811     1.8007   -0.20941      19.75          0          0      1.834     190.94 
2012 06 01 00:00:01.4755 0.04999      32    0.42606     1.7518  -0.067568     20.044          0          0     1.8028     193.67 
2012 06 01 00:00:01.5255    0.05      32    0.39338     1.7729  -0.080955     19.986          0          0      1.816     192.51 
2012 06 01 00:00:01.5755 0.04999      32    0.41272     1.7677  -0.097857     19.801          0          0     1.8153     193.14 
2012 06 01 00:00:01.6255    0.05      32    0.31863     1.6942   -0.21412     19.774          0          0     1.7239     190.65 
2012 06 01 00:00:01.6755 0.05001      32    0.34505     1.6262   -0.25511      19.73          0          0     1.6625     191.98 
2012 06 01 00:00:01.7256 0.05006      32    0.36013     1.6244   -0.23636     19.721          0          0     1.6638      192.5 
2012 06 01 00:00:01.7756 0.05002      32    0.38706     1.6108   -0.21599     19.762          0          0     1.6566     193.51 
2012 06 01 00:00:01.8256 0.05001      32    0.38449      1.596   -0.21033     19.778          0          0     1.6417     193.54 
2012 06 01 00:00:01.8756 0.04992      32    0.35119      1.628   -0.21547     19.784          0          0     1.6654     192.17 
2012 06 01 00:00:01.9256 0.05001      32    0.32351     1.6196   -0.22268     19.805          0          0     1.6516      191.3 
2012 06 01 00:00:01.9756 0.04999      32    0.32512      1.611   -0.26046     19.738          0          0     1.6434     191.41 
2012 06 01 00:00:02.0256 0.05001      32    0.32999     1.5737   -0.26357     19.731          0          0     1.6079     191.84 
2012 06 01 00:00:02.0757  0.0501      32    0.29849     1.5672   -0.27471     19.754          0          0     1.5953     190.78 
2012 06 01 00:00:02.1256 0.04991      32    0.30481     1.5375   -0.28713     19.728          0          0     1.5675     191.21 
2012 06 01 00:00:02.1756    0.05      32    0.31687     1.5042   -0.24846     19.749          0          0     1.5372      191.9 
2012 06 01 00:00:02.2256 0.05005      32    0.31616     1.5063   -0.23992     19.769          0          0     1.5391     191.85 
2012 06 01 00:00:02.2756 0.04995      32    0.31101      1.481   -0.24905     19.738          0          0     1.5133     191.86 
2012 06 01 00:00:02.3256 0.05008      32    0.36103     1.5387   -0.24627     19.764          0          0     1.5805      193.2 
2012 06 01 00:00:02.3756 0.04993      32    0.34659     1.5388   -0.26217     19.771          0          0     1.5774     192.69 
2012 06 01 00:00:02.4256    0.05      32     0.3512     1.5691   -0.23182      19.73          0          0     1.6079     192.62 
2012 06 01 00:00:02.4758 0.05023      32    0.47814     1.5479   -0.17124     19.728          0          0       1.62     197.17 
2012 06 01 00:00:02.5258 0.05001      32    0.51216     1.5963   -0.20018     19.651          0          0     1.6765     197.79 
2012 06 01 00:00:02.5757 0.04987      32    0.48861     1.6547   -0.25999     19.716          0          0     1.7253     196.45 
2012 06 01 00:00:02.6258 0.05014      32    0.56491     1.6154   -0.26917      19.72          0          0     1.7113     199.28 
2012 06 01 00:00:02.6757 0.04988      32    0.60972     1.5984   -0.21285     19.696          0          0     1.7107     200.88 
2012 06 01 00:00:02.7257 0.04997      32    0.60165     1.5949   -0.21858     19.701          0          0     1.7046     200.67 
2012 06 01 00:00:02.7759 0.05019      32    0.55258     1.6196   -0.22707     19.713          0          0     1.7112     198.84 
2012 06 01 00:00:02.8257 0.04982      32    0.55307     1.5921   -0.21314     19.716          0          0     1.6854     199.16 
2012 06 01 00:00:02.8757 0.04997      32    0.53246     1.5591   -0.24097     19.716          0          0     1.6475     198.86 
2012 06 01 00:00:02.9256 0.04999      32    0.48859     1.6175   -0.23107     19.772          0          0     1.6897     196.81 
2012 06 01 00:00:02.9756 0.04996      32    0.55192     1.6118   -0.15523     19.813          0          0     1.7037      198.9 
2012 06 01 00:00:03.0256 0.05002      32    0.57239     1.6328    -0.1223      19.81          0          0     1.7302     199.32 
2012 06 01 00:00:03.0756 0.04999      32    0.62174     1.6953   -0.19996     19.658          0          0     1.8057     200.14 
2012 06 01 00:00:03.1256 0.04999      32    0.62691     1.6684   -0.23229      19.65          0          0     1.7823     200.59 
2012 06 01 00:00:03.1756    0.05      32    0.62864     1.6353   -0.18866     19.815          0          0     1.7519     201.03 
2012 06 01 00:00:03.2256 0.05001      32     0.6206     1.7124   -0.06334     20.315          0          0     1.8213     199.92 
2012 06 01 00:00:03.2758 0.05017      32    0.56858     1.6958  -0.060018      20.16          0          0     1.7885     198.54 
2012 06 01 00:00:03.3256 0.04983      32    0.57988     1.6202   0.021512     20.404          0          0     1.7208     199.69 
2012 06 01 00:00:03.3756    0.05      32    0.62758     1.5927      0.124     20.288          0          0     1.7119     201.51 
2012 06 01 00:00:03.4276 0.05194      32    0.52559     1.6416  -0.018249     19.996          0          0     1.7237     197.75 
2012 06 01 00:00:03.4762  0.0486      32    0.61525     1.5827  -0.049888     19.923          0          0     1.6981     201.24 
2012 06 01 00:00:03.5257  0.0495      32    0.63813     1.5444   -0.02224     19.969          0          0     1.6711     202.45 
2012 06 01 00:00:03.5756 0.04995      32    0.58166     1.6204   -0.12795     20.301          0          0     1.7217     199.75 
2012 06 01 00:00:03.6256 0.05001      32    0.57376      1.589   -0.13682     20.295          0          0     1.6894     199.85 
2012 06 01 00:00:03.6758 0.05022      32    0.51093     1.6761    -0.1621     20.293          0          0     1.7522     196.95 
2012 06 01 00:00:03.7256 0.04978      32    0.45787     1.5168   -0.25028     20.076          0          0     1.5844      196.8 
2012 06 01 00:00:03.7757 0.05006      32    0.61607     1.4774   -0.19391     20.272          0          0     1.6007     202.64 
2012 06 01 00:00:03.8257 0.05006      32    0.60082     1.4363  -0.062855     20.547          0          0     1.5569      202.7 
2012 06 01 00:00:03.8756  0.0499      32    0.73154      1.641   0.046449     20.698          0          0     1.7967     204.03 
2012 06 01 00:00:03.9256 0.04999      32    0.59631     1.5808    0.10626     20.646          0          0     1.6896     200.67 
2012 06 01 00:00:03.9756 0.05001      32    0.60113     1.5125    0.17498     20.611          0          0     1.6275     201.68 
2012 06 01 00:00:04.0256    0.05      32    0.74954     1.6166    0.11104      20.57          0          0     1.7819     204.87 
2012 06 01 00:00:04.0756    0.05      32    0.84175     1.6082   0.075838     20.549          0          0     1.8152     207.63 
2012 06 01 00:00:04.1256    0.05      32     0.8238      1.682  -0.032448     20.233          0          0     1.8729     206.09 
2012 06 01 00:00:04.1757 0.05004      32     0.7676     1.6013   -0.21923     20.071          0          0     1.7758     205.61 
2012 06 01 00:00:04.2256 0.04997      32    0.71086     1.5177   -0.20228     19.972          0          0     1.6759      205.1 
2012 06 01 00:00:04.2756    0.05      32    0.62096     1.5837   -0.16579     20.196          0          0     1.7011     201.41 
2012 06 01 00:00:04.3257    0.05      32     0.6079     1.5382  -0.048962     20.482          0          0      1.654     201.56 
2012 06 01 00:00:04.3757    0.05      32    0.63298     1.5955   0.036177     20.298          0          0     1.7164     201.64 
2012 06 01 00:00:04.4257    0.05      32    0.71507     1.5276  -0.098418     19.917          0          0     1.6867     205.08 
2012 06 01 00:00:04.4757    0.05      32    0.65591     1.4966  -0.066407     19.827          0          0      1.634     203.67 
2012 06 01 00:00:04.5257    0.05      32    0.63546     1.4288   -0.07875     19.772          0          0     1.5637     203.98 
2012 06 01 00:00:04.5757 0.05001      32    0.62049     1.4449  -0.076446     19.827          0          0     1.5725     203.24 
2012 06 01 00:00:04.6257    0.05      32    0.64303     1.4457 -0.0048649     20.047          0          0     1.5822     203.98 
2012 06 01 00:00:04.6757 0.05001      32    0.65167     1.3652  -0.040384     19.953          0          0     1.5127     205.52 
2012 06 01 00:00:04.7257    0.05      32    0.69879     1.3459  -0.037484     20.115          0          0     1.5165     207.44 
2012 06 01 00:00:04.7757 0.04999      32    0.67144     1.3102   -0.10656     20.134          0          0     1.4723     207.13 
2012 06 01 00:00:04.8257    0.05      32    0.64179     1.3363   -0.07481     20.269          0          0     1.4824     205.65 
2012 06 01 00:00:04.8757 0.05001      32    0.69219     1.2262  -0.017977     20.165          0          0     1.4081     209.45 
2012 06 01 00:00:04.9257    0.05      32    0.63282     1.1454   0.010863     20.085          0          0     1.3086     208.92 
2012 06 01 00:00:04.9757 0.05001      32    0.57258     1.1468   -0.02435     19.905          0          0     1.2818     206.53 
2012 06 01 00:00:05.0257 0.04999      32    0.62135     1.1213  -0.034657     19.875          0          0      1.282     208.99 
2012 06 01 00:00:05.0757 0.05001      32    0.53172      1.234  -0.024014     19.929          0          0     1.3437     203.31 
2012 06 01 00:00:05.1257 0.04999      32    0.57799     1.2265  -0.015363     19.969          0          0     1.3559     205.23 
2012 06 01 00:00:05.1757 0.05001      32    0.53207     1.3184   0.044308     19.774          0          0     1.4218     201.98 
2012 06 01 00:00:05.2257 0.04999      32    0.42341     1.3259   0.093133     19.766          0          0     1.3919     197.71 
2012 06 01 00:00:05.2757 0.05001      32    0.43067     1.2426   0.070326     19.752          0          0     1.3151     199.12 
2012 06 01 00:00:05.3257 0.04999      32    0.44216     1.2887   0.080526     19.752          0          0     1.3624     198.94 
2012 06 01 00:00:05.3757 0.05001      32    0.43394     1.3065   0.077662     19.762          0          0     1.3766     198.37 
2012 06 01 00:00:05.4257    0.05      32    0.48671     1.3346   0.026828     19.757          0          0     1.4205     200.04 
2012 06 01 00:00:05.4757 0.05001      32    0.51404     1.2877  0.0036393     19.767          0          0     1.3865     201.76 
2012 06 01 00:00:05.5257    0.05      32    0.53763     1.2589 -0.0087128     19.815          0          0     1.3689     203.13 
2012 06 01 00:00:05.5757    0.05      32    0.46514     1.2651  -0.093939     19.813          0          0     1.3479     200.19 
2012 06 01 00:00:05.6257 0.05001      32    0.51483     1.3289   -0.13544      19.75          0          0     1.4252     201.18 
2012 06 01 00:00:05.6758 0.05006      32    0.45439      1.432  -0.071053     19.767          0          0     1.5024      197.6 
2012 06 01 00:00:05.7258 0.05001      32    0.46265      1.444  -0.087513     19.691          0          0     1.5163     197.76 
2012 06 01 00:00:05.7758 0.05001      32    0.46403     1.3881  -0.010649     19.919          0          0     1.4636     198.48 
2012 06 01 00:00:05.8257 0.04992      32    0.40462     1.3438    0.19892     20.735          0          0     1.4034     196.76 
2012 06 01 00:00:05.8757 0.05002      32    0.24518     1.4023    0.29801     20.997          0          0     1.4236     189.92 
2012 06 01 00:00:05.9257 0.04999      32    0.18138     1.4706    0.32004     21.183          0          0     1.4818     187.03 
2012 06 01 00:00:05.9757 0.05001      32    0.26582     1.5427    0.43661     21.402          0          0     1.5654     189.78 
2012 06 01 00:00:06.0257    0.05      32     0.3288     1.7084    0.41548     21.279          0          0     1.7397     190.89 
2012 06 01 00:00:06.0757    0.05      32    0.40643     1.6136    0.41882     21.212          0          0      1.664     194.14 
2012 06 01 00:00:06.1257    0.05      32    0.27756     1.6924    0.29742     20.993          0          0      1.715     189.31 
2012 06 01 00:00:06.1757 0.05001      32    0.14625     1.5552    0.14336     20.214          0          0     1.5621     185.37 
2012 06 01 00:00:06.2257 0.05001      32    0.20731     1.4588    0.15965     20.585          0          0     1.4734     188.09 
2012 06 01 00:00:06.2757    0.05      32    0.20231     1.5417    0.12111     20.561          0          0     1.5549     187.48 
2012 06 01 00:00:06.3257    0.05      32    0.20925     1.4541    0.08417     20.209          0          0     1.4691     188.19 
2012 06 01 00:00:06.3757    0.05      32    0.25659     1.4934      0.194     20.435          0          0     1.5152     189.75 
2012 06 01 00:00:06.4257    0.05      32    0.29293     1.4702    0.16244     20.298          0          0     1.4991     191.27 
2012 06 01 00:00:06.4757 0.05002      32     0.1952     1.5186    0.18157     20.207          0          0     1.5311     187.32 
2012 06 01 00:00:06.5257 0.04999      32    0.21431      1.645    0.16444     19.788          0          0     1.6589     187.42 
2012 06 01 00:00:06.5757 0.04999      32    0.25246      1.574    0.18804     19.783          0          0     1.5941     189.11 
2012 06 01 00:00:06.6257    0.05      32    0.32451     1.5327    0.20596     19.842          0          0     1.5667     191.95 
2012 06 01 00:00:06.6758 0.05006      32    0.42712     1.4893     0.2326     19.868          0          0     1.5494        196 
2012 06 01 00:00:06.7257 0.04995      32    0.42028     1.4639     0.1965     19.875          0          0     1.5231     196.02 
2012 06 01 00:00:06.7757 0.05001      32    0.47866     1.5513    0.18631     19.931          0          0     1.6235     197.15 
2012 06 01 00:00:06.8258 0.05003      32    0.41697     1.5216    0.17425     19.846          0          0     1.5777     195.32 
2012 06 01 00:00:06.8757 0.04997      32    0.35892     1.4866    0.10811     19.803          0          0     1.5293     193.57 
2012 06 01 00:00:06.9257 0.04999      32      0.287     1.4893   0.026202      19.76          0          0     1.5167     190.91 
2012 06 01 00:00:06.9758 0.05001      32    0.32044     1.4556  -0.045074     19.697          0          0     1.4904     192.42 
2012 06 01 00:00:07.0257 0.04999      32     0.3481     1.4408  -0.019328     19.675          0          0     1.4822     193.58 
2012 06 01 00:00:07.0757 0.05001      32    0.31179     1.4835  -0.061125     19.593          0          0     1.5159     191.87 
2012 06 01 00:00:07.1257    0.05      32    0.34553     1.4987   -0.10269     19.563          0          0     1.5381     192.98 
2012 06 01 00:00:07.1758 0.05001      32    0.40045     1.5158  -0.081889     19.602          0          0     1.5678      194.8 
2012 06 01 00:00:07.2258 0.05001      32    0.31774     1.5019   -0.10289     19.627          0          0     1.5352     191.95 
2012 06 01 00:00:07.2758    0.05      32    0.36785     1.4548   -0.11186     19.602          0          0     1.5006     194.19 
2012 06 01 00:00:07.3258 0.04999      32    0.44041     1.4451    -0.1442     19.576          0          0     1.5107     196.95 
2012 06 01 00:00:07.3758 0.05001      32    0.45731     1.4522   -0.11413     19.593          0          0     1.5225     197.48 
2012 06 01 00:00:07.4258    0.05      32    0.41564     1.4401  -0.078249     19.604          0          0     1.4989      196.1 
2012 06 01 00:00:07.4758 0.05004      32    0.41092     1.4374  -0.075441     19.588          0          0      1.495     195.95 
2012 06 01 00:00:07.5258 0.04997      32    0.39246     1.4327  -0.084343     19.586          0          0     1.4855     195.32 
2012 06 01 00:00:07.5758 0.04999      32    0.44178      1.452   -0.14108     19.575          0          0     1.5177     196.92 
2012 06 01 00:00:07.6258    0.05      32    0.41854     1.4468   -0.14098     19.559          0          0     1.5061     196.13 
2012 06 01 00:00:07.6758 0.05005      32    0.42463     1.4355   -0.12184     19.573          0          0      1.497     196.48 
2012 06 01 00:00:07.7258 0.05001      32     0.3888     1.3887   -0.12573      19.58          0          0     1.4421     195.64 
2012 06 01 00:00:07.7758 0.04996      32    0.38564     1.4034   -0.10172     19.583          0          0     1.4555     195.36 
2012 06 01 00:00:07.8258    0.05      32    0.36371     1.4092   -0.10186     19.619          0          0     1.4553     194.47 
2012 06 01 00:00:07.8758    0.05      32    0.35312     1.3872   -0.11771     19.663          0          0     1.4314     194.28 
2012 06 01 00:00:07.9258    0.05      32    0.31706     1.4436   -0.16107     19.668          0          0     1.4781     192.39 
2012 06 01 00:00:07.9758    0.05      32     0.3494     1.5044   -0.25882      19.59          0          0     1.5445     193.08 
2012 06 01 00:00:08.0258 0.05001      32    0.37707     1.5052   -0.24618     19.615          0          0     1.5517     194.06 
2012 06 01 00:00:08.0758    0.05      32    0.36391     1.4846   -0.26573     19.638          0          0     1.5285     193.77 
2012 06 01 00:00:08.1258 0.05001      32    0.36881     1.4667   -0.29319     19.585          0          0     1.5124     194.11 
2012 06 01 00:00:08.1758 0.04999      32    0.38079     1.4331   -0.26878     19.568          0          0     1.4828     194.88 
2012 06 01 00:00:08.2258 0.05001      32    0.40117     1.4487   -0.21425     19.544          0          0     1.5032     195.48 
2012 06 01 00:00:08.2758    0.05      32    0.44356     1.4953   -0.19141      19.54          0          0     1.5597     196.52 
2012 06 01 00:00:08.3258 0.05001      32    0.44247     1.4951   -0.20125      19.54          0          0     1.5592     196.49 
2012 06 01 00:00:08.3758    0.05      32    0.40774     1.5265   -0.20248      19.54          0          0       1.58     194.95 
2012 06 01 00:00:08.4258    0.05      32    0.42645     1.4957   -0.25517     19.542          0          0     1.5553     195.91 
2012 06 01 00:00:08.4758    0.05      32    0.42315     1.4905   -0.28188     19.542          0          0     1.5494     195.85 
2012 06 01 00:00:08.5258    0.05      32    0.44869     1.4557   -0.21212      19.54          0          0     1.5233     197.13 
2012 06 01 00:00:08.5758 0.05003      32    0.41872     1.4047   -0.22531     19.542          0          0     1.4657      196.6 
2012 06 01 00:00:08.6258    0.05      32    0.39153     1.3603   -0.20406     19.544          0          0     1.4155     196.06 
2012 06 01 00:00:08.6758 0.04997      32    0.32635     1.3135   -0.19292     19.546          0          0     1.3534     193.95 
2012 06 01 00:00:08.7258 0.05001      32    0.34201      1.264   -0.24933     19.547          0          0     1.3094     195.14 
2012 06 01 00:00:08.7758 0.04999      32    0.33387     1.2637   -0.29376     19.542          0          0      1.307      194.8 
2012 06 01 00:00:08.8258    0.05      32    0.34612     1.2187   -0.34917     19.547          0          0     1.2669     195.86 
2012 06 01 00:00:08.8758    0.05      32    0.36377     1.1907   -0.41622     19.544          0          0      1.245     196.99 
2012 06 01 00:00:08.9258    0.05      32    0.41771     1.1756    -0.4198     19.551          0          0     1.2476     199.56 
2012 06 01 00:00:08.9758    0.05      32     0.5108     1.1927   -0.42806     19.549          0          0     1.2975     203.18 
2012 06 01 00:00:09.0258    0.05      32    0.50731     1.1488   -0.37055     19.544          0          0     1.2559     203.83 
2012 06 01 00:00:09.0758 0.04999      32    0.50456     1.1611   -0.29636     19.629          0          0      1.266     203.49 
2012 06 01 00:00:09.1258 0.05001      32     0.4513     1.0912   -0.19563     19.825          0          0     1.1809     202.47 
2012 06 01 00:00:09.1758    0.05      32    0.32907     1.1732    -0.2042     19.909          0          0     1.2185     195.67 
2012 06 01 00:00:09.2258    0.05      32     0.3098     1.3106   -0.20392     19.847          0          0     1.3468      193.3 
2012 06 01 00:00:09.2758    0.05      32    0.35864     1.3294   -0.21649     19.946          0          0      1.377      195.1 
2012 06 01 00:00:09.3258    0.05      32    0.47139     1.2788   -0.26743     19.752          0          0     1.3629     200.23 
2012 06 01 00:00:09.3758    0.05      32    0.53775     1.3993    -0.2539     20.011          0          0      1.499     201.02 
2012 06 01 00:00:09.4258    0.05      32    0.58486     1.4333   -0.22619     20.119          0          0      1.548      202.2 
2012 06 01 00:00:09.4758    0.05      32     0.7446     1.3725   -0.11761      20.08          0          0     1.5615     208.48 
2012 06 01 00:00:09.5258 0.05001      32    0.80233     1.3475    0.13184     20.045          0          0     1.5683     210.77 
2012 06 01 00:00:09.5759 0.05003      32    0.71663     1.2527    0.13974     20.088          0          0     1.4432     209.77 
2012 06 01 00:00:09.6259 0.05001      32     0.6725     1.3339 -0.0081456     20.119          0          0     1.4939     206.75 
2012 06 01 00:00:09.6789 0.05301      32    0.70845     1.3122   0.081473     20.115          0          0     1.4912     208.36 
2012 06 01 00:00:09.7259 0.04696      32    0.67375     1.3185   0.079103     20.151          0          0     1.4807     207.07 
2012 06 01 00:00:09.7759 0.05001      32    0.64514     1.2445    0.14143     20.151          0          0     1.4018      207.4 
2012 06 01 00:00:09.8259    0.05      32      0.723     1.3256    0.12445     20.172          0          0     1.5099     208.61 
2012 06 01 00:00:09.8759    0.05      32     0.7388     1.3198    0.10583     20.216          0          0     1.5125     209.24 
